4.111197148302148108e-01 7.506919342100635273e-01 -5.652366435716319470e-01 -8.361045789777077353e-01
-2.658358772486039134e-01 -2.510881244802025680e-01 4.248581589780578982e-01 5.694699835930858850e-02
3.181141112359996415e-01 3.361466483541836747e-01 -4.055339173155743659e-01 8.204586004888522743e-02
2.400768148845835170e-01 -4.280862318400294741e-01 1.098246821503357090e-01 -1.089025890508305422e-01
-7.454426025696854197e-01 -5.501346184541655582e-01 5.399550291607434493e-01 7.650889392275390666e-01
7.158563121839429666e-01 8.586484656590041009e-01 -4.461096689728920595e-01 -7.766129016553757758e-01
-2.872460393027723713e-01 2.517792445775592913e-01 -2.922506368067128713e-01 6.084514595863043523e-02
7.542038962761904441e-02 4.790386197769787996e-02 7.898883189351067757e-02 -2.171299752627173230e-02
-1.912743857001101833e-01 1.371103042163483721e-01 4.712345160212809136e-01 -2.635753385089634748e-01
-9.927064535414531488e-01 -1.367728825956801231e+00 2.743091720789344046e-01 2.661986601802870389e-01
