2.799924533383619241e-01 2.000232682331516632e+00 1.144342089014384160e-02 -2.736739451770247022e+00
2.339396984933669599e-01 -3.797520856805107758e-01 5.235976615958571473e-02 3.863411219722924783e-01
-2.234124824175190982e-01 4.820090230759040972e-01 -3.104509391806712371e-01 8.179650859892355352e-02
3.931546696263546470e-01 -3.476663254681668369e-01 3.623232542500119946e-01 -6.593409587740856059e-02
-4.254216960325539476e-02 1.235365832218671828e-01 -4.680111778670072442e-01 -4.586793243798639175e-01
-3.757398452692544133e-01 -1.382568532548853757e-01 -1.784670659240993607e-01 2.748301025033779155e-01
-6.567706986896576504e-01 1.817280465997795913e-01 6.039884469991854687e-02 -1.040334295778586327e-01
-5.095184861921558950e-01 2.870019101845565079e-01 -2.610281446304313357e-01 5.411771851403351236e-02
-6.598807884883447494e-01 -2.620459529196534909e-01 -3.631001122195803288e-01 2.641607909360772499e-01
-3.088712436045493170e-01 -1.992662227383865670e+00 5.652542851313959726e-01 2.614096026567023223e+00
6.291359964435378838e-04 2.576447623520393915e+00 -6.647287723326174014e-01 -4.180097180787429423e+00
7.999739694270677215e-02 3.507945722713519121e-01 -2.519568081984929417e-02 6.479278422872082610e-02
-1.646804783441469314e-02 -2.752533487376401244e-01 -4.752738910597753552e-01 -1.256154610632731206e-01
-4.361647067584618620e-01 -3.764990700650893696e-01 -6.277824541494148036e-01 -2.081571773038251583e-01
2.277043825711457803e-01 2.450953420270321759e-01 -7.643186562758197411e-01 -2.309032249967314099e-01
-3.154234247601805374e-01 -2.974290946082290901e-02 -1.084706500045887201e-01 4.903640892689174746e-02
-1.295856425485091279e-01 -4.148693159873906300e-02 -5.929540925342168256e-01 -3.318585771372026261e-01
-9.018920162051783374e-01 1.809486754647779971e-01 -6.596159016472402659e-01 -3.009183095725809134e-03
-2.656230052259241914e-01 3.716765069575189706e-02 1.660885753799410114e-01 4.663205188672410739e-01
5.456284458995377395e-01 -1.868652518456790368e+00 5.551989487826258785e-02 4.232810142480735394e+00
