2.155302802429825970e+00 3.213735621325734121e-02 4.915177781702597115e-01 -2.417738529727991303e-01 8.644525675313644575e-01 -1.165516977114827668e+01 4.556076463806292831e-01 4.471813869486451765e-01
2.966462046367609670e-02 4.331826888635036954e-01 -5.711071830368257274e-01 9.263524896964987487e-01 -4.416919419434039540e+00 8.642057547960403596e+00 7.204054787948981353e-01 -4.453868346197464856e-01
2.904738621666536069e+00 4.998941215517428982e-01 -6.561005291460872968e-01 -8.800256548462653816e-01 -1.075843098534345188e+01 -3.030284112158496690e+00 -7.686085713724494228e-01 -4.352682332386131336e-01
3.243983158946898704e-01 1.165997600679933854e-01 -2.165554582575420495e-01 1.969743057557077348e+00 -1.263195647654147935e+00 -1.696907956567266140e+01 4.736151068912154427e-01 5.045842841295159475e-01
5.881204078709546756e+00 9.506915047527874085e-01 -9.496252740801268688e-01 2.085789831775271441e+00 -2.200016700366258959e+01 -5.121297473723845251e+00 1.889783828692295220e+00 -6.160819889509030478e-01
4.624158323861991549e-01 2.455287735956182271e-01 -1.791246586918234796e-01 -7.787889725721731660e-01 -1.741789732970883353e+00 -3.364806958349895893e+01 3.195471877504092006e+00 1.047756896628947859e-01
1.227944456407672885e-01 -1.599848926605469332e-02 6.927369559232574026e-02 1.075995407647441643e-01 -9.372582218561376077e-01 -6.612888942253548619e-01 4.849103628076921524e+00 -1.394709713633879022e-01
4.033421359818492036e-01 2.317922573049168225e-02 -4.290149389086102272e-02 -2.631413798023302664e-01 -1.825487354945348972e+00 -2.143217019549292335e+00 5.916086873550649994e-01 3.534566141500011249e-01
