-1.246512318868166630e-01 2.229235453260666744e-02 2.760992438181615771e+00 2.884619668045162455e-01 6.586009018574642271e-01 1.252792880347895199e+01 -1.276308474103001700e+01 2.409350536442235180e-01
-1.471405196250136216e-02 -2.008009584225966260e-01 -2.284332566475451909e+00 5.628716220025382633e-01 5.665945583504315985e-01 -1.595845937567639794e+01 9.517969118395882333e+00 4.302643948830893461e-02
5.718437018389365160e-04 1.021757177314369484e-02 9.184585673391388871e-01 5.027399123722721408e-02 9.517957661366782673e-02 -7.336746112069122638e+00 -3.011599190312019836e-01 -3.727031213451157537e-02
-5.055962142685544586e-02 -9.687205054399478793e-03 -1.975469289828980096e-02 1.726466713689009502e+00 2.149064835665401296e-01 -3.490246620757755242e-02 -5.732203933224514714e+00 4.675457188863161306e-01
1.923751459084079712e-02 -1.506038949991047454e-02 3.409111893246283276e-02 1.033283234176533283e-01 2.530232921800060542e+00 1.442452702388166974e-01 -4.542465573542877055e-01 1.557852303130674854e-01
2.931265731033827482e-02 -1.327550898511178079e-01 1.345930304798684529e-01 2.272821602073956448e+00 1.962397589998713832e+00 -1.317939915892907443e+01 -1.703280210562011232e-01 1.023170109267397682e-01
-1.321359481530050284e-01 4.887841287841026422e-02 1.504627894652179387e+00 -6.808094518122608241e-01 1.437019425062234124e+00 -1.180763301729668369e+00 -1.187566668800850067e+01 2.554603123393605832e-02
3.736635317728707884e-02 -1.900044972917073333e-02 9.809457616112030043e-02 8.227926568238920491e-02 2.339181261826752678e-01 1.668903354966584651e-01 -4.552908867581902941e-01 1.080778830497433063e+00
