3.833254846577045793e-02 -3.423814187368193901e-02 0.000000000000000000e+00 -4.706591795053822460e-04 0.000000000000000000e+00 0.000000000000000000e+00 0.000000000000000000e+00 0.000000000000000000e+00 3.330741981303575833e-12 -3.665068137166433347e-12 0.000000000000000000e+00 0.000000000000000000e+00 5.865978617059686111e-09 -6.405987799840882549e-09 3.676224657123080641e-10 -3.676220765066263623e-10 -1.870661954593887213e-21 2.111112652385873553e-21 0.000000000000000000e+00 0.000000000000000000e+00 8.234704387645858916e-21 -7.913802217534018327e-21 4.934700711264810206e-22 -5.230437459888594293e-22 3.748165400616615655e-06 0.000000000000000000e+00 0.000000000000000000e+00 0.000000000000000000e+00 5.064869444660296920e-03 -1.449575768086842431e-03 0.000000000000000000e+00 0.000000000000000000e+00 7.143443948155995692e-05 -1.216012905346297780e-04 -8.474090728459214919e-04 8.474100810469391721e-04 0.000000000000000000e+00 0.000000000000000000e+00 0.000000000000000000e+00 0.000000000000000000e+00 0.000000000000000000e+00 0.000000000000000000e+00 0.000000000000000000e+00 0.000000000000000000e+00 0.000000000000000000e+00 0.000000000000000000e+00 7.752641425636037811e-06 -3.630057325048515373e-06 1.094576143288734753e-02 -1.004991092518234264e-02 0.000000000000000000e+00 0.000000000000000000e+00 -2.236760852161258405e-04 2.178034299068598958e-04 0.000000000000000000e+00 0.000000000000000000e+00 9.977374127600328532e-03 -1.022960656828148136e-02 1.208689041214656783e-05 -1.208696242162245446e-05 6.147740230648904985e-03 -6.585802598531548951e-03 9.352943431331665544e-04 -9.352943697996692193e-04 0.000000000000000000e+00 0.000000000000000000e+00 0.000000000000000000e+00 0.000000000000000000e+00 1.010675982214907592e-11 -1.058853741968263964e-11 -8.312626390337230538e-13 1.197703351523090228e-13 1.047800980539097260e-02 -1.096174049132836274e-02 0.000000000000000000e+00 -8.393684563574476851e-05 0.000000000000000000e+00 0.000000000000000000e+00 0.000000000000000000e+00 0.000000000000000000e+00 7.619692311173341826e-04 -7.996525474084198969e-04 5.726438302228406834e-05 -5.726445205763937475e-05 1.877863778281749219e-02 -1.909156965591035301e-02 0.000000000000000000e+00 3.747517089008937469e-05 3.628889017263469948e-25 -8.298433417543988567e-26 0.000000000000000000e+00 0.000000000000000000e+00 2.971535546787695742e-25 -4.682290062192643630e-25 -3.204556787681139039e-24 3.151301993348713989e-24 -3.585848697793888457e-02 3.563565621949630474e-02 0.000000000000000000e+00 0.000000000000000000e+00 -1.472493042196858324e-04 1.425256570655657835e-04 0.000000000000000000e+00 0.000000000000000000e+00 -3.221587149305996101e-02 3.202459955377492951e-02 3.346656871087922563e-02 -3.346662456679378589e-02 -1.644047449288651638e-02 1.655682953034566182e-02 -3.267038558617589636e-06 3.266997337938915475e-06 1.082734662963392671e-04 -4.203557737727797055e-04 7.722247401576645860e-03 -7.719880475511442866e-03 -1.310953900812775485e-11 1.314471888572277329e-11 -2.100354768408347102e-13 5.537224475911469116e-14 9.252244146962754212e-03 -9.548654238545778786e-03 0.000000000000000000e+00 0.000000000000000000e+00 1.371005114963570574e-03 -1.377723290124164895e-03 0.000000000000000000e+00 0.000000000000000000e+00 1.551679707867672283e-03 -1.558213698149766863e-03 1.126590346284158235e-06 -1.126601209318342915e-06 1.730562938277114757e-02 -1.704447280983411445e-02 -1.466710650545751879e-02 1.466707231556976972e-02 0.000000000000000000e+00 0.000000000000000000e+00 0.000000000000000000e+00 0.000000000000000000e+00 5.946815373045879821e-04 -5.919075366144664271e-04 1.007799284450237417e-05 -1.286521059836239096e-05
8.501302054429876482e-04 0.000000000000000000e+00 0.000000000000000000e+00 -8.913482562237950340e-04 0.000000000000000000e+00 0.000000000000000000e+00 0.000000000000000000e+00 0.000000000000000000e+00 1.071562177087522893e-03 -5.678721679556577098e-04 0.000000000000000000e+00 0.000000000000000000e+00 0.000000000000000000e+00 0.000000000000000000e+00 0.000000000000000000e+00 0.000000000000000000e+00 0.000000000000000000e+00 0.000000000000000000e+00 0.000000000000000000e+00 0.000000000000000000e+00 0.000000000000000000e+00 0.000000000000000000e+00 0.000000000000000000e+00 0.000000000000000000e+00 0.000000000000000000e+00 0.000000000000000000e+00 0.000000000000000000e+00 0.000000000000000000e+00 3.124271020660533259e-03 5.531261673810086059e-04 0.000000000000000000e+00 0.000000000000000000e+00 3.094779982059450824e-07 -3.170038690291647726e-07 0.000000000000000000e+00 0.000000000000000000e+00 3.305629321219099095e-03 -3.492153830388674933e-03 0.000000000000000000e+00 0.000000000000000000e+00 1.400453759484211381e-09 -9.739841731046902320e-10 0.000000000000000000e+00 2.970626815487780224e-09 2.389625879126668911e-09 -2.419648834071324217e-09 7.104624056251151817e-09 -6.773504400832137063e-09 9.677820253048640182e-13 0.000000000000000000e+00 0.000000000000000000e+00 0.000000000000000000e+00 1.167266765922983917e-06 1.570561038309829913e-05 0.000000000000000000e+00 0.000000000000000000e+00 1.360575162026819371e-02 -1.431255499078439714e-02 1.209349729258643928e-05 -1.209361601525403778e-05 3.018845663375905892e-03 -3.295463401303640703e-03 3.453356796943143404e-04 -3.453356901063399658e-04 2.693193954885434293e-11 -2.543621699410535134e-11 0.000000000000000000e+00 0.000000000000000000e+00 5.999435582058046303e-04 -6.331488852620443782e-04 -5.891205752902928450e-05 8.488191800549408657e-06 0.000000000000000000e+00 0.000000000000000000e+00 0.000000000000000000e+00 0.000000000000000000e+00 2.855443944930028895e-11 -1.961444315834411736e-12 0.000000000000000000e+00 0.000000000000000000e+00 3.256265602457684809e-03 -3.457015526881990642e-03 3.407163317033102407e-04 -3.407167345894547713e-04 2.753749318752577932e-02 -2.880312416570133399e-02 0.000000000000000000e+00 9.719532270575111218e-05 0.000000000000000000e+00 0.000000000000000000e+00 0.000000000000000000e+00 0.000000000000000000e+00 -7.227689548231208935e-11 7.652033306681194946e-11 4.772783756267410024e-11 -4.971198630556452959e-11 -6.219725484630379203e-13 0.000000000000000000e+00 0.000000000000000000e+00 0.000000000000000000e+00 4.425573553763743053e-06 -2.802672836887377895e-05 0.000000000000000000e+00 0.000000000000000000e+00 9.223127168324588010e-02 -9.206855442827907576e-02 -3.246228531872193818e-02 3.246205440763890587e-02 2.467192401939968284e-03 -2.377578287665659505e-03 3.806012187919933089e-04 -3.806008057087899776e-04 6.106480253940860635e-06 -2.371094470165577175e-05 -4.698997464949779962e-04 4.702281193586204245e-04 4.234669166343818969e-04 -4.201559766163747572e-04 -1.729612304317320313e-05 4.559825668194686596e-06 1.426750054844654204e-13 0.000000000000000000e+00 0.000000000000000000e+00 0.000000000000000000e+00 1.260698968253462417e-03 -1.279606557963719254e-03 0.000000000000000000e+00 0.000000000000000000e+00 -1.053614166589299760e-02 1.055992139336438436e-02 4.943874162661378024e-06 -4.943918735165174064e-06 -3.324417949807899342e-02 3.266894290094117526e-02 1.760757334343745206e-01 -1.760758994302793479e-01 0.000000000000000000e+00 0.000000000000000000e+00 0.000000000000000000e+00 0.000000000000000000e+00 -5.089282267745171167e-06 2.255903791237555558e-05 3.806507642705836918e-05 -4.859275493140704518e-05
2.529795070996163856e-03 0.000000000000000000e+00 0.000000000000000000e+00 -6.098087660644336628e-04 0.000000000000000000e+00 0.000000000000000000e+00 0.000000000000000000e+00 0.000000000000000000e+00 9.071570525474933686e-03 -9.066829560753808179e-03 0.000000000000000000e+00 0.000000000000000000e+00 5.729106143388492571e-04 -4.779292463430302143e-04 0.000000000000000000e+00 0.000000000000000000e+00 0.000000000000000000e+00 0.000000000000000000e+00 0.000000000000000000e+00 0.000000000000000000e+00 2.926871722724755528e-04 -2.663748651281997587e-04 0.000000000000000000e+00 0.000000000000000000e+00 0.000000000000000000e+00 0.000000000000000000e+00 0.000000000000000000e+00 0.000000000000000000e+00 4.094019882544599857e-03 -4.373041067035202730e-04 0.000000000000000000e+00 0.000000000000000000e+00 2.768744559450548020e-04 -2.643489432446144926e-04 0.000000000000000000e+00 0.000000000000000000e+00 4.060473982275171890e-05 -3.800989578473512045e-05 0.000000000000000000e+00 0.000000000000000000e+00 4.094777269978452076e-05 -3.570131152714322973e-05 0.000000000000000000e+00 -1.409911362313276374e-06 0.000000000000000000e+00 0.000000000000000000e+00 0.000000000000000000e+00 0.000000000000000000e+00 1.077223727018814707e-03 -9.525356341486894115e-04 0.000000000000000000e+00 0.000000000000000000e+00 -1.017764768759337298e-04 8.618109653306899401e-05 0.000000000000000000e+00 0.000000000000000000e+00 5.936536085900027612e-03 -6.308399706438340242e-03 1.611866401259852094e-05 -1.611877428169317442e-05 9.989850069570845384e-03 -1.065589248839385328e-02 1.514492135456009135e-03 -1.514492178349338214e-03 -9.722414794065704195e-29 1.121167360929869392e-28 -3.400420017508275563e-30 -1.164437256559725803e-30 1.902176836133223010e-08 -1.954080356296410941e-08 -7.096532466781563217e-10 1.022485622225356564e-10 0.000000000000000000e+00 0.000000000000000000e+00 0.000000000000000000e+00 0.000000000000000000e+00 0.000000000000000000e+00 0.000000000000000000e+00 0.000000000000000000e+00 0.000000000000000000e+00 1.111845275114450513e-02 -1.171120912331157296e-02 8.138312261940721477e-04 -8.138321884775764382e-04 3.895948374298657813e-02 -4.010622744876053691e-02 0.000000000000000000e+00 9.438648688985799460e-05 1.104420932806117252e-10 -4.164089221656345403e-11 0.000000000000000000e+00 0.000000000000000000e+00 4.477460178816555737e-11 -6.991885380961415877e-11 -6.624824412864070768e-10 1.190976781675720356e-09 -2.130405102918707730e-02 2.127678099002162579e-02 0.000000000000000000e+00 0.000000000000000000e+00 -7.867491573130485727e-05 5.258470626414730043e-05 0.000000000000000000e+00 0.000000000000000000e+00 5.014526886714693737e-02 -4.987058414254418037e-02 -6.005115542881243884e-02 6.005085313039285055e-02 5.043479614791524131e-03 -5.016412048260120334e-03 6.601929235578415966e-05 -6.601928108433396936e-05 9.505840193060463022e-06 -3.690772810532587947e-05 4.697603798561961956e-04 -4.690113847449135808e-04 -1.678614052873818723e-17 6.920227683722083950e-17 0.000000000000000000e+00 0.000000000000000000e+00 2.205561945346550478e-04 -2.352498963767739239e-04 0.000000000000000000e+00 0.000000000000000000e+00 1.717656689851426331e-03 -1.744371505016728508e-03 0.000000000000000000e+00 0.000000000000000000e+00 -7.567382774827571996e-03 7.666882097101827311e-03 8.550803456698231474e-06 -8.550880158480643730e-06 -3.852397069521114326e-02 3.842733021798398069e-02 1.199578287548248162e-02 -1.199587323515865014e-02 -4.809773637936367499e-17 5.229274007849214191e-17 0.000000000000000000e+00 0.000000000000000000e+00 -9.934238794583130107e-06 1.002402063306694849e-05 2.328572207516905308e-07 -3.151138026874059834e-07
2.953463794036721279e-03 -4.088907015348657048e-04 0.000000000000000000e+00 -3.731390266860462558e-04 0.000000000000000000e+00 0.000000000000000000e+00 0.000000000000000000e+00 0.000000000000000000e+00 1.022539192091148370e-03 -1.050762589364846863e-03 0.000000000000000000e+00 0.000000000000000000e+00 4.750575275992914223e-03 -4.929408687027502303e-03 0.000000000000000000e+00 0.000000000000000000e+00 -8.999254660800403262e-05 9.817855976908306317e-05 0.000000000000000000e+00 0.000000000000000000e+00 3.357239672135892876e-04 -3.414566471899363725e-04 -1.131731389520272208e-04 1.184794868454038636e-04 5.920672338503486331e-08 0.000000000000000000e+00 0.000000000000000000e+00 0.000000000000000000e+00 4.171813739256041709e-03 -5.893995274477522488e-04 0.000000000000000000e+00 0.000000000000000000e+00 4.874255245131501688e-07 -3.473569922165131644e-07 0.000000000000000000e+00 0.000000000000000000e+00 4.628639908458641143e-03 -4.905162480494298233e-03 0.000000000000000000e+00 0.000000000000000000e+00 0.000000000000000000e+00 0.000000000000000000e+00 0.000000000000000000e+00 0.000000000000000000e+00 9.508570126876319274e-07 -2.500877137298987200e-07 7.006775424700415339e-07 -6.719758170926386494e-07 4.317606628897432595e-04 -3.238549597911687897e-04 0.000000000000000000e+00 0.000000000000000000e+00 1.899768383520868738e-03 -1.933702349126984084e-03 0.000000000000000000e+00 0.000000000000000000e+00 4.775826356543536391e-03 -5.065543244560750599e-03 1.395390873105207891e-05 -1.395399818939469007e-05 1.495539282995735943e-02 -1.631005478317294061e-02 -1.259649178279485414e-03 1.259649191666718359e-03 -9.527460614800355182e-13 9.898943407710736311e-13 -1.656949322969681904e-14 -1.587179009724429653e-15 4.495275499593325941e-08 -4.643174592903276749e-08 -2.108220355766268702e-09 3.037448687686582257e-10 3.117107970750694276e-03 -3.244889557624721071e-03 0.000000000000000000e+00 -2.013868968371714885e-05 1.048818114369393431e-04 1.646037831102376836e-05 0.000000000000000000e+00 0.000000000000000000e+00 9.283710202850683764e-05 -9.822392551554892247e-05 9.167703573907715718e-06 -9.167714341696223547e-06 2.642281939930075929e-02 -2.672879260809202587e-02 0.000000000000000000e+00 5.705945293720164429e-05 1.202167775301973959e-36 -1.030530497798037470e-36 0.000000000000000000e+00 0.000000000000000000e+00 4.053964588142078659e-36 -5.262745872338759402e-36 3.032371011825732620e-35 -2.896521134067854292e-35 2.424766475411781197e-02 -2.428747070703193844e-02 0.000000000000000000e+00 0.000000000000000000e+00 1.176199351635863173e-03 -1.200848310209826813e-03 0.000000000000000000e+00 0.000000000000000000e+00 -1.281722749776741978e-02 1.282972397257321241e-02 -2.620951331848548477e-03 2.620889799577394257e-03 -3.278177368746694811e-03 3.710727788392070847e-03 -6.234720873821530913e-06 6.234603270746284936e-06 7.390681307946120005e-06 -2.869323081674531612e-05 -6.263607708182836187e-04 6.265610650346154767e-04 -3.384927753804881665e-23 -2.427295257412087100e-23 4.662770778032195075e-22 -3.722220174088874744e-22 2.161631477268125641e-04 -2.565007656992718374e-04 0.000000000000000000e+00 0.000000000000000000e+00 -7.601636901463318212e-03 7.534631982450589599e-03 0.000000000000000000e+00 0.000000000000000000e+00 2.462306975684581348e-04 -2.484251532756088197e-04 7.817500745839805385e-07 -7.817576062838068906e-07 8.727278769225349855e-03 -8.897106307019576540e-03 3.094624981049521814e-02 -3.094637095470108290e-02 0.000000000000000000e+00 0.000000000000000000e+00 0.000000000000000000e+00 0.000000000000000000e+00 -7.065652919127609266e-04 7.089761005547367883e-04 7.873213158107667989e-06 -1.005068243484877761e-05
2.874274396230704510e-03 -6.316929055692570554e-05 0.000000000000000000e+00 -6.393601285956315976e-04 0.000000000000000000e+00 0.000000000000000000e+00 0.000000000000000000e+00 0.000000000000000000e+00 -6.799161156134447348e-04 7.263823552516594957e-04 0.000000000000000000e+00 0.000000000000000000e+00 1.913545363149408334e-03 -1.890639314512847788e-03 0.000000000000000000e+00 0.000000000000000000e+00 4.256134856968494715e-04 -2.545946844480569560e-04 0.000000000000000000e+00 0.000000000000000000e+00 0.000000000000000000e+00 0.000000000000000000e+00 0.000000000000000000e+00 0.000000000000000000e+00 0.000000000000000000e+00 0.000000000000000000e+00 0.000000000000000000e+00 0.000000000000000000e+00 3.144078958524617554e-03 4.836980753756882920e-04 0.000000000000000000e+00 0.000000000000000000e+00 3.207386482956140687e-04 -3.136465925857159559e-04 0.000000000000000000e+00 0.000000000000000000e+00 8.007036129712108386e-05 -6.765588833495958998e-05 0.000000000000000000e+00 0.000000000000000000e+00 1.888350997457907460e-05 -1.013753081100874052e-05 0.000000000000000000e+00 -1.070070275125546367e-06 0.000000000000000000e+00 0.000000000000000000e+00 0.000000000000000000e+00 0.000000000000000000e+00 1.242445895977405557e-03 -1.186092364495862882e-03 0.000000000000000000e+00 0.000000000000000000e+00 4.937825276432445364e-04 -4.946730704497237984e-04 0.000000000000000000e+00 0.000000000000000000e+00 2.277367762255557912e-02 -2.392109540898841938e-02 9.818918708354466493e-05 -9.818980890893112151e-05 7.497499752186003938e-03 -8.031237871986373830e-03 1.197875860520811880e-03 -1.197875894574915601e-03 -3.527986020325049087e-10 1.285157352081066272e-07 3.300785838377614801e-07 3.624048776573782722e-08 4.931485150793551338e-08 -4.407526386672681109e-08 -1.626384771383044405e-09 -1.572305278916557166e-09 -9.327148984258953803e-04 8.304628888759102868e-04 0.000000000000000000e+00 -4.409739099159373777e-05 1.598738314615222376e-04 2.631484171912897967e-05 0.000000000000000000e+00 0.000000000000000000e+00 7.193498717597525231e-03 -7.590131705426864453e-03 6.646836463420028197e-04 -6.646844317377171045e-04 4.247094134666307835e-02 -4.382939696421251502e-02 0.000000000000000000e+00 9.593858130159429163e-05 2.887304159001790852e-08 -1.439063965588075758e-08 0.000000000000000000e+00 0.000000000000000000e+00 -4.188271943917148544e-09 7.086061756719580584e-09 3.126563058085601800e-08 -3.511495228898091212e-08 1.315105725222896413e-02 -1.318752788703028700e-02 0.000000000000000000e+00 0.000000000000000000e+00 1.108310748161951464e-04 -1.418453197835090615e-04 0.000000000000000000e+00 0.000000000000000000e+00 -1.786487238054674945e-03 1.780397555271250173e-03 -2.492383544639779555e-02 2.492372510925025542e-02 6.924386556067853478e-03 -6.740193078366687497e-03 -1.052874628954030001e-03 1.052873039001742984e-03 3.665936845267531921e-07 -1.423243358621960765e-06 -2.763018950824476776e-05 2.766395037477160587e-05 6.354762738113626493e-09 -6.370751540706336125e-09 -1.521363234073043615e-10 4.010812774665300528e-11 3.524587757175820664e-04 -3.768853337782468297e-04 0.000000000000000000e+00 0.000000000000000000e+00 2.869685635860706285e-04 -3.164429683851327740e-04 0.000000000000000000e+00 0.000000000000000000e+00 3.477522556069429470e-03 -3.488075040511738265e-03 3.450348177728556481e-05 -3.450386821480266219e-05 -3.282467734451183922e-02 3.235604181422183784e-02 5.244236539490179649e-02 -5.244402260539523380e-02 7.883288532289815803e-07 -7.182263720971707873e-07 0.000000000000000000e+00 0.000000000000000000e+00 8.035681686534092735e-05 -8.054173494431353744e-05 3.802540313461997636e-06 -5.659674399542979656e-06
2.622699712856467469e-03 0.000000000000000000e+00 0.000000000000000000e+00 -6.734548929949600755e-04 4.586193380109586945e-05 -4.397535104026921358e-06 0.000000000000000000e+00 0.000000000000000000e+00 1.582592835621968175e-03 -1.513288373642318043e-03 0.000000000000000000e+00 0.000000000000000000e+00 2.073613565437717836e-04 -1.187978979452881609e-04 0.000000000000000000e+00 0.000000000000000000e+00 0.000000000000000000e+00 0.000000000000000000e+00 0.000000000000000000e+00 0.000000000000000000e+00 5.314633086223940562e-04 -4.625763921958490096e-04 -4.825467598271154898e-04 5.164266668529750260e-04 0.000000000000000000e+00 0.000000000000000000e+00 0.000000000000000000e+00 0.000000000000000000e+00 3.754292103237741492e-03 -2.442322965217403100e-04 0.000000000000000000e+00 0.000000000000000000e+00 4.246551600283204214e-04 -3.911017237280966390e-04 0.000000000000000000e+00 0.000000000000000000e+00 2.613434926278989379e-05 -5.889977306937444383e-06 0.000000000000000000e+00 0.000000000000000000e+00 0.000000000000000000e+00 0.000000000000000000e+00 0.000000000000000000e+00 0.000000000000000000e+00 -3.700073017452287891e-04 3.902205417211084969e-04 1.593688966742446301e-04 -1.587549662881047798e-04 3.555862293933222725e-03 -3.392733334422590522e-03 0.000000000000000000e+00 0.000000000000000000e+00 -9.470026789221618003e-05 1.269266062317801595e-04 0.000000000000000000e+00 0.000000000000000000e+00 1.655947613359805629e-02 -1.727380489825734028e-02 8.254187693872291291e-05 -8.254220056503778699e-05 4.847809445777982902e-03 -5.089615080519012923e-03 5.354571738125176892e-04 -5.354571890370667412e-04 9.125386082988551412e-10 -8.498786871215293640e-10 0.000000000000000000e+00 0.000000000000000000e+00 2.542503855718211072e-08 -2.429970811462832895e-08 1.895176715778084560e-09 -7.229295567683828379e-11 -8.726331124163420213e-06 -2.482126186341125662e-05 0.000000000000000000e+00 -1.904568761702487133e-05 4.058786842151782609e-07 5.492397554189716354e-10 0.000000000000000000e+00 0.000000000000000000e+00 4.272020435983172812e-03 -4.514046311976325707e-03 4.087386683770560282e-04 -4.087391517325462639e-04 5.572146479931301688e-02 -5.743074096045869964e-02 0.000000000000000000e+00 1.159035927759805956e-04 0.000000000000000000e+00 0.000000000000000000e+00 0.000000000000000000e+00 0.000000000000000000e+00 -1.624792241610739987e-06 1.757174011021631682e-06 -1.844071566561051368e-06 2.276878908067789635e-06 -2.619569645080460987e-02 2.616366754738763678e-02 0.000000000000000000e+00 0.000000000000000000e+00 -1.434032894154560196e-04 1.132526527372666009e-04 0.000000000000000000e+00 0.000000000000000000e+00 5.638751436359867864e-02 -5.614593367693290066e-02 -4.057035351177201016e-02 4.056711836544400068e-02 7.101295099609526880e-03 -7.099458207125541008e-03 1.782543041265105196e-04 -1.782569935193393986e-04 -3.363018713255621755e-05 -3.448478871752253059e-05 1.567264233709095007e-04 -1.319683968196124824e-04 -7.898251439735016195e-07 9.544932369611843533e-07 -1.725368757861774168e-07 2.612393616995808034e-07 2.676216553534562295e-03 -2.708188310650561960e-03 0.000000000000000000e+00 0.000000000000000000e+00 -7.919310520979318756e-05 6.781487258675434259e-05 0.000000000000000000e+00 0.000000000000000000e+00 6.387263852091990077e-04 -6.138018052822686839e-04 2.456540191581407548e-06 -2.456563005051390618e-06 -3.849530183820110141e-02 3.864090719612355701e-02 4.407025924447634073e-03 -4.407121155787791476e-03 -8.338732645327455406e-26 4.433609445622854336e-25 0.000000000000000000e+00 0.000000000000000000e+00 3.186309387203801590e-03 -3.171495613196642638e-03 6.009874442109984266e-05 -7.672112114473847314e-05
