6.645238574290273093e+00 7.310856811385968435e-02 -4.049737370185106933e-01 -6.607351592184155034e-03 1.579644935657309179e-01 -6.329825142961838402e+00 -3.013439506640460883e-02 1.892418789110541510e-01
-6.420352102114380566e-01 -1.548127829477942141e+00 -1.901058775844413629e-01 -5.626672675772166343e-01 1.781929240721014107e-01 8.687126380978734019e+00 -8.525899602648268072e-01 2.457134526983717204e-01
3.953147922665944503e+00 -5.864498096518239167e-01 -2.655214545735773979e-01 -2.376146182630390069e-01 1.861010892347194079e-01 3.280568093472989943e+00 -2.044542151692887166e-01 2.240310484056702856e-01
3.915678167156899203e+00 -8.719324475307780320e-01 -2.723699148591399721e-01 -1.988290912293555757e-01 1.673349169559544825e-01 2.526385401033004463e+00 -3.900771172380362306e-01 2.232068024225722924e-01
3.388796174975666098e+00 -5.014610025624992584e-01 -3.195345209290315625e-01 -1.721358370951249217e-01 1.706436893945343647e-01 2.559308129131262266e+00 -6.613585482502075674e-01 1.909386205066130049e-01
4.384158590487971630e+00 -6.032505552242697355e-01 -2.866102237958116361e-01 -1.789596597056150595e-01 1.651799404466121057e-01 3.413137478881750120e+00 -3.930688966149749608e-01 1.951084779068905928e-01
3.976165024875697895e+00 -8.192291266789079041e-01 -2.126783462962735793e-01 -2.117679431109258104e-01 1.794585651593362252e-01 2.948648635188512390e+00 -3.849175345102119339e-01 2.336129763117341940e-01
3.936139776156789338e+00 -4.952153219771111003e-01 -2.179553433225225323e-01 -2.793330342525784382e-01 1.733395652286362221e-01 2.947858531499786494e+00 -3.377895141023133374e-01 2.324646353519840836e-01
