6.473274938739438156e+00 1.178796301414508554e-03 2.076787285014011775e-01 1.729577800816457789e-01 -4.399354790213884370e-02 1.463726538202957117e-01 9.100983263011420965e-02 1.901266517888578964e-02
3.990880803895711644e-04 7.329768120306874302e+00 1.264908540167026807e-01 1.497812528911940944e-01 9.223453841236964323e-02 -5.632246527179485956e-02 7.459849381374063226e-02 7.252248865566164084e-03
2.098742440378422239e-02 3.440688838241516556e-02 6.499598013758143722e+00 1.977048392403470828e-02 -5.251004948229834213e+00 3.656423746869173069e-02 1.024559300074722248e-02 2.766624538009887502e-01
3.368898867456806417e-02 2.654186705841496408e-02 1.286836232005580255e-02 8.129640792388515891e+00 -3.443954073178653874e-01 -5.221042846986273744e+00 2.144999964058210210e-02 2.734454942421147283e-01
2.815647491796882673e-01 3.060720152364186375e-01 -8.681997825024665438e-01 3.456649724195755558e-01 -4.663154337002951166e+01 -1.696452214731735963e-01 8.237639201401981692e-01 2.684851265687913588e-02
2.568148051303361656e-01 2.726327654391194066e-01 1.432094190622235530e+00 -6.166662491864548512e-01 -1.766049553094930502e-01 -4.730712020127183592e+01 6.589233488690928731e-01 1.381259561014335988e-02
1.038417961024198054e-02 1.278932765284556891e-02 1.279940169547985444e-02 1.933401279729651118e-02 8.825235826096851088e-01 3.957946017399024963e-01 4.948866697761830302e+00 1.334618698890988053e-01
1.121336508061484410e-01 1.578686323949732018e-01 3.435414294662881285e-01 7.553936189711403515e-02 -1.913590256656414745e-01 -2.096714739405462491e-01 1.002049906804277080e-01 6.805251139797678483e+00
