7.715907467889088212e-01 1.417431362819008590e-02 -1.453266151538456022e-02 2.922778598749332102e-01 2.156948063239631785e-02 -1.431393069261952256e-01 3.491732950064498908e-01 5.318046197248688794e-02
3.083414810251379912e-03 1.301795293808012621e+00 1.860317029625698296e-02 6.918708151842484222e-02 2.528033548740248396e-03 2.268229012476662698e-01 2.477035396372166132e-01 2.270781917312982359e-02
2.192752372520994641e-01 3.096976907614340524e-01 -9.636305818554379010e-02 -1.359135395655771683e-01 5.224444063105833889e-03 2.358149761209564835e-02 4.136541796185371767e-01 1.748846224780942205e-01
7.720490676254171403e-02 2.092939606826320631e-01 -4.042243772226201959e-02 1.174384904389143003e+00 -1.788123057573975383e-01 9.237895941204721240e-02 2.736673315550173236e-01 1.721964573508468765e-01
2.290428601319672297e-01 5.258469640113597743e-01 -2.379154342627410323e-01 -1.061367173295693633e-01 -3.577721206836346202e-01 2.800005324134023990e-02 5.458772111591354559e-01 9.999038180098594741e-02
1.850519850204929706e-01 3.951426666809248478e-01 -3.071770614886566286e-03 -9.608770306132100036e-02 -9.520876791672150397e-02 -9.849650563948586512e-02 1.589821176878374098e+00 5.271663425634141864e-02
5.241645112708943205e-02 2.896367632619356244e-02 -7.156863441106816291e-03 8.408437711758183497e-02 -9.648142541159392647e-04 -4.942886643575407357e-02 2.167838455219738059e+00 2.455806286652460063e-02
1.363540236316665710e-01 6.275260688568493062e-02 1.456006856056070962e-02 9.645365862622498621e-02 -3.348778524546210805e-02 -1.385930643875879220e-01 8.196623342178531724e-01 5.955766270209379432e-01
