6.848138986276829099e-02 -3.496929554874900897e-02 0.000000000000000000e+00 4.706591795053959070e-04 1.260015679737267521e-03 -1.208183502967895620e-04 0.000000000000000000e+00 0.000000000000000000e+00 1.298218185227837385e-01 -1.082981866909862728e-01 0.000000000000000000e+00 0.000000000000000000e+00 1.653020777736078362e-01 -1.443127004075488162e-01 -1.357118314822514972e-02 1.357116878027413154e-02 -2.639107905792562048e-02 4.024666083997600896e-02 0.000000000000000000e+00 0.000000000000000000e+00 7.119576257806801978e-02 -5.507718430461530645e-02 -2.426603579598570967e-02 2.572082004014451806e-02
8.891003119069732993e-03 0.000000000000000000e+00 0.000000000000000000e+00 0.000000000000000000e+00 4.097426248847767932e-02 -2.801948094880380314e-03 0.000000000000000000e+00 0.000000000000000000e+00 1.530365432713933771e-01 -1.287734687995127913e-01 -2.737347683471796911e-02 2.737351525622494508e-02 1.316361634636724343e-01 -1.107378381771072645e-01 0.000000000000000000e+00 0.000000000000000000e+00 3.387109251348021516e-02 -2.598088210253612917e-02 0.000000000000000000e+00 1.626911324275456816e-02 -2.235387021940263286e-02 4.059793385759410261e-02 4.085596381843094316e-02 -3.180158649890246769e-02
9.346677792859010847e-02 -5.783019727340855953e-02 0.000000000000000000e+00 0.000000000000000000e+00 4.405580982145975572e-02 -2.247789216533460904e-03 0.000000000000000000e+00 0.000000000000000000e+00 4.066913281403767844e-01 -4.042005210820784344e-01 -2.196806708016764710e-05 2.196819990975224529e-05 2.968440432880569135e-01 -2.805352696800398893e-01 -2.553233822681100565e-02 2.553233895486859556e-02 1.509340673045876831e-02 3.051759140654178304e-02 1.655260560227862082e-02 1.585561356885529681e-03 1.758808624506136564e-01 -1.487267851772091365e-01 1.349676889297906669e-02 -1.944647164226843365e-03
1.032616599873135838e-01 -6.485060679996232369e-02 0.000000000000000000e+00 1.261092739787969335e-04 2.834315014741052574e-02 -1.486354801861178646e-03 0.000000000000000000e+00 0.000000000000000000e+00 1.576654237258394986e-01 -1.407326983196566794e-01 -2.555931118405882843e-02 2.555934140793142406e-02 4.345143945293505894e-01 -4.290314091836941457e-01 0.000000000000000000e+00 -6.677420000921782770e-05 6.905095242650230447e-02 -4.626424804206220182e-02 0.000000000000000000e+00 0.000000000000000000e+00 -3.441828675650345643e-02 5.422208618648623885e-02 5.666206244161765826e-02 -2.553484554537956835e-02
-1.858777895903400978e-01 2.238883798415134685e-01 0.000000000000000000e+00 0.000000000000000000e+00 4.408630182899411082e-02 -2.235145681747067233e-03 0.000000000000000000e+00 0.000000000000000000e+00 6.155956018280995395e-03 -5.281579968588817446e-03 6.083964863309249821e-02 -6.083898343626292088e-02 4.273869809562011457e-01 -4.230292361287470437e-01 8.783281874571039816e-05 -8.783254675374420339e-05 -6.246872363467309737e-03 2.425256118445592163e-02 6.814627664889773284e-02 -2.140562980596771164e-02 -3.213990949705267455e-03 2.148651338099055383e-02 1.076231031391077821e-02 -2.837298202374689306e-03
1.002630657940088432e-01 -6.226711177112052159e-02 0.000000000000000000e+00 0.000000000000000000e+00 3.300607582480303420e-02 8.804054587072090987e-03 0.000000000000000000e+00 0.000000000000000000e+00 4.137142744490616697e-01 -4.115566764623946883e-01 -5.576246829572716681e-06 5.576301126553558410e-06 -2.877504017919384639e-03 4.534564483653388649e-03 4.219579936566900114e-02 -4.219563968147518884e-02 -5.990857822547573930e-03 2.563265752653322641e-02 0.000000000000000000e+00 0.000000000000000000e+00 -2.385222405581629429e-02 4.062790849222800565e-02 -6.876242540892636528e-03 8.777969020951785495e-03
