8.940956717016546040e-02 3.036586879143778006e+00 2.870712379678050808e-03 -3.997585712864715202e-02 -9.764557274741851589e-02 -8.127984521735134860e-02 6.169003131056038230e-02 -1.725610221286233772e-02
7.835013124312215083e-02 3.699806725308123490e+00 -1.343914658481823801e-02 -3.812103887630688415e-02 -9.784235369592778064e-02 -1.729163210339123291e-01 5.853857918337103394e-02 -2.442734497057896109e-02
8.950428720606809496e-02 3.531218020152272707e+00 -9.462762248020966174e-03 -4.168564509114126154e-02 -1.113127928259468602e-01 -1.275682193930837982e-01 5.971071650312010509e-02 -2.293903129551697409e-02
8.809899096720709422e-02 3.663959467046877361e+00 -1.574816327748520400e-02 -4.424093535624729068e-02 -1.025351515857283041e-01 -1.515562676476402970e-01 6.087783855248443676e-02 -2.355110374799640818e-02
8.831402941787899752e-02 3.555318470378310725e+00 -9.225967886797636908e-03 -3.877178311965014806e-02 -1.093864952208867397e-01 -1.246225139293420381e-01 6.368864950460040308e-02 -1.898412463701723216e-02
8.994617284615770425e-02 3.612551786790309194e+00 -8.102009627570266881e-03 -4.285526278618722457e-02 -1.031373660401765369e-01 -1.340254198671426422e-01 6.300272836741969973e-02 -2.489216008097850166e-02
8.146636791523402532e-02 2.977854979178716999e+00 -1.991665899111662395e-03 -4.173126689062778283e-02 -8.502792143455893681e-02 -1.146713689033470318e-01 6.460102798011105318e-02 -2.066807921535489603e-02
8.598318588224172776e-02 3.281579822583473582e+00 -1.109366327322433912e-02 -4.528240192220878146e-02 -9.724362556468418850e-02 -1.175700469757834932e-01 5.912284327233623127e-02 -2.324287118195609084e-02
