4.409389453244483725e+00 1.101098092503853760e-03 1.945635222586036273e-01 1.086672193759471161e-01 4.735881925590301744e-02 -1.564005244294178476e-01 1.202991502343848662e-01 2.952771050732823713e-02
4.085146028404735164e-04 7.253797709514653747e+00 1.422846039676838314e-01 7.080091163328212922e-02 7.564813845618029164e-02 -1.598832761241521239e-02 7.408107787864454119e-02 8.720864264840108224e-03
1.541921085425185765e-02 1.280474483955626810e-02 6.986063854311227672e+00 1.045104549910694409e-02 -3.763145037748319766e+00 -3.399145987873545410e-02 1.318557710318051662e-02 2.163790922116135274e-01
2.082126062947381798e-02 4.653827990184737640e-02 9.860082118379433908e-03 4.307557506166302730e+00 5.082716139458149929e-01 -6.108070378372350007e+00 1.545280840508725731e-02 2.040072875890575343e-01
1.593151143433192973e-01 2.091976589678594400e-01 -8.097486360307020181e-01 4.307011177253695644e-01 -2.277181110823460841e+01 -3.305598180365013627e-01 2.243178230696041831e-01 2.165996353615212353e-02
1.747718838613251113e-01 4.156712800541520481e-01 1.782772382569682179e+00 -5.309288160359931785e-01 -1.686042457228745517e-01 -5.671804133887658850e+01 5.830353495487927695e-01 9.776437051823724800e-03
8.048933372418114879e-03 1.356258277628943736e-02 1.142567607066210036e-02 9.484022836307913484e-03 9.417181924129960358e-01 4.301191390151790084e-01 4.879932145563971702e+00 2.928784616609665381e-01
1.092030203128799559e-01 1.041833799857507931e-01 3.470209249577052013e-01 5.356302151263134248e-02 -9.305175217962971534e-02 -7.427630781072183663e-02 6.439464956134303975e-02 7.105857263170850757e+00
