1.399762635808354527e-01 -1.228765938579274852e-01 -2.797591009746170494e-07 2.885829627234149524e-07 4.315076995491823331e-02 -3.190087802937104783e-02 0.000000000000000000e+00 0.000000000000000000e+00 -8.774795532516248275e-02 9.393100752575168910e-02 1.347038673974658429e-01 -1.236597325137561570e-01 1.382196573199003659e-02 -8.181579549111771266e-03 0.000000000000000000e+00 0.000000000000000000e+00 1.497021470230613417e-02 -1.057785035898279897e-03 0.000000000000000000e+00 1.569433447469599854e-02 7.264431736570160780e-02 -2.713210365527090120e-03 -7.159562172512466682e-02 7.812642823271934156e-02
3.999191369146789382e-02 -2.667203894335338707e-02 0.000000000000000000e+00 0.000000000000000000e+00 4.088494384313307028e-01 -3.939621954900930922e-01 -7.815460874516283070e-25 7.866640023470539792e-25 1.178073812299091083e-01 -1.081022861334290375e-01 -9.105767996870510472e-02 9.759619633956355400e-02 3.542601180564937391e-04 7.889049430679020633e-03 0.000000000000000000e+00 0.000000000000000000e+00 5.898762069163168698e-02 -3.361426859135721590e-02 0.000000000000000000e+00 0.000000000000000000e+00 -3.343871918232112217e-02 3.634358681708125399e-02 5.313670079425925064e-02 -4.915483610328752473e-02
-4.499397981228887670e-03 4.599885618684311853e-03 4.825541818952931439e-01 -4.672763860192415963e-01 4.089477610390723217e-01 -3.940759108762356688e-01 -3.487013960580730371e-04 3.504737550372227024e-04 -5.531922319262865375e-04 8.116561750685383431e-04 1.136115420565613626e-03 1.264817131534315582e-02 -1.643177046873551816e-01 1.701822656503709508e-01 -1.183570133479384077e-02 1.183570623091111974e-02 -3.005568578834694193e-02 3.016966334408508615e-02 1.295518674115024305e-01 -1.295518674113253776e-01 -4.687800490132967846e-02 7.044083856566789315e-02 -1.558104220910728685e-02 4.862016782758878802e-02
2.911072000511719660e-01 -2.740086134444494337e-01 0.000000000000000000e+00 0.000000000000000000e+00 4.090020365888316078e-01 -3.941131967401779179e-01 -1.893772708971224490e-21 1.907365414500661800e-21 -5.297017703342944694e-02 6.398123370507315111e-02 1.687406697916476669e-02 -3.836051804079761260e-04 4.612997980808881127e-01 -4.539316580508827026e-01 0.000000000000000000e+00 0.000000000000000000e+00 4.683015908930524551e-01 -4.674126326241353491e-01 -6.996056636063105461e-03 6.996056636066515927e-03 2.695776340292837039e-02 -1.741931237764689569e-02 -1.547648991261111814e-02 3.567146781027928648e-02
2.956888583428207706e-01 -2.785656121188668788e-01 -1.007331809810355152e-33 1.188519952360904902e-33 4.086416844324617381e-01 -3.937444055406938981e-01 -5.002930604938594290e-06 5.029297787032862320e-06 2.291481350958365221e-02 6.772247268127819762e-03 3.996966801817650183e-02 -2.857676445552737379e-02 2.427769564809225400e-01 -2.198436913521471525e-01 -6.428660982571827824e-03 6.925882398045847543e-03 4.370255707156542879e-01 -4.361766004233890714e-01 -1.702232216144330986e-35 1.703521336729850880e-35 1.130564304946083884e-02 1.280985341310758845e-03 7.845686496437247193e-02 -4.221004389852249516e-02
2.165773834205131088e-01 -1.994879888934414647e-01 -3.628629522635392893e-07 3.743077767124162249e-07 -2.416417780385778698e-03 2.477258067837971763e-03 2.477936770680246037e-01 -2.443379489701434648e-01 -2.446475040760539947e-03 4.503577993619550281e-03 -1.678133437828566860e-02 3.096249163546736446e-02 1.856668588223966410e-01 -1.794177322353302795e-01 8.704510450880524261e-03 -8.704496762374039701e-03 2.112454599782302989e-01 -2.104688569175422741e-01 -5.020577592054575183e-02 5.020577592056233579e-02 -7.062869432393535304e-03 1.107970714794078229e-02 4.027548694577678945e-02 -3.376046756458081499e-02
