4.573895686830577456e-01 -4.482439419795504199e-01 -3.527132854614722787e-23 3.546668802840213831e-23 6.427551287300548033e-02 -3.095679543736190587e-02 -9.035035823630618856e-03 1.056327868463128455e-02 -8.064674555547508839e-02 8.983598563127220826e-02 1.196353576928985279e-01 -1.077036265745011795e-01 5.651025363658936096e-02 -2.105837171837401239e-02 0.000000000000000000e+00 0.000000000000000000e+00 6.915179027407490631e-02 -4.053248513747366444e-02 0.000000000000000000e+00 0.000000000000000000e+00 1.294947107449150869e-01 -1.115075599966601771e-01 -8.484435142099266969e-02 9.732196715356918049e-02
6.794260272613200126e-03 1.778896367451392874e-02 0.000000000000000000e+00 0.000000000000000000e+00 1.820850682193319581e-01 -1.661942843567814354e-01 -3.594239283154759671e-04 3.688319304838474900e-04 6.951527194627440953e-02 -4.926328311688819156e-02 -8.770595684870055586e-02 9.724898904922663068e-02 7.462655951808744303e-02 -2.316456687832487218e-02 0.000000000000000000e+00 1.090968638764874474e-02 3.267759280194944271e-02 -1.709786715291933268e-02 0.000000000000000000e+00 0.000000000000000000e+00 -1.382336810925691162e-01 1.611914759345316195e-01 7.117179341597205944e-02 -5.678013178950538919e-02
-1.416883024885848827e-04 1.440763228089831380e-04 2.281626271848667120e-01 -2.250842581755041760e-01 2.084088622273473357e-01 -1.925087947479409145e-01 -2.051269659768008828e-08 2.110375673565050017e-08 6.247300758650483482e-02 -5.917043913265936095e-02 2.185778385660640342e-03 -7.642972724852934883e-04 2.960453220112559819e-02 -2.332871191532575467e-02 8.287882883235832233e-04 -8.287856744956283639e-04 -4.435014032035206749e-02 5.098399179414190435e-02 -6.121151257236548925e-03 6.121151436716340197e-03 2.521012089796489941e-02 6.101340731196086553e-03 -1.106773540128724691e-02 2.545337955082288550e-02
4.573295307278618660e-01 -4.481812949007927815e-01 -5.678269549495265408e-20 5.715912381631398941e-20 2.642458044183367272e-01 -2.483343793231730101e-01 0.000000000000000000e+00 0.000000000000000000e+00 2.846262038992260213e-02 -2.395423119950382956e-02 -6.706669515720966972e-03 3.219163934648166386e-02 4.131934628780854490e-01 -4.068499514314825038e-01 -2.083561820894281500e-36 4.966791609789533944e-36 3.437566620978846355e-01 -3.311855988173643128e-01 0.000000000000000000e+00 0.000000000000000000e+00 5.928269369700784469e-02 -3.120291554066349782e-02 1.060281043848853265e-02 9.955953487162027757e-04
4.574612399750799807e-01 -4.483207895178641933e-01 -2.096370445121954285e-04 2.106257651246836728e-04 2.634163231434272223e-01 -2.475091229530246573e-01 0.000000000000000000e+00 0.000000000000000000e+00 3.241797642410883945e-02 -1.564699240468046468e-02 -7.601224555545335604e-02 8.501593256028409928e-02 4.256551274549946751e-01 -4.187937355379824367e-01 -5.218633251675513195e-04 5.218640539478203080e-04 4.301344997658312352e-01 -4.232527210763779024e-01 0.000000000000000000e+00 3.255723298806553539e-36 -1.553818918141850261e-02 3.408661092227227574e-02 7.322214527161932662e-02 -4.430445469893002503e-02
4.574441800837761307e-01 -4.482995659436933567e-01 -8.725773108994121195e-21 8.774374195490998833e-21 -4.677420927409874107e-04 4.775427538028069203e-04 4.934045422092009914e-01 -4.802015467271900651e-01 -9.475625889176463035e-02 1.007623055881634588e-01 2.799505141036069331e-02 -2.072249740874345519e-02 -1.327971494961430465e-01 1.384802800265612921e-01 1.639283858904932306e-02 -1.639282655642693154e-02 -2.533911546199089232e-02 3.043330779570396771e-02 -1.788436339375262070e-03 1.788437006096003402e-03 7.119867450872366561e-03 2.233709734775276168e-03 -3.790290740033125036e-03 7.022701326760594394e-03
