2.599194998950079549e-01 -6.905534112485756104e-02 8.291300371759883006e-03 -1.632570381624506572e-01 1.068392047399521205e-01 -5.209666191245204692e-01 2.164357942504906152e-02 -5.466637412085860112e-03
-1.384115115365622817e-01 1.774504161262038249e-01 -6.548640447266335096e-02 1.138076050793808969e-01 -3.404532886987171603e-01 2.788074466905852145e-01 6.096138083692358850e-02 -1.395857387891773389e-02
4.391152554606431169e-01 6.242514858586672988e-02 -1.658176019429455084e-01 -1.717534764178908768e-01 -1.411153724324438530e+00 -1.320249774678550481e-01 -2.640070830394801171e-01 -1.280881527831333466e-01
-2.226475480064142587e-02 3.222251351371703265e-01 7.729289416349392761e-02 -5.962679751388138411e-02 -2.285331712818957639e-01 -1.529223058842148042e+00 -1.551402828115609756e-01 -2.360305399431128839e-02
3.769814568547219524e-01 1.342808761998358913e-01 -3.484378481263952776e-01 8.358740948439483121e-02 -3.022487574055568338e+00 -2.492333687206155779e-01 1.674429032154430286e-01 -2.221109164213466436e-01
4.301995584615314616e-01 6.177099070197001884e-01 1.515718978330791999e-01 -4.198370477991216210e-01 -1.168848773942474661e-01 -3.130350429984523508e+00 1.475862474078779851e-01 -7.526652471315189996e-02
1.132650817509998908e-02 6.092451845714639408e-03 -3.466470675718111294e-02 3.232518330232312526e-02 -4.299219353040791697e-02 -7.199703865485891641e-02 6.397240801359498352e-01 2.167379074118707793e-03
6.563194219137029328e-02 3.212925320141103019e-02 3.443143512705004045e-02 -2.486806289084920324e-02 -1.069784504750080772e-01 -1.629485499438663720e-01 7.702935358074271266e-02 -1.012369854754181092e-02
