3.268384720033554961e-03 -4.417813171581198017e-01 -2.406678591829947492e-02 4.327026485850792525e+00 9.611304161624843800e+00 -3.048155519094523647e-01 1.902708978438274546e-03 6.925035668490563644e-03
2.848853878375988413e-03 1.206772406460624936e+01 -2.237465685250202355e-02 3.540626007361864946e+00 2.214548928458362820e+00 -5.917289886983347902e-01 1.637369544317147842e-03 6.890037022853704937e-03
3.169479032848115940e-03 7.435850357722670445e+00 -2.514947372059081129e-02 3.739581389379867282e+00 6.174084581966903684e+00 -4.783069658431851057e-01 1.964247885447648057e-03 8.209965094271191172e-03
3.209040316066996169e-03 6.095192262677151973e+00 -2.335907971070290065e-02 4.168052383079838386e+00 6.196792809413054215e+00 -5.529605546981080089e-01 1.860491972061798166e-03 9.320043202645155941e-03
3.323030979214609826e-03 7.721784920253548457e+00 -2.358845380158553981e-02 3.773208571735697348e+00 6.502187024686166161e+00 -3.000618966031826651e-01 1.955634373916238181e-03 1.055067592144756823e-02
3.222754107067139426e-03 6.266299923277394157e+00 -2.473638863721476858e-02 4.194092285062374081e+00 6.005077667917031903e+00 -6.031316343638568611e-01 1.867978703605354491e-03 7.325473857623001142e-03
3.246760230502996909e-03 6.841909213906020248e+00 -2.271875656141579894e-02 3.926060291655862233e+00 5.414360847952246480e+00 -1.682535937756575173e-01 1.986637431407758773e-03 2.664933660196342445e-03
2.508087582791666045e-03 6.654957147236851611e+00 -2.320175916790543497e-02 4.029033016688147839e+00 6.617064515654942802e+00 -2.841752761559925289e-01 1.722617114335706556e-03 6.563720888586494634e-03
