-9.063425729244011242e-01 8.329235338737184247e-01 3.993195238149730208e+00 1.011113908397053507e+00
9.310629006496710935e-02 4.547798459263829862e+00 5.664268101685384638e-01 -2.666551310821106413e-01
6.338966352192738629e-01 9.387486045602094764e-02 5.067559747588218144e+00 -3.540177196838936169e+00
-3.471365095496352193e+00 4.690677325082564408e+00 3.106235053281770075e-01 1.223757414618435124e+00
-1.385549557265797760e-01 -1.114728262545269022e+00 9.790733450083803913e-01 -1.372384884759402457e+00
-1.577558694644822124e+00 6.540101016564816572e-01 -1.578035848100338923e+00 7.187683095498964558e-01
-1.302808698139587884e+00 1.090382124722917706e-01 3.726613850296082386e+00 1.967849500291776188e-01
-8.545101383560521277e-03 4.091592970791501749e+00 1.264418002391596296e-01 -6.694364225491862275e-01
1.234811225324089490e-02 -2.076915815629306883e-01 7.123254817318999121e-01 -1.321433207298278178e+00
-1.315335828659174311e+00 2.723116078749323044e-01 -3.668090904838663957e-01 6.335545376081733737e-01
-1.408672777449419433e+00 1.245893368934239076e+00 -3.735464440762673033e-01 -1.280969904779528434e+00
-1.229151873271105533e+00 -2.915287446738911159e-01 1.996240301474659917e+00 -1.735085032403255623e+00
