-2.297743768765626859e-02 1.482241509895843579e-01
-9.555137013031227422e-01 6.489203824050565617e-01
1.396743767388990316e-02 -1.496138398909739597e-01
-1.847895739704360274e+00 -4.201320529553480010e-01
8.465189364434222430e-02 -7.394860517438256453e-02
-2.572756032734454523e-01 8.845214290025738002e-02
-5.788338962801861318e-03 -1.699534636121954045e-01
-2.340666622305953848e-01 3.401899606581585550e-02
3.274381037147343632e-01 -7.375615952193499691e-02
-8.838528710123354226e-02 3.171785670656288580e-01
3.541089721992810579e-01 2.721721103528780827e-01
-1.907577571428469010e-01 -2.815407301367418014e-01
-1.741008438199117062e-02 2.097835559342935141e-01
2.137948571804396403e-01 -3.649120115903226047e-01
-1.201712180907506602e-02 -1.772368900323165464e-01
-9.393730849333975508e-02 2.694618491036088193e-01
4.591070475863198719e-02 1.194810557162217929e-01
2.776494407255431507e-01 -1.009131619230028420e-01
-7.821972592205003738e-02 1.682853329611165849e-01
8.139412548256739210e-01 -4.564877805141547840e-01
2.266345702911183591e-01 -2.061963643351914233e-01
-7.890524830434262338e-01 2.284668611823773010e-01
1.385800667764856831e-01 1.302046881603829143e-01
2.469118207465712256e-01 1.798776217541296907e-01
-2.116238762638867135e-02 -7.835280713214193282e-02
-1.304070219142149378e-01 1.599937216632098813e-01
1.360348662007777355e-02 -3.596489007632619472e-01
-1.634916910065897788e+00 1.376641923554032143e+00
-4.671250685270040420e-02 -5.660386679596463022e-01
5.239098835878459176e-02 -1.986217938347458953e-02
-3.032652487404201569e-01 -1.598216604419134268e-01
4.581428146448120187e-02 -4.677395282006373278e-02
-3.058184278583077065e-01 -8.515567603907342464e-02
5.235582591981647882e-01 -1.791720358813105041e-02
-1.185690939334747979e-01 2.263332092175189270e-01
2.006874671117875597e-01 -9.238514070287708047e-02
-6.757315476140433874e-02 4.352428094236102801e-02
6.712747783987783601e-01 -3.645104732728833841e-01
-7.631380385693739554e-02 -1.982184744071531779e-01
-7.143425010372328465e-02 2.464736611821534695e-01
-1.608574926822700368e-01 -2.146927066522665573e-01
-2.831614961960985527e-02 1.612541665763138621e-01
3.561477995435504140e-01 -5.274294442498846935e-01
-4.770407836697587722e-01 3.969487363600819885e-01
-2.155694950761421480e-01 -2.908388161727707977e-01
3.433067663871701702e-01 4.571437479192699826e-02
-1.238786488243525108e-01 4.167431776690165846e-01
1.648293037927784921e-01 -1.341460631363979861e-01
-2.476819906114240966e-01 -3.555252603156376923e-01
1.333492491335667995e-01 1.118614418264039512e-01
4.059591824240836588e-02 2.255405264238674323e-01
1.316736069777687812e-01 9.460198424224830482e-02
1.621609986337383125e-01 -1.159308599618965041e-01
-1.610558313330242020e-01 -7.983719648218484677e-02
2.358547918900940066e-01 1.157153436063903668e-01
-1.013120003563789256e-01 1.805630498235544570e-02
-1.550038444348005584e-01 -1.793047093688450444e-01
5.165927063853290591e-01 -2.795906302110073294e-01
-1.502655486147477515e-01 -5.693771978036759468e-02
-6.488477500870189207e-02 -7.572653418533993597e-02
-1.164568331373175697e-01 -3.524364392314544014e-01
-1.073731556531825043e-03 -1.299900381215614298e-01
-6.903045290274657797e-02 -3.040105352218165358e-01
8.850013655660482481e-02 3.834451499075016562e-02
-8.832612398326319947e-02 -2.146819430820022800e-01
-6.263532771382322728e-02 -1.467850120990992768e-01
2.029602672435951438e-01 1.426272360656930804e-01
3.926802645914510559e-01 -3.297452863805696022e-01
-8.739713016373210630e-01 1.255861267935099446e-01
1.521658215558585325e-01 8.575795435362112973e-02
1.194069272781647928e-01 1.823211335791687093e-01
1.407519156859287912e-01 2.054439618014353847e-02
4.132202195655950150e-01 -1.943577287523663988e-01
-1.524605848307631351e-01 -8.760600681727620520e-02
4.101736261488543589e-02 -6.837190772037429753e-02
1.077047019625458762e-01 -4.873575651325081637e-01
2.969243432369164659e-02 -5.304402811533767692e-02
-2.589987560851855775e-01 2.106429088309209607e-01
1.473476042327554469e-01 -2.635865754908210956e-01
1.032702740843357697e-01 -1.107936807467480300e-01
3.825361226729974695e-01 -3.745588636636829061e-01
1.028593705465453700e-01 8.955767006972251143e-02
3.081679502822401093e-02 -1.977574687517987539e-01
-9.042791060571075956e-02 2.506840363742922628e-01
1.979380103754307119e-01 5.644855351128975907e-02
1.087688733984807921e-01 -1.139886580508974456e-01
3.796347456691882560e-01 -1.572741956275632846e-01
1.394781512212297236e-01 6.049977604764366496e-02
1.790951469016674347e+00 -1.929658359163005932e-01
-4.088737829732407708e-02 8.835502238507955686e-02
-1.081151331926251680e-01 -3.888670310737874641e-02
2.914266552552287684e-02 4.880604198967667534e-02
1.110667207263970890e-01 -9.245530568477124123e-02
-4.810182781247452910e-01 3.898677465089296357e-01
1.371388724441609253e-01 -1.789554755517536455e-01
1.488732100456766627e-01 -1.094919934334122498e-02
1.455780187192916020e-01 1.249453745856899355e-02
8.204480329112281978e-02 -1.335032702178704511e-01
6.192819690541227773e-02 6.935690410864273070e-02
-3.893895041802954426e-01 3.573683603496381755e-02
