1.587826541014957016e+00 -1.931033179701996172e+00 -4.082999378521394718e-01 1.468056161565309825e+00
2.389706923808393446e-01 -1.150466115107291465e+00 4.226647588386283072e-01 -1.215989714497536456e+00
1.092577151818797443e+00 -1.869939042223732473e-01 1.300635890483202273e+00 -6.846317902175514947e-01
-2.510157162264651798e-01 1.266588381337100389e-01 -1.511719796587122078e+00 2.640282224640803754e+00
1.534674899501530021e+00 7.888933745094642846e-01 4.448170534753367877e-01 3.532190711116285908e-01
-1.547336844395381439e+00 -1.531268796677107691e+00 -1.142644386360778253e+00 2.465518075554069821e-03
4.675910876112064352e-01 -1.688158481616550022e+00 1.736637635728236206e-01 -7.912888761851802899e-01
-3.723631274202809371e-01 -8.853019333050615725e-01 2.105316043960342998e-01 -2.513658031595669140e-01
1.214834523149231904e+00 -1.031519627474867473e+00 -2.539481676159862644e-01 2.051468589736360926e+00
1.284901957173074927e-01 -9.393655377125840200e-01 9.264606785685670642e-01 -1.048522814795791014e+00
1.540433430999171294e-01 -1.089827573885237655e+00 2.788407572539816637e-01 -5.999056384307024370e-01
-6.969677089416742577e-02 -1.177048094607936052e-02 -1.254764564091785273e+00 1.076050220957470938e+00
9.231584482525012625e-02 5.963321776913782513e-02 2.098998449288972390e-01 7.025265280287851244e-02
2.030687624451499307e-02 -1.608504287986969317e-01 1.050567975438872481e-01 -2.434571879286871465e-01
-6.739290941297070014e-02 -5.406056092721396311e-01 3.039887891886448035e-01 4.997336909021250426e-03
3.865331509209612992e-02 -2.428994644328140717e-01 1.005765810909986513e-01 2.319581706727537607e-01
