5.964514009734386946e+00 -4.103664558239135118e+00 9.096530223028743700e-01 2.745855018560459659e-01
8.056468661444967649e-01 3.484658141411267618e-01 4.747054193076147399e+00 -2.183881035925895997e+00
5.176320479468834002e+00 2.275631855456292096e-01 -1.588438515265967910e+00 -4.853528170429181721e+00
-1.613447644123260805e+00 -3.786303832002340108e+00 5.630602139773339232e+00 1.267777928395914244e-01
4.038496137541220499e+00 3.559030730166689249e+00 -2.354050863166021301e+00 1.967704448848090815e+00
-3.733458730198164766e+00 1.147644340654501403e-02 4.863884774378657738e+00 6.080764613524938245e-01
4.876310159885563600e+00 1.415333567096477285e-01 4.703948064799843287e+00 -2.129656019892284535e-01
3.655171719907828631e+00 -9.069689611695040954e-01 3.716735006256290053e+00 -9.910632402476123870e-01
5.694535734842433250e+00 -4.039167706959817750e+00 7.026081479453227807e-01 -4.144167703837933203e-01
6.715901489665647706e-01 -2.932449906301025089e-01 4.843367077860404102e+00 -2.675451209171189948e+00
8.109300504394004738e-01 -8.992888387258318739e-02 1.529300711035561089e-01 -2.204592379661476365e+00
-4.761783812774902924e-02 5.689048730988488511e-01 1.885048410659093454e+00 3.691201919638821549e-02
-1.835445488799288816e+00 -3.888881305299961788e+00 1.964780728361441575e+00 -2.576378190130507839e+00
2.801125632706627844e+00 -5.170210774717087787e-01 -1.138318573363326536e+00 -8.478504484044653289e-01
1.752608353563629429e+00 4.021527427462302517e-01 2.394339787951467180e+00 2.112707280092592232e-01
-4.311987718937963510e-01 9.359499062209737374e-01 1.119815359505602070e-01 7.498208682100905298e-01
