-1.480809931798862944e-01 2.254701650215638897e-02 -1.557007581085674552e-01 1.253248644845739168e-02 -1.102652346262931321e-01 -3.480873099141954669e-02 5.661875097370284715e-01 -3.615483161760716518e-02 6.093570794028556337e-02 1.064899304636250044e+00 -4.377332950030308339e-02 -2.142239448555303266e-02 -8.689355524598577074e-02 4.020741094039587821e-02 -1.579501189545582940e-01 -9.800602684826029490e-03 3.694487913735444717e-02 2.450408326231224079e-02 -8.196130869136774091e-03 2.919798426114435935e-02 -2.395639363037410652e-03 -1.398379337063040441e-02 4.054461974821885195e-01 -1.152396612479837483e-02 -1.619548444069486906e-02 7.067232918569511801e-02 -1.500487698263746894e-01 -1.436022984861975438e-01 7.021689575599991510e-03 1.175157609191440772e-01 3.580819111855747944e-02 -2.875260279842955513e-01 -8.775755020031554554e-02 -2.244249180695107124e-03 6.366449029494784806e-02 6.163480560593923713e-02 -4.237087454029195843e-01 1.690109870653480895e-01 9.586038499092277773e-03 8.204894243880106117e-03 -1.185886413507371562e-01 2.219192289352626968e-02 -4.302767677889954116e-03 -6.949452897344983449e-02 -9.599832907220819112e-02 9.629324826757881817e-02 -8.502525654220227658e-02 -1.194952458392002786e-01 9.554290024568637060e-03 1.164957111826424724e-01 -8.870915648633473372e-02 -4.391436483337730901e-02 1.212102533802663917e-01 -1.780581791389300450e-01 -3.753240084001768784e-02 9.485606508194560638e-02 -1.209947631846917115e-01 -3.009462086265627875e-02 8.764994868651160287e-02 9.864234956693132550e-02 4.120262209652707508e-01 2.824229897882463147e-01 2.089555030649836373e-02 1.316071065125101192e-01 -1.245569350700116151e-01 6.603226299853867665e-02 3.742067262746010536e-01 1.081283855080196893e-01 -3.163523196414520094e-02 -9.660855510759966402e-02 -2.977453684181389712e-02 1.068996390331425073e-01 8.449720454677966952e-02 -3.094741114431514076e-02 -9.812587755610001350e-02 -1.977056153565119878e-01 -3.752206614748205410e-02 -5.831984747828829890e-02 2.233706816700049835e-01 -7.105586578513840845e-02 1.116669618798285940e-01 -7.774456484764423470e-02 -1.933511791632818930e-02 4.781272428097364524e-01 -1.108870339174241187e-01 2.247570768549357056e-01 2.152188311271110432e-01 -2.640599981523726950e-02 -1.411804231388096888e-02 1.511127808585737142e-01 -5.528896189944498829e-02 -8.697430166069455848e-02 -4.256697605266115958e-01 -2.829337653478634085e-01 4.775360078580927203e-02 1.606673988309213486e-01 -4.525239150118458287e-02 -1.384058480176923178e-01 -1.778874823529399130e-01 -8.704038289986444632e-02 -9.008832058886594163e-02 1.212262799050148887e-01 -7.096856548520015517e-02 4.441873035635559869e-04 -1.677704490262679066e-02 7.542600187154258062e-02 -1.562500427039091866e-01 7.889165032177453130e-02 -1.230577180759751255e-01 8.717531803629811893e-02 9.752952880470489028e-02 -1.545530220864487214e-01 -5.913483040949921166e-02 8.091902019655877742e-02 -5.151560415207323551e-02 3.943765791012154298e-01 -4.700063979449213558e-03 3.460820812132978791e-03 4.128959739913126009e-02 -7.220219595937253654e-02 -7.744341894929875070e-02 1.469413112587239223e-01 -1.452599574740633670e-01 -1.003313432574773761e-01 1.023473289309212581e-01 2.007927058962238054e-01 7.626630962178085338e-02 2.022553051271873681e-01 -2.383573419727025300e-02 6.372022825812329039e-02 -6.520621419229155613e-02 -1.536853926604318521e-01 -3.251783366910984685e-02 2.813684298888894167e-02 -7.003816451152382327e-02 7.371067021417937459e-02 -1.108353907194180449e-01 4.464643015383824853e-02 5.947897370319304988e-02 3.247378266745910846e-02 -1.015520011748519275e-01 1.201507492927095071e-03 2.706913552539425005e-02 -9.311791984689062746e-03 -1.205431222655299339e-01 -3.010615519147917182e-02 1.676717095435494298e-01 -2.179457535549037678e-02 3.336749581742018411e-02 2.721371154875412701e-01 1.902400164302161245e-01 -1.104695435159600558e-01 3.110950962074813045e-02 2.310284424904046341e-01 -1.257840306459853674e-02 1.723011807425244846e-01 1.491397796668434417e-01 -4.256497435372189747e-02 1.744411184424834449e-01 5.865938124781060713e-03 1.680536343639580169e-02 -3.379452647943645971e-01 -5.953612994079427595e-02 -6.696994549257458129e-02 -1.836810477910674477e-01 -9.584749872486260369e-02 -4.692379725249963551e-02 -5.288194965033611306e-01 9.595683035863168675e-02 -2.062411314623560296e-02 6.894689801692571729e-02 -1.129335363449950405e-02 -1.683706937076607790e-01 9.624264407213654893e-02 7.855789982189256837e-02 -3.053275603071345726e-02 8.520260218121657181e-02 -3.760739805551559928e-02 1.410767665826818396e-01 -8.406508342308235959e-02 -1.223094966287647523e-01 3.253262504192491831e-03 -8.446949943029902208e-02 5.260038779465105868e-02 -6.088046141759136110e-02 1.403605795972329984e-01 -6.010988068465293599e-02 9.580344285429712170e-02 -2.089131797899089829e-02 8.535699960705711575e-02 1.213825364183737238e-01 8.800980427094309833e-02 -9.066038283904083450e-02 -2.547525193121588996e-02 -1.294917177938793296e-01 2.384679322778273380e-01 1.828876420290675292e-02 -4.318141735829605921e-02 -4.593261803397409582e-02 1.492599835355656601e-01 -1.051381841228921504e-01 -3.405397574256111698e-02 -1.713162539533981121e-01 3.388638770153173246e-02 -1.947259964328513226e-01 4.108394976293690444e-03 1.932502478664376855e-01 -2.277504991071266915e-01 4.711013117785422394e-02 -1.177110700229139356e-01 5.488773806935949573e-02 -1.110827519734956526e-01 1.448968116720594779e-01 -1.020823474100808620e-01 3.787274749749829084e-02 4.519864546488692736e-01 -3.026102427048600885e-01 1.951579961484772863e-02 -6.861561570085704387e-02 2.913854188555116756e-02 -6.759739564823543691e-03 -3.787664543394677480e-02 -2.620908171253118479e-01 2.227680096648365360e-01 1.422950311301776072e-01 5.192117671881530533e-02 -3.572156989127842075e-03 -3.093897669134413123e-02 2.010677923345784435e-01 1.191309243298059872e-01 -1.629417255442293655e-01 5.406192566156463319e-02 3.422891791565872005e-02 4.870624036516903177e-02 -2.785210538342168529e-02 3.110932047613096038e-03 -8.558679883939702970e-02 5.591971006072188333e-02 -1.225930214104725691e-01 1.685715109042422999e-01 -4.483071345931087526e-02 6.340009109814313815e-02 -1.026524228927781363e-01 -2.577026860904909136e-02 -1.838127028246953551e-02 1.436613870813681360e-03 -9.012778372968148488e-02 3.953046667608007825e-01 -7.096524198904043124e-02 -5.201895738407984193e-02 -1.104014485990609251e-01 1.771979654190676268e-01 -1.312340206508354479e-01 7.696161122556013923e-02 -8.934206847529689577e-02 7.600157817954736328e-02 3.167488524054087873e-02 4.462828703393462715e-01 -5.989054463118774763e-01 -1.658128207301481916e-02 -9.302640345410173595e-03 1.570362576376263183e-02 -3.165348183408384086e-03 4.018062310932617176e-02 -1.130640141224590056e-01 -4.833268091201597949e-02 -7.309324893133385681e-02 -9.079348956532800122e-03 -3.104141671696673543e-01 4.687171261183582793e-02 -1.806112798036843270e-01 -6.106491954022038454e-02 -2.100656808332551639e-02 -3.074359456446779104e-02 -8.549461062737900852e-02 -1.040792179094001957e-01 -1.805307248563682021e-01 -1.621880294379895171e-01 -7.800344338453366055e-02 -2.747751310294505381e-02 -1.755847683102345624e-01 -1.029871431977234277e-02 -1.305803177975101148e-01 3.660443953375114301e-02 -7.836834408062616497e-02 -3.425054624969660517e-03 -2.166606010105094904e-01 2.025658699241437988e-01 8.935173820842112757e-02 1.438736460520041727e-01 6.495073142064058946e-02 8.461029001448339137e-02 -1.785476939847411085e-02 -9.324526887157874588e-01 2.187361732678722859e-01 7.891697593819525791e-02 6.258877142177048380e-01 -2.177050773302458692e-02 -3.188879812802499630e-02 2.184997043502126812e-01 -1.999710656970696276e-01 2.743749191997955916e-02 -1.526401790103061873e-01 -1.183931771848591163e-01 2.774441870382960973e-01 -1.394531488351012372e-01 4.753595783934238400e-02 -4.371959873696083104e-02 5.823878976486651649e-02 -9.431922413805129968e-02 -1.384982326945798092e-01 2.530026280691398746e-02 3.870896887468290304e-01 2.270445754384941839e-01 -7.185220204775953634e-02 1.814308833989972114e-01 1.510755060139959305e+00 -6.639169607447065191e-02 -8.683297878806574277e-02 1.015579685104042035e-02 5.087037319440468330e-01 5.319913297622877457e-02 2.315050472253776803e-01 2.073367570264327830e-01 4.144463992163812116e-01 -6.940711245698987647e-04 5.901668535784740897e-03 -3.965386180462412979e-02 -3.321654756760161753e-02 2.592392966793394260e-01 -2.770425721422549725e-01 6.736535948088689940e-02 -1.446885434839814966e-01 -7.745544639605775328e-02 6.389131126555579188e-02 7.419041482074982541e-02 1.050338548003974803e-01 1.551273945039841895e-01 7.399154159289061949e-02 -6.868744773296225903e-02 -8.552096651178084374e-02 1.418226504441837121e-01 -7.048007642224284330e-01 -1.398604997485993207e-01 -6.185913057049730740e-02 -1.152161271648544927e-01 8.879970549969067040e-02 1.072799298899028420e-01 -1.060061588277789735e-01 -8.954595338579651731e-02 1.429378712254726902e-01 -3.307226133078604996e-02 1.001291854442997870e-01 -3.874825328718894263e-02 -2.237358951646360034e-02 -2.025849101607989089e-01 -1.002828632726760344e-01 3.763814967529283823e-02 -2.093468195092367673e-02 -2.047160750549810726e-01 -4.287975228029097113e-02 -3.163721809333850787e-03 1.029603051134461156e-01 -8.496005025453588766e-02 -4.884940352109752582e-02 5.885775138568280496e-02 -1.082909693162971421e-01 7.046754160094552411e-02 -2.251398404393566838e-02 1.737969978571242136e-01 3.020088322738088624e-02 2.842695808883289321e-01 -3.079735007783503398e-01 1.076164460528011707e-01 1.468827139735649212e-01 3.824161323126102491e-02 -9.961718381288514612e-01 -6.812455968193369127e-02 1.450187106586014130e+00 3.052953914638780186e-01 -7.805909528455885760e-02 8.129850634648784491e-02 7.263406354976915946e-02 -1.884501744201620699e-01 -2.827826195302834411e-01 1.058959528663102612e-01 3.049543089763574050e-02 3.092358065780903553e-02 -6.796869724116599842e-02 -1.342877720290155952e-01 8.020967108340644122e-03 1.165293599278631048e-01 -4.020120152994514050e-03 -5.868424971518852729e-02 -2.804960130462534340e-01 -5.088386728194873448e-02 8.904118248016265613e-02 -6.904034303857204020e-03 -1.521814598491742949e-02 -4.911537184500423814e-02 1.358361886083798709e-01 1.941103966937107045e-02 -4.382406343241230379e-02 4.216859945893862427e-02 9.314989386117238090e-03 -1.782925135750452750e-01 -1.857054017187445005e-01 2.056325913007307493e-01 -3.223671811482021338e-02 1.837388196832303797e-02 -7.114613567926469928e-02 -3.405896877731763583e-02 1.952032524101037225e-01 -2.394436365291391366e-02 -2.417061936377158660e-02 1.487620837960742549e-02 -6.047228938572459661e-02 1.156588967408362922e-01 -5.185119789664975609e-02 6.632641060909802259e-03 2.288947400080248440e-01 5.050699921370598033e-02 4.611280452805070068e-02 -7.018969888540967095e-02 2.485033983258979895e-01 3.134399354810225025e-01 -1.032613973803771651e-01 -3.742213201561222363e-02 9.057750929214698071e-03 -3.605485698351646590e-02 7.129752953073534294e-02 5.220243711353730193e-02 1.693326039652024717e-01 -5.827471431325270679e-02 1.766890450792506506e-01 -4.884654677541864359e-02 -7.129516630843760194e-02 1.074641757974694051e-01 -2.444368246000442335e-01 3.708683412311119393e-02 3.386196652946461549e-01 -1.414619591829623102e-01 1.221374748282787331e-01 -3.988441992234832700e-02 7.442628019931187000e-02 1.249177738193536225e-01 6.287442736288656464e-02 4.717015880447125720e-02 -6.870521334165831384e-02 4.134021481636078466e-02 1.211005413036970457e-01 3.632988066121579096e-01 -8.905547886409374923e-04 -1.973625351949410689e-01 1.221331517898315289e-01 2.974418217750422755e-02 -2.010882646731047135e-02 5.215980563448691619e-03 9.199139329914828023e-02 -8.338792461607838578e-04 -7.454089036627160880e-02 -7.944922084822646224e-02 -2.380484245849711356e-01 -1.122398943145944128e-01 -2.139237581733817450e-02 -1.561101931586043323e-01 -1.088970285870826671e-01 3.837510720353829591e-02 -2.609858206980599643e-02 -9.211900918791664228e-02 1.687860560167233903e-01 -2.470058271445567215e-03 -3.480574758931595514e-02 -1.647133251930867626e-01 -1.203663928768605035e-01 -1.678741581453067899e-02 -3.154777895191507309e-01 3.254845937827317848e-02 1.153399508689848113e-01 9.992011228121615296e-02 -1.375712597250834668e-01 -2.718356230977140783e-02 -2.132058642084847244e-01 -3.987744936849744321e-02 1.573654669796727135e-02 -1.240980865715398257e-01 1.500264541476687696e-01 3.209189329039800476e-01 -6.896893932249559267e-02 -3.204005668360020431e-01 3.664934384694448766e-02 -2.150093356344940920e-01 8.935277630299071072e-02 -1.188982343955541088e-01 4.288374447635059233e-02 4.290906490476333046e-02 -2.573425063548358538e-01 -9.278947422638675335e-02 -3.173665671399131943e-02 9.086636257102308212e-02 -4.096699050347526322e-02 -1.044465665745489963e-01 1.849355252336922772e-01 1.153111172032901255e-01 -6.292587324484745503e-02 -2.895685827250221722e-01 -1.694992966453751082e-01 -3.482580186514523668e-02 9.121874115614179990e-02 -3.514276348795492694e-02 -2.421808527997798208e-02 -2.382105889747072047e-01 -9.805434396221836268e-02 -9.193861087978726088e-02 6.829013338516438936e-02 2.439674052236189949e-03 -8.285760444759292243e-02 -7.530243042260892361e-02 5.989731821442748766e-02 -1.811193427213946827e-01 -2.506581834333433331e-02 -3.458963876686981243e-01 1.148458356516449536e-01 2.858618634345246393e-02 -5.921709531242818486e-02 1.001787675837644970e-01 -1.989707354790025331e-03 1.220649156639672245e-01 -1.681859025564355625e-01 8.920969162121185347e-02 8.077462168082644167e-02 -8.358971761915792720e-02 3.796455534057715381e-02 1.152494186908363111e-01 -5.387993887332339499e-02 -2.735867411588173148e-01 -2.811183324631582117e-03 -1.514080264918943042e-01 6.211346403234893621e-02 -3.389232163477579746e-02 8.145758473906686281e-02 1.289776711970687106e-01 -7.231463520115337558e-03 7.772540101705394111e-02 6.193071419755986212e-02 1.103676324172434969e-01 -2.114415533281134851e-01 -1.907514540513938206e-01 1.141010750994737866e-02 -1.910564889376640263e-01 7.153533048263102656e-02 5.354715791202659114e-02 1.010237467414942802e-01 -1.821838377172098691e-02 -6.425037085968277051e-02 -5.492968511062797099e-02 1.612318659214163064e-01 -1.012850432997382671e-01 7.537285376678252991e-02 -5.758331053067167193e-01 1.947066897591147316e-02 -5.466500884065413068e-02 -3.663815428537101071e-01 -8.166281048271258058e-02 -1.272552357601605955e-01 1.171242463869536787e-01 7.734716821750541038e-02 3.824141460316285174e-03 3.023604323673302510e-04 -2.420717189934437352e-01 -2.454638482084748469e-02 -6.240119311469535246e-01 -1.876078006562871547e-01 -4.561646763711030839e-01 4.426485432143692500e-01 -1.374385698901513519e-01 3.821236640562787612e-02 3.605643321607537172e-02 1.294193037539428104e-01 1.943118061620021774e-03 -1.282529537303175697e-02 -4.999319717698090526e-02 2.999003667678836194e-01 2.968364507651999676e-03 1.508575160041032148e-01 2.921057384624101139e-01 -1.573093681681061173e-01 2.182378762188536252e-03 3.806894501719655932e-01 -3.243924113736965098e-02 1.044236691002595058e-01 -3.837294221703725916e-01 -7.901468055880721264e-02 -6.793858125172880236e-02 -2.423339720718586596e-02 2.878236700529019504e-02 -1.498903249674631566e-01 -2.328257314927719424e-01 4.694432318164903917e-02 -8.151662511892641960e-02 -4.785424574887954530e-02 -4.444129727073131142e-01 -6.902144072229664251e-02 -7.722283999685931877e-02 8.128406744304502926e-03 1.441426769519462414e-01 1.167321336999785526e-03 5.260701126871184657e-02 -2.980812490649235175e-02 2.558719345178592786e-01 -7.983093794900826545e-02 -2.759872426483246932e-01 4.965242181570667102e-02 3.990811614712689442e-02 -7.040061811183572806e-03 -3.641983063555841171e-02 8.611581034220153197e-02 7.832911104662987345e-02 -2.296054486087129864e-01 -6.757294760561050051e-02 -1.923443571028071730e-01 -6.407547830183109305e-02 -9.048843407743249745e-02 1.302828981428952593e-01 -4.272743279269478750e-02 -1.394501511039791287e-02 -9.004859872724210734e-02 5.211679348947494822e-02 -6.897496433693933726e-02 6.748781304064657705e-02 1.853388423068463298e-01 1.695991019313303483e-01 9.886342273577188033e-02 -1.327715833878722329e-01 2.595076381762786988e-02 1.581019584680672385e-01 1.540169651398103426e-02 -8.913879227577038364e-03 8.458881536814077040e-04 2.685981149979782892e-02 -1.008972696647484832e-02 2.271057144710808204e-02 -7.530631663354493688e-02 5.210947163300081592e-02 -1.024311196956968345e-01 2.210751090819036979e-01 2.545908023876716081e-02 -2.279270845153667235e-01 6.246908957638620807e-02 -2.773744060340768355e-02 -1.200339449413449916e-01 2.143100856802792331e-01 1.430567152919541007e-01 -9.713273879352789936e-03 -1.323270232712498995e-01 1.363830791278124455e-01 -9.480242500591201660e-02 -2.347993710031613113e-01 -1.550639278180047931e-01 9.189288056580136033e-02 6.633099432779263060e-02 -7.206948513309648606e-03 -4.462290452012521169e-02 -8.767398313174010194e-02 1.360670015650115583e-01 5.042719237229809776e-02 4.141370131311771230e-01 8.186547345030924239e-02 1.179790726615638149e-02 -7.723067347176615360e-02 3.245081320383076326e-04 -6.011290711137316778e-02 1.102912712024317343e-01 9.785853403740420176e-02 -2.546281162779484575e-01 -4.646754606865018122e-02 -5.456651926559546832e-03 1.297320711234188906e-01 6.738175539689730820e-02 -4.239164632267439919e-02 -6.005741701254305176e-02 -6.981788807633867999e-02 -3.207733693459290797e-02 7.149510286998754516e-02 2.772703441727263352e-01 -1.155662750630418768e-02 -7.842547388478482429e-02 -5.273799401143480087e-02 -2.098109947498461719e-02 -7.710385483463053635e-01 -6.211129357819308167e-02 -9.436504743274982954e-02 3.748143998965514090e-02 2.558500107283365188e-01 -1.401058127444315682e-01 7.895067808446844249e-02 -5.773284799330392902e-02 -3.119450409119785272e-02 -4.458279298067586993e-02 -8.669799531248870150e-03 3.620091120348874897e-02 1.146062860076140499e-01 -6.857439978501864153e-02 3.175661122127591829e-02 -2.067385265295565606e-03 1.037968362607413902e-01 -3.673431479458982851e-01 -1.288343322761425352e-02 3.651704382524587622e-01 -2.752188881616491820e-02 1.400424127741534304e-03 1.202014710298582728e-01 -7.623673602770227042e-02 -9.856827897219304357e-02 -4.301212855739039442e-02 1.049862974553435364e-02 1.502655287256535188e-01 -3.501038225141254318e-02 8.948439029830243530e-02 4.130370241212621280e-02 -4.710809689548213497e-02 -6.049920215148154451e-02 2.478698279709969088e-02 8.911757312930881914e-02 5.761868864718816541e-02 -6.721141047446484162e-02 1.800633641083499922e-02 -1.264936023757303185e-01 2.395736790571385000e-01 3.066222599075037148e-04 -1.222812804489828847e-01 -1.809192573261185488e-01 1.602419224260245301e-01 -2.401520570811950528e-01 -1.087470247788636796e-01 3.978193370880152985e-02 -2.965955345030121260e-01 -5.703533479073375628e-02 -5.756746533736027682e-02 4.002720505616331331e-02 -3.362257858222058443e-02 -1.439608868010919529e-01 7.104550042840609807e-03 -2.999268342386573472e-01 1.153922743460583378e-01 -9.267957439042952272e-02 -1.461287530234239407e+00 4.786571380801616510e-02 -4.523483722587884337e-01 4.971659560267019211e-03 -5.784401350230537753e-02 5.271709625874870797e-01 4.019176546837603670e-02 9.179255827977312460e-03 -5.827134361958469927e-02 3.887838640671131829e-01 1.971066488051292920e-02 -3.132688963506832791e-01 2.828054994340785736e-02 2.718730501927134058e-01 -9.318093257545632946e-02 2.810257287737323931e-02 1.425619392345038872e-01 -9.330696806238433089e-03 -1.108362885226759770e-01 -2.512430270117493869e-02 -2.016746690453336335e-02 -2.105451068380228066e-02 1.131477461533586942e-01 -6.352257340239700345e-02 -2.368995114983532269e-01 -2.588432680171817712e-01 4.580088442000288668e-02 6.499905716087775454e-02 -9.001100492403418807e-02 -4.360677540236652244e-02 1.360748495360165067e-01 -2.116561775633805098e-01 -4.502948334076016523e-02 -1.534376754805842347e-01 1.046724157216218226e-01 4.445425502588181560e-02 1.489086147611288491e-01 2.728378040252957271e-02 1.023636420917489742e-02 1.125990184773507236e-01 -1.411566702490343606e-01 1.155176913139929623e-01 2.122726120948702777e-01 -3.098596279663636266e-01 -4.627718163365061865e-02 1.485009906744209351e-01 -2.134013881337683827e-01 9.469311894362644755e-02 2.264082469421552224e-02 -4.763012723060085912e-02 -9.141403105895196460e-03 -4.153475297293080654e-02 -4.525481077722175866e-02 4.732759727675225209e-02 -6.521495671366828173e-02 7.440076870723043301e-02 -1.623581615637002991e-03 6.678041696786138348e-03 -1.252823644673938530e-01 2.357392010289700579e-01 -6.184337247920504432e-02 4.164898284075899820e-02 -7.726145744717022312e-02 1.432435695164887834e-01 -5.978540674899440049e-02 -3.990950814540242947e-02 1.525782849960982332e-02 -1.731519000527262722e-02 -8.280374114564988119e-02 7.798708098234184705e-02 2.378187991776707644e-01 2.743571487098913839e-02 -3.913467973263692889e-02 -2.264284650498481488e-01 7.387711857206552546e-02 -1.077881167855971045e-01 -1.291923596120516660e-01 5.672381859020839828e-02 1.390128345414238797e-01 7.701127332942889203e-02 4.355370249792128723e-03 3.614138694283720865e-02 -4.734430898232020596e-02 -1.090761296877837405e-02 8.610236674614850372e-02 -6.548128032614383698e-02 -9.760882277194136980e-02 1.713697639913010218e-01 2.349969101688660078e-01 1.199279143714267887e-01 7.058555996529795526e-03 1.080041264165668147e-01 -8.571734059823665763e-02 -3.441229775011064081e-03 -6.693429995450780878e-02 -4.586358934404488608e-01 4.291783315768973178e-02 1.095097400920554270e-01 3.755319855211814439e-01 -1.276848335117449218e-01 6.665710967845155099e-02 -8.465694249408869942e-02 -7.417225866697388370e-02 3.509783914793891679e-02 -7.189833708777311483e-02 -1.570399837538568460e-02 -1.898393329180668096e-02 -8.073105853253333131e-02 3.585217841202732736e-02 7.201920275617262890e-02 -2.326753662065379480e-01 -9.159558020501402942e-02 2.312857533784234698e-01 3.574404366098598573e-01 -9.728820192316817161e-02 2.372312359592597675e-01 -1.474808844062067692e-01 3.583060740808420574e-02 -6.673798826817918528e-02 -5.330985365101821929e-03 -2.223125318070053383e-02 -8.672240322359753284e-01 3.672176578980406586e-02 1.477256714769330562e-04 4.093625705267772003e-02 -2.635615640750248873e-03 3.911106391334473464e-02 -1.661087896212234405e-01 2.938948539896412693e-01 -3.527958929386552922e-02 -1.088032885398832611e-01 1.612440794562236546e-01 -4.253932878813154739e-02 -2.894495544514396126e-02 5.506009528726170110e-01 -8.982136292041545400e-02 4.591493285954640485e-02 -2.466906421203634431e-02 -3.412719796593521870e-01 2.855923842407387392e-01 -1.469678085771480847e-01 -5.733336908566694090e-02 3.014440693704711904e-01 2.126670865939144783e-01 -3.689724741785149059e-02 -2.530820603042708283e-01 4.409736540218036488e-02 -6.324095215483192811e-02 1.869479652473575448e-02 -1.242017171316296409e-01 -9.480881416167734332e-02 1.482814538060058668e-02 2.967473633401941369e-01 8.283139645647268068e-02 -1.209675477337921259e-02 -9.246407664785630254e-02 6.933532210329425294e-02 -2.886772815640530412e-02 -1.707289003750916412e-01 3.889582249030921340e-02 2.617217405362725832e-02 1.080576497687089632e-01 -1.923014942424509932e-01 -3.893302707330247026e-02 -2.845234037151073755e-03 -1.408886745785158101e-02 4.643699276510700191e-02 -9.875853932360673104e-02 -2.012006753397420356e-02 -8.065953816095491891e-02 2.126259032489065670e-01 -1.528075153331952263e-01 1.251643538420550150e-01 4.436571938043538943e-02 -2.353877482310764435e-01 8.383017250159384426e-02 -1.114696763496079435e-01 3.336910217061960227e-01 -8.264396536474288846e-02 9.088563283578912633e-02 -7.422097720679382560e-02 -6.292049433246933721e-02 5.801637853992426541e-02 8.930934220805983315e-02 -7.085272918194347735e-02 -4.913011379152134456e-02 -5.430030224074464812e-02 1.291293514462617253e-01 -4.580502206045398705e-01 5.141612867482445171e-02 1.353307137591268361e-01 -8.192912319931495990e-02 -4.172171860682299949e-02 4.223756841296216064e-02 -4.511364687869912527e-04 -6.374328182257875397e-02 -3.246709861257937590e-01 8.669335021216174886e-02 1.368559512015084523e-01 8.290866943620223140e-02 -7.546319563060395474e-02 -2.889715637962115419e-02 9.401148421628885421e-02 2.860887348851335887e-01 -3.908937424323694065e-02 7.185138706312842183e-03 -4.432331214810665554e-02 -6.691218828067956037e-02 -4.059542011923236021e-02 1.322554309713426697e-02 -1.161807048454867319e-01 -8.121973448440507337e-02 -1.167929607724389057e-01 -1.578111021380135259e-01 1.969019339299969973e-01 -1.266781668394197959e-02 9.610142189085475739e-02 -8.261115904349100592e-02 -1.162105911282108883e-01 -5.703340633563861589e-02 3.192027543978448456e-02 -6.078615698491875857e-02 4.314315934309032041e-02 1.167792349978228339e-01 4.315040899158469750e-02 -6.288607515170703544e-02 -2.039840996217160904e-02 9.195906728102795635e-02 4.141781972576774606e-02 2.230877039760744904e-02 -3.974710673152499762e-02 -4.141302963925289071e-02 -1.013542143665189729e-02 5.543347722315252607e-02 3.647893728996862150e-02 -8.963061004689792943e-02 -5.598295958194005051e-02 -2.426328634713490959e-02 2.401347096338911635e-01 2.063089431672964214e-01 -9.339526422371727254e-02 -5.964036915364477887e-01 -9.351343445384391329e-02 -1.572421278870384520e-01 -7.831610957063099565e-02 4.524966304766606107e-02 -1.348872029110667614e-01 2.169677274391135224e-01 9.076032074372002156e-02 -6.932566907637639775e-02 -2.481043789772700847e-01 1.848031218149154553e-01 1.797393760462000917e-02 2.226185306714929119e-02
2.898695349524137987e-01 1.048514370847890009e-01 -2.478236546067803803e-01 -8.981876597877111457e-02 -2.097122183700455000e-01 2.207480028825370422e-02 -3.186324498593988142e-01 6.034111341902435172e-02 9.582407350035633542e-02 -3.738927113948684600e-01 6.473896111084137539e-02 -1.284970495412767755e-01 -1.338612714730153253e-01 3.740282067695085977e-02 -1.442054988682972549e-01 1.090336835855826025e-01 1.428836834630678176e-01 -2.054501797686405506e-01 -2.536461772302592635e-02 -3.457141864725068459e-01 -1.517677364665327711e-01 5.171818193587125051e-02 1.217757963941380195e-01 -4.489756075321838652e-02 -2.665222559570508132e-01 6.056130269049966180e-02 3.381606049517327239e-02 -8.909595391680137644e-02 1.030719294264933333e-01 -4.236796731226172980e-02 -3.751295863453606161e-02 1.107137714954200686e-01 -3.616295686701700984e-02 -8.868198176812042144e-02 1.197081918841251119e-01 -6.113640852312752540e-03 -2.289106777847357832e-01 -4.617702469337454235e-02 -1.917491907555204378e-01 2.816828156626131549e-02 1.647955042071157228e-01 1.139514984312521989e-01 -9.214797834704561985e-02 1.372902541946872113e-01 -2.089386236885120221e-02 -1.122863227345497206e-01 -2.262087352532444473e-01 -1.202128785669819011e-01 -2.161529291176676748e-02 2.287362819079416520e-02 3.010665182941654749e-01 -3.096772448192654514e-01 -1.476379764839952646e-01 8.043433592166857049e-02 1.885218054034666080e-01 -6.143854037012975999e-02 -1.418662036349460365e-01 2.096008621699086971e-01 -2.790380524831033160e-01 5.396082076014795809e-02 -8.982361800166784038e-02 -5.739904987625078087e-02 -1.615785052790404686e-01 -9.158228889900833780e-02 1.212227256519456398e-01 4.943225429593232217e-02 2.084573398877109449e-02 1.547393093045593415e-01 -1.155489301247781125e-01 -1.807839698737654655e-01 -1.876941244913004070e-01 -1.944413195123308735e-01 -1.710896252585187294e-01 -3.122455174430103370e-02 -1.819910893303824662e-01 -4.505791648733736832e-02 -1.841691630805095958e-01 -1.791580132692054822e-02 -8.237872523510549050e-02 -2.132221730084467304e-01 5.430793835281152310e-02 9.263805067754411759e-02 1.373903238689065109e-01 -2.726077744681458179e-02 2.931133637886477669e-02 -1.010818009682031837e-01 -2.261826303857308595e-01 1.651352495926931840e-01 -2.350904741519649344e-02 1.363233737738168104e-02 1.143613497980771887e-01 -1.900017049632697352e-01 2.988473830783762719e-01 -2.749437674090546846e-01 -4.253074991218472323e-02 -1.623482251497433346e-02 1.519620019736250272e-01 -2.253242800028933124e-01 -1.794026306512465918e-01 7.787007415749587491e-02 -2.119109560406062243e-01 -2.970509407293893123e-01 -1.254564874002215558e-01 7.342303789751430942e-02 2.870666555566001032e-01 -7.997186374342647730e-02 -2.322683397906588898e-01 1.210737225743854437e-02 2.768718406066411064e-01 -2.119782882271833424e-01 9.215971402753808661e-02 -2.574877329708412099e-01 -7.900694000518586335e-02 -2.278530990317906013e-01 2.841242414755895673e-01 1.735682212551645787e-01 -3.531644463626253290e-03 5.400825653112263647e-02 1.959882867342612189e-01 -1.548367166219563051e-01 -1.260908810400853536e-02 -2.009940641534915529e-01 5.296769634342946703e-02 -2.541752510338384785e-01 5.115438824234103121e-02 -2.869200672947767594e-01 1.369860426034258914e-02 -1.608287266040827335e-01 -1.562220493154733436e-01 -5.751778555863154563e-02 -1.863013626698964142e-01 7.442905657829106125e-02 -3.297447877787258452e-01 1.013545103819211840e-01 -1.439067599822334009e-01 2.421925801535703415e-01 -4.310819538143690483e-02 8.628387176836418981e-02 -1.411004169995349333e-01 2.227619715177933946e-01 1.471152340064449948e-01 2.922327942899629466e-02 -2.547188844581794731e-01 3.019548933511741542e-02 4.126856128477659341e-02 -2.935036790381885252e-01 -9.724008907177877914e-02 -3.757156873713376477e-01 -2.834583273721424379e-01 -1.350554768975461284e-01 -1.730470652019248587e-02 -2.449312591880344336e-01 1.327134547606184656e-01 5.263963631831110324e-02 -2.576792326608147166e-01 -2.078414833292723252e-01 1.100513870931832394e-02 -1.080907367603903546e-01 -1.218050557801866191e-01 -1.368044349118757719e-01 1.950172306512937270e-01 -4.385998750175848504e-02 1.848555219719684728e-01 2.099730494681419368e-01 -4.835707509582566621e-02 1.762419319315653155e-01 -1.882424016156273028e-01 -1.572042058323664393e-01 -1.715605366299188528e-01 -1.069563786255966764e-01 -1.569152980560753752e-01 1.026254366849443517e-01 2.229236383122912557e-01 1.209562524592337623e-01 2.733971453601190607e-02 -2.643238690178125738e-01 -5.416499192764442916e-02 1.599435627023851059e-01 -3.811023940043177238e-01 1.657241677025275139e-01 -2.819135988279557470e-01 -6.104111688368293182e-02 2.254492650337648271e-02 -9.384840571644387230e-02 -5.142441717080648532e-03 9.556344128356249190e-02 3.507983236761514911e-01 5.756738643495374480e-02 -1.667325002226134056e-01 -4.395652450613748465e-03 -3.213455389908833476e-02 2.304841424015542997e-02 -2.409844763722687466e-01 -2.767780900310258807e-01 -2.923389890650353595e-01 -1.213464215704146282e-01 1.898545061669991985e-01 -2.101580586672694151e-01 -1.053769329222365436e-01 1.064268986786907623e-01 1.019555951925455936e-02 -5.835455245314823125e-02 3.893790891962350259e-02 9.006442404570697002e-02 2.082380158528024730e-02 1.578700669788029032e-01 -3.759266587398096826e-02 2.183616808700704071e-01 -1.657506120217775436e-01 -8.785371560391859458e-02 1.134578147473249213e-02 1.700723163685376738e-01 -2.557177266443041996e-01 1.380162098739662890e-01 -7.221784703165486097e-02 2.785314532921492545e-02 -3.122360665361265664e-01 -1.814389715603802744e-01 -2.993652013926388356e-01 -6.920268811513687057e-02 3.496432349167885589e-02 1.203093031379586647e-01 -2.184286915499405457e-01 1.997646622267691408e-01 -1.050589561488093626e-01 2.926227014165332097e-02 7.268454303671446903e-02 -1.277046070597367446e-02 2.766031434224829749e-02 -2.547661718417096322e-01 1.817318129803447979e-01 -1.939244010092649184e-01 8.920848701120424884e-02 -1.392703979612499032e-01 1.882546140111286334e-02 -2.403721849910904207e-01 -2.506485350478959012e-02 1.541464811599763396e-01 -2.291995152607090025e-01 1.136737358793777769e-01 -3.073848673267354226e-01 2.068923526068467411e-01 -2.482560148011856427e-01 -3.205658847702227421e-01 2.145366463821360078e-02 1.193557600953428915e-01 -2.181533182459226838e-01 -2.261559986004745837e-01 -1.546188401250525313e-01 1.035857887807618005e-01 1.322123118740588521e-01 -1.027791185169106385e-02 -1.124711470694549353e-01 -6.648624738354487473e-02 -1.629984187486168412e-01 -3.787834713694874789e-01 3.116552026092198058e-01 -1.122398816739105243e-01 4.187584479058843734e-02 5.642696660051537555e-02 -3.430219766168499107e-01 8.025348232950775540e-02 -2.896284193597732370e-01 -3.603177822891304866e-02 -2.093396767217909349e-01 8.036662789253745665e-02 1.055588041015175088e-01 1.693737857244353717e-01 2.105753242124603353e-01 -1.903860677360662626e-02 -1.261903120175389137e-01 1.010726398295746925e-01 7.787430065820402647e-03 -2.264526337261109912e-01 -1.888453998839594028e-01 2.102967473602507242e-01 1.131528111604528930e-01 -2.590968905442258552e-01 1.334378270931426552e-02 6.347900816613755159e-02 2.085870918919790207e-01 4.500279864459912765e-02 -1.370922336629645799e-01 8.633727179080637193e-02 7.633911552000895162e-02 1.594601374373319780e-01 -2.844558693127238747e-01 1.415437381268298545e-01 -1.920747532365820742e-01 -1.533705705872304668e-02 1.255130689724430482e-01 1.619165266835438377e-01 1.891944954173726545e-01 1.802797243010069717e-01 -9.337711810182634797e-02 9.060452738477373091e-02 1.201979085605970167e-03 1.324436370602874447e-01 8.664949235460562421e-03 -1.909857643989596732e-01 -1.982601408414538524e-01 -7.825706512069130483e-02 -5.841088550263511675e-02 1.218186510907664222e-01 -2.569564013120667623e-01 1.408744389103965544e-01 -1.990922509109476490e-01 -1.005444399991361482e-01 3.905307854331991485e-02 1.214787496677017797e-01 2.663110918785858705e-01 -1.308294012439030207e-01 1.173706341130942160e-01 -2.129227725241353564e-01 -5.795395948358315202e-02 -2.684260029666604153e-01 -2.762912476370322223e-01 7.614296496021182026e-02 -2.797231242961543130e-01 1.231891619126530835e-01 -6.904724359345348721e-03 -2.121219031802151489e-01 1.754870096013980696e-01 1.836296232245931276e-02 6.309708620393929268e-02 2.161025207327027797e-01 1.809142330790025621e-01 1.291058863109844912e-01 -1.695276718899716151e-01 4.284928850795159672e-02 2.258491907565843837e-01 4.928226449645858875e-02 3.554154382273834734e-01 -1.407223573397808347e-01 1.829707033448997600e-01 -2.407945020616308537e-02 8.965388273283353415e-02 2.806384309555351453e-02 1.232498390382226194e-01 3.760432305798926123e-02 -2.077997591769942809e-01 -1.645623424649728106e-01 -3.359619705364080278e-01 1.740894497576654099e-01 1.385150173185402955e-01 2.296931325782946842e-01 -8.526277975444578050e-02 1.952393810433299959e-01 1.701753516364793162e-01 6.097280328207946992e-02 -2.507074999698903350e-01 1.318323557985722205e-01 -2.646681385608400938e-01 -3.318389303616313402e-02 1.421487315437617305e-01 -6.845193220406464718e-02 -3.117382836787286893e-01 -2.096192499948441590e-01 3.398417781205322584e-03 -2.216277023169328092e-02 3.328339091269963412e-03 -1.687628580514792809e-01 -2.127584260126045568e-01 2.754118088718846558e-01 1.822231587133699149e-01 1.642952553706384378e-01 5.069535396349174328e-02 -1.959988849956600665e-01 2.098956011702219626e-01 -2.687987535775484549e-01 -3.068435752364206959e-01 2.447341065109490121e-01 -1.776070162859529622e-01 2.469983377458304374e-01 -2.082718646452534350e-01 -2.754361402280709470e-01 4.093159371715428957e-02 1.935115337006245440e-01 -5.767289109264441826e-01 -1.526489827457290227e-01 3.001295515876844511e-01 -1.150487726812876171e-01 1.530301560173607522e-01 2.324257978041762707e-01 1.964488139232354602e-01 -1.826516281821171372e-01 -2.959942645753992352e-01 -7.319051159828478606e-03 -1.652012951893722104e-01 1.029636886354653655e-02 -1.352020137436008296e-01 -2.404581753088776142e-01 6.383238064539363543e-02 -1.662406667179125441e-01 3.109161948318286406e-01 -4.971982531684385892e-02 2.089919473665335370e-01 2.199772418518664840e-01 -5.116631885446448064e-02 -2.039015151140221582e-01 -2.685084086185884900e-01 -1.801179792006555869e-01 -3.307928895301188166e-01 -2.027625906550096502e-01 -1.937944534387606443e-01 2.658582755111889018e-01 -1.373362995490212679e-01 -6.376560995987008706e-02 6.977416875231914895e-02 6.380912715610326247e-02 -1.579892336382905382e-01 -3.376762897190841578e-02 1.259091763019537236e-01 -2.280130009267231916e-01 2.992542086201455467e-02 -2.548683215270675442e-02 -2.774359584810033863e-01 1.035961682837912706e-01 1.265160500486532669e-01 -2.211003944976815405e-01 1.622216516364427541e-01 -2.402474054195477826e-01 -1.025613278175358523e-01 1.137074920721994065e-01 -8.320784262978264678e-02 1.395847816731820845e-01 -1.230145998113286454e-01 -1.177885385376366556e-01 -2.153490132836126669e-01 -1.578765061004323289e-01 -1.770860571373711334e-01 -3.275518054335859186e-01 1.152036158590076000e-02 1.044642470978756482e-01 -7.369820453873975052e-02 -1.976360575617704118e-01 2.023340861855851269e-01 1.193363835256284061e-01 -3.630410914468632511e-01 -3.097801388369600950e-01 1.027243021493341041e-01 -1.589466907240199289e-01 1.402396396222425554e-02 -2.391773732859367174e-01 -2.807169640133307387e-01 -1.079326861156735679e-01 -1.559781224583281500e-01 6.362989183445884322e-02 -1.172811280961921256e-02 9.856448577412748116e-03 1.542593711809510382e-01 7.152188743972956453e-02 -3.151955373775681690e-01 1.879825770239208077e-02 9.842363713612951870e-02 -2.936117431674075684e-01 3.388188639274772318e-02 1.183435276875484804e-01 8.548853784312385184e-02 5.831750967587035622e-02 -8.417132241769241519e-02 -1.405819997715823666e-01 -5.132489021884126951e-03 2.195260146606860807e-01 1.648685201183445748e-01 1.291737653843620937e-01 1.749360626027030297e-01 -2.054318162731858799e-01 -3.210190344017308656e-02 -8.185073725532820629e-03 1.522715393530240380e-01 1.203421621717318396e-01 4.153926737100948480e-02 -3.200138824334083920e-02 -2.468490459773491075e-02 1.763699888969757490e-01 1.801385760500904820e-01 -2.685925375900611312e-01 -1.973732885440088181e-01 1.664121495905969070e-02 -1.498021362682695201e-01 -1.491064058030069396e-02 -8.589233903324552943e-02 6.252512572645337052e-02 -2.260183692920013920e-01 2.788094122350767146e-01 -1.145209760450107972e-01 -3.438821254818891782e-01 1.418487913981911486e-01 3.369183481638026167e-01 -2.410352806212681318e-02 9.344955253341133417e-02 1.301617604135211215e-01 -3.053370384147984784e-01 -4.709653735613582998e-02 1.649913965747143996e-01 -9.325423948587062417e-02 -2.021616253986027456e-01 7.958580375116447447e-02 5.620774431471655536e-02 -3.287498486814448978e-02 -1.330171402917187384e-01 -1.520124050435841812e-01 1.323033604960840715e-01 -1.486367723268527397e-01 2.126547287887151083e-01 -3.082652113737600064e-01 8.793820309473898700e-02 -1.172382642163880273e-01 1.623922225890244986e-01 -2.964220235585272589e-01 -2.797131254838759462e-01 -1.560875193829163732e-01 -2.507671999326207546e-01 -2.064987787631267779e-01 -2.844535684815082122e-01 1.696931676010422427e-02 6.957499355803181684e-02 4.891670752960500246e-02 6.648952512390425562e-02 3.368223668439607188e-02 -8.805292879298615150e-02 1.888425390689835726e-01 6.431612418680158864e-03 -1.256413421933234298e-01 -3.650655813549329859e-02 3.822103591353676055e-02 -2.111224311564683376e-01 -1.635077208779915081e-01 -2.449515973995488038e-01 -3.316446134464344220e-01 9.392764219270628712e-02 -3.071097862104408271e-01 -1.827749586795606729e-01 -2.511412418259537094e-01 1.711108500005979749e-01 -1.557849277119433551e-01 -7.652297925951272173e-02 9.502253894571558324e-04 1.274125813661190765e-01 -2.103273911769653892e-01 2.217732949594979908e-01 -1.387209029025439355e-01 4.702830079397524871e-02 1.687299928721657238e-01 -7.962898842894604312e-02 -1.870974540218411225e-02 2.240770402010640316e-01 1.609299850304984902e-01 1.497671089839766601e-02 -1.001418829911616126e-01 -1.410375033596203420e-01 1.348210190931120045e-01 -1.996433716841427564e-01 1.864005869909199919e-01 6.801030414482490960e-02 -2.928674986418365322e-01 2.255272604736446862e-01 3.721252165723835242e-03 -2.066187544196959602e-01 1.026547436058259377e-01 -3.588351461134280107e-02 2.267189157525261595e-02 -1.868093421643080010e-01 1.790548617313373614e-01 -5.335274464854805609e-02 2.421841648604950159e-01 -2.793547472734461135e-01 -5.958393328658447008e-02 6.796695672842906211e-02 -2.096885448599506152e-01 2.988731243399904147e-01 1.831006834606098976e-01 -2.542917366355253450e-01 -4.472563140809843879e-02 -2.192540091774148325e-01 1.316777533687328305e-01 -2.545079124371489865e-01 -2.308313061304998193e-01 -1.159253397228990172e-02 -3.784200330515203325e-01 -2.649452452422175752e-01 -2.290191336155233126e-01 -1.717014115993909240e-01 -1.539259027960017678e-01 4.809660228710994218e-02 -1.391766853115551095e-01 -1.490288102836765383e-01 1.229856168165819295e-02 -1.622242122711260726e-01 1.176243692129420731e-01 -3.016336576918889345e-01 -1.850932494007017926e-01 -1.381038273825505591e-01 -7.908960051960196858e-02 -7.520456960770514898e-02 -8.586550180798667442e-02 -3.438852817937770867e-01 1.342606039033816256e-01 -2.726025853235604091e-01 -2.040310272622272159e-01 -3.113209168489742829e-01 -2.713783880855591968e-01 -3.428815618101740959e-02 -1.282847427699284892e-01 -2.413184219611535231e-01 -2.718770334113372322e-01 -1.293318845566416020e-01 -9.014642736814096335e-02 -2.391577832970779305e-01 2.297425211369434894e-01 3.419069868515822175e-01 -1.431828190468971418e-01 -5.407730779284179723e-02 2.122989952883350684e-01 1.383610859298773331e-02 9.477630628985399264e-02 3.308125417685848450e-04 -1.062477785032322070e-01 7.056009245082311976e-02 -2.866046132816701952e-02 2.871975350258099691e-01 -1.613223227231659618e-01 -1.610455092991982390e-02 -1.199420170036703641e-02 2.767504782312577710e-02 -1.603636778422105336e-01 -1.691558071136088082e-01 7.014858937398896210e-02 -1.554925739584624711e-01 -1.570106253118939421e-01 1.064435742142255323e-02 -2.103461343987804988e-01 9.101969770387571823e-02 4.888792064891027411e-02 -2.435300214088842799e-02 5.463172229568259014e-03 1.130810554439962701e-01 5.761492997251472375e-03 5.511410003337936792e-02 -3.225024141408640577e-01 -1.986243824988863094e-01 1.435358935609231112e-01 -1.454697693056014318e-01 1.684189280017646950e-01 1.888443899574850648e-01 -9.442560536278531147e-02 2.340872734951777723e-01 -1.964210941155022372e-01 1.884277526639730194e-01 3.243102284137159425e-02 -1.384379567451632931e-01 -2.703144272798431724e-01 -6.600425703810668121e-02 -8.559419652131125544e-02 -7.664241223153919758e-02 -1.572598774649378306e-01 -1.648348979782425505e-01 -1.389897849680818975e-01 1.612237358657643282e-01 1.218223387773485489e-01 1.094589193897595701e-02 -3.691033607711254744e-02 2.675164570471812164e-02 -1.897452423923217391e-01 7.904627917658439695e-02 -2.013118918732186846e-01 -9.053071282713580359e-02 -3.191796942532109105e-01 -2.446576494227863663e-01 6.168996138242265059e-02 1.015148208462867546e-01 -1.528711195809602241e-01 -3.251829348064701475e-01 1.295721076024450580e-01 -9.321647768259437583e-02 5.086680443302931537e-02 -1.227595056427817355e-01 2.439623860703137720e-02 -2.272800704434070063e-01 -3.509257219436379138e-01 -3.146527079242539826e-01 -2.453039144764055102e-01 2.295441531533155277e-01 -1.036522938851263398e-01 5.634025782935056514e-02 1.933141739746081778e-01 -2.283877262989732204e-01 1.641215976051357273e-01 -2.325313746994194797e-01 9.895871477085818602e-02 -1.818655991502261260e-01 3.245107985400657591e-01 2.710751716937606984e-02 -4.376376131777772686e-04 -1.531623499967753321e-01 8.386998449133117872e-02 1.670645936958257416e-01 4.508977614424788949e-02 -7.259683689673684936e-02 7.215134016622168356e-02 -2.161584935989443457e-01 1.997510344475690591e-01 2.415611244316635264e-01 -1.308633220427563304e-01 -1.053933460275166406e-01 8.379910306398949404e-02 -8.728125786600780811e-02 6.992440867891890066e-02 6.016915048163618690e-02 2.688011921326941001e-01 -6.478834760821271244e-02 -9.635286094531453349e-02 -1.585746741530992543e-02 -1.340822858334423384e-01 3.139679531427709558e-02 5.227335841477159795e-02 -3.304598551106897597e-01 -2.067782521603469814e-01 2.871716021900029836e-01 -9.070154253812729925e-03 -2.852540953083127287e-02 -1.774252711203431754e-01 2.642704340305562782e-01 2.010515127918146294e-01 4.986318675232167402e-02 -9.349932432713234376e-02 2.570919518798667289e-03 -2.639289786120301851e-01 -2.623936667030206671e-01 -1.949819751833218803e-02 -2.071530276291655981e-01 -1.256179192911457271e-02 -1.498352035214770006e-02 -1.284345612819185189e-01 -2.241323408401496853e-01 -2.128572823803481229e-01 8.051629363458916167e-02 -1.264274286490100763e-01 -8.391405677298781340e-02 -1.439763519988295770e-01 4.112697706202599751e-02 7.750750276660019374e-03 -8.124510925490295576e-02 8.046714382041862679e-02 1.752907583362756094e-02 1.674655166205434864e-01 -1.566177698197216972e-01 -4.101301239461335735e-01 -3.058952780475891753e-02 -2.932312452647943893e-02 -4.654132338961144283e-02 -2.639353803812402588e-01 -1.894733461889135939e-01 -7.743774557897521726e-02 7.822085158088822043e-02 1.011429941262252247e-01 1.192886839442906660e-01 1.101535263977580087e-01 -2.493222993923181752e-01 1.458376710879146498e-01 -7.435902138842211129e-02 -2.896924759809469951e-01 -1.327926740319032572e-01 -3.459533932802218853e-02 -3.429164441145028663e-02 -2.636552060294355959e-01 -2.468534691917434465e-01 -2.842441315618914333e-01 1.029884904150996927e-01 2.772732844637117999e-01 -1.963905980962810383e-01 2.437754710496664243e-02 1.879927627020376302e-01 3.045949302775797021e-02 5.130578206701495725e-02 1.914398965216328186e-01 -1.093482122395906392e-01 -1.490472469743021333e-01 2.634060631742505820e-01 -3.315405068129448699e-03 -2.795048090546088382e-01 -8.171920865217773000e-02 -6.740067575111856335e-02 -1.488882314331887169e-01 6.867602529932823052e-02 1.998077285540419412e-01 -3.378361077280122027e-01 3.061083504578292896e-02 -3.043322563977531314e-01 -1.318487028275909870e-02 -1.926638928938582684e-01 1.314715521422770150e-01 1.512292362964611503e-01 -2.961950750897245355e-01 -2.365241252980359588e-01 -3.836575553733214544e-02 1.163814692340947865e-01 1.707011864134918011e-01 -2.820013394267535389e-01 -1.914510289126404030e-01 -1.505178274715186504e-01 -3.645993539494319369e-01 5.800073185346446558e-02 1.429299866670450114e-01 6.494041817042159326e-02 -7.548085929878897704e-02 8.531961281528036012e-02 1.990728256043749755e-01 -1.028599122485732292e-01 2.418891386109663783e-02 -1.236476828273312401e-01 -3.240401212989391100e-01 -2.213741131694436093e-01 1.083303791727975801e-03 -1.544604445077707444e-01 1.126434237667458815e-01 1.210720645955755126e-01 1.236570953113045185e-01 -1.849039321372595440e-02 2.971643211834440121e-02 1.748494752315703227e-01 -2.382156388374131670e-02 -1.732640298058275019e-01 1.763206950935329934e-02 -7.496331304273938512e-02 -2.604375049308548656e-02 -1.415745392403911229e-01 -1.697461416953985613e-01 2.551694372718548709e-01 -1.716325942650145653e-01 -6.251928702240920621e-02 -9.782053588178950265e-02 -2.092007305633471759e-01 2.094293484883306411e-01 1.010112723096577431e-01 1.484452575642650207e-01 -5.493295146390116124e-02 3.559196153231798665e-02 -1.361251212642893916e-03 -1.207262456958900802e-03 2.901354809069497942e-01 -2.961651956139997321e-01 -5.469185532900942837e-02 -7.986350987359480680e-02 2.649463462148163861e-01 3.888699891198958702e-02 -3.375433525144035385e-01 1.570300477475222722e-01 1.679496119843930033e-02 -2.312252133049729763e-01 5.566046028277133600e-02 -2.006416783800594461e-01 2.792191487407081132e-02 5.719394084174774656e-02 -4.258504420767721815e-02 2.076226495229996916e-01 1.152702627233578858e-01 1.240945838071250001e-01 -3.683854222850154181e-01 -3.403968972196769194e-01 6.766301741606178984e-04 -6.991454351570214332e-02 -2.820504000474225934e-02 -1.838122591143963591e-01 -2.273014046180467929e-01 2.289758686641254759e-01 7.834822414539691082e-02 -3.230424898483127971e-01 -1.758002307917816420e-01 -1.330337340861952600e-01 1.749749943045837697e-01 -2.433635764546079883e-01 3.105089401550508721e-01 -1.404511070413279328e-01 -1.974505913808612956e-01 -8.489605191538419915e-02 -1.617466757831008684e-01 1.314125271211029622e-01 1.453248506622706673e-02 -9.339865789141393870e-03 -1.616905195836821074e-01 -1.277027178218251291e-01 -7.293398787595341271e-02 1.814523899220001901e-01 8.163445727474372138e-02 -2.520932476101076514e-01 -3.181757017876225141e-02 -3.346457196377355392e-01 7.785534551604640641e-02 -2.544918492361467610e-01 2.363594568267216381e-02 -1.121041380435833651e-01 -1.298804208019626316e-01 -1.563034790747728220e-01 1.740543150104849612e-01 1.124664850562427931e-01 -1.759230507935196502e-02 3.046378438525472812e-02 6.011916315415479287e-03 7.322651593826046135e-02 1.530019931456737259e-01 1.941594341646484811e-01 -5.704109757163857569e-02 9.643004715025296769e-02 -4.607240443833024446e-02 -2.256591564334645972e-01 6.333829163312952593e-02 1.118848756318118615e-01 -2.092553159134069030e-01 9.028054471833195371e-02 -1.942078881059283446e-01 8.290011517489515036e-02 2.801246160243684932e-03 -1.162433395967534117e-01 6.319142155412227173e-03 2.620532636917726615e-02 -2.608520377094408760e-02 -3.555065957073630378e-02 2.168272547584447485e-02 -1.116828454581593189e-01 -2.242646103668989588e-01 -2.082460789312933769e-01 9.813843346614575802e-02 1.256579255566952526e-02 9.393958997286223911e-02 5.742749691941533702e-02 -1.515215289585896373e-02 -6.278248262385156819e-02 6.285425733670842174e-02 -1.278296833080011796e-01 4.608709115407238349e-02 -9.152185462737250088e-02 -9.051491104809310240e-02 -2.041704782152995168e-01 -2.616223595980036731e-01 -3.144778073382774042e-01 1.399639620786858607e-01 -2.472937686404311497e-01 1.941111000871145464e-01 1.554900241475277722e-01 -3.683554713324365126e-01 1.758005618655371083e-01 3.017762511571186468e-01 4.089316346669140401e-02 1.762702674428881511e-02 -3.477287845025561069e-02 -2.490790860688505137e-01 -3.551092758857540659e-03 9.161885267954962553e-02 5.498347841896679411e-02 -4.484933851011228823e-02 -2.536977270618475111e-01 2.225593964983670903e-01 2.047068103804408068e-01 1.765002147010332478e-01 -1.733864513417125441e-01 -2.948518182372551477e-01 -3.691138504578999613e-01 -2.541843805185335925e-01 -6.374106954839536821e-02 1.460742458253702462e-03 4.446109546595569673e-02 3.109238456232695236e-01 -1.396907594948651465e-02 -1.519040749268976420e-01 -4.758583968434469680e-02 2.346279115308121943e-01 2.567071129414556438e-02 -3.299668183662276405e-02 -2.441364736536658919e-01 2.601532880991857533e-01 -1.324646034299604242e-03 2.565200142030122921e-01 2.463744703668897251e-01 -1.253505421373679596e-01 -2.791624033120978718e-02 -1.076502584674844665e-01 -2.125133908288510121e-01 -1.569893224333799853e-01 2.258011684073207292e-01 -8.006573719079940199e-02 1.079064071232448407e-01 -2.888641490788005362e-01 -3.103826562540841494e-02 -1.040158597711716842e-01 2.065161198619238844e-02 -5.030189988106248400e-02 -1.729092580634590537e-01 -2.177001330977307025e-01 -2.447442488152833939e-01 1.180029653267772594e-01 -4.510045482603431549e-02 -3.112622998011511655e-01 4.520358559928312758e-02 1.754597017444122498e-01 -1.900290055152067670e-01 8.439737804487731920e-02 2.883982930223539251e-04 1.424499354723486044e-01
