-1.215245232991410546e-01 -2.067502506797723807e-02
3.577702888828044325e-01 -2.701508129005976699e-01
-8.051612043886101355e-02 7.690008518548276106e-02
-1.141367454956474514e-01 -3.240283127245984218e-01
1.663836284020314971e-01 1.610988077236554794e-01
-2.413423371553307384e-01 -2.214334740112189615e-01
3.476120580949185745e-01 -3.940548786218856514e-01
8.091690381837964019e-02 -3.102138783097225239e-01
-2.593294225222748661e-01 -3.073453574890660511e-01
9.987379241458250734e-01 -2.008207346623412659e-01
-2.526007395992041493e-02 -2.186456102830551251e-01
-1.979013464358236329e-01 -1.589642451131867418e-01
-8.870895991245755785e-02 2.587922872154902951e-02
9.555330308328491284e-02 1.730375831507859896e-01
-1.707008496835347722e-01 -1.706858838250632782e-01
9.493004427746737361e-02 -8.799223633928182631e-02
1.083656868969308934e-01 -8.377260319113313813e-02
1.576202098099113436e-01 1.964071648790722269e-01
1.718114221714038270e-01 -4.027128614684048064e-02
8.423351514746107993e-02 -3.064397304946679945e-01
-2.743684908606250916e-01 7.460342396119601371e-02
3.133224940711995532e-02 -2.773785134462364854e-01
2.484417418994261106e-01 2.684723283148510720e-01
3.045614198198010047e-01 -8.412670167713347247e-02
-2.373600024129889352e-01 -2.728249231799552144e-01
2.015323443199668885e-01 -8.654836732794980725e-02
-1.740090443192464364e-01 -7.368789165173667000e-02
-1.074384050563718523e-01 -1.804011990471154070e-01
-5.540922283262770393e-02 -5.910569487794663929e-02
-1.414497175077595315e-01 -2.689087058384120321e-01
2.325242965538882808e-02 1.238474464492834437e-01
1.626830746347236734e-02 -1.655289953460081093e-02
-1.642999721979696570e-01 -2.752826729075268375e-01
-1.254140945137419416e-01 -5.088249768562512487e-02
-2.138917780347068254e-01 7.022656750357571254e-02
1.499418949467188344e-01 1.151464608905438114e-01
-1.069108241953646704e-01 -2.177582891366784956e-01
-3.024696056837287983e-02 -3.116540663903423214e-01
-1.966829395575085959e-01 -9.220136881100018944e-02
-2.379763559654267946e-01 -1.284634671332180456e-01
1.874300088815037124e-01 -2.454158983349190859e-01
-5.366212703311192683e-02 8.260052876470309891e-02
1.933350507148392516e-01 1.980286364569341651e-01
1.754131004601198474e-01 -4.173178051641533715e-02
1.525607371718421257e-01 1.044384735834828770e-01
2.884514710195011378e-01 -2.535847432269567325e-01
-4.938738843585203930e-02 3.408020634303272206e-02
1.004696557786370209e-01 1.852018006483432955e-01
1.174971870038733941e-02 1.325445868482390821e-01
5.202682313116148817e-04 1.468846749616609937e-01
9.489212685218881282e-02 1.648397991864795076e-01
7.639427849669609694e-03 6.491174638289044785e-02
4.628216816138292639e-02 -2.109914177923121470e-01
-1.880518858905750046e-01 2.361568617851267371e-01
2.164703824243509600e-01 -1.692286057573482438e-01
1.964191100056529027e-01 -1.525108263781586870e-01
-2.103306022821744281e-01 9.285840416458493451e-02
3.213820638288934495e-01 1.228247266881073163e-01
-5.379613855436523456e-02 1.492113727483370678e-01
5.892017150239269724e-02 4.652781862142615216e-02
2.351566245504516650e-01 -8.657415486232906965e-02
1.402893739983123167e-01 -1.289392738497464330e-01
-5.769120569038230922e-02 -3.120864634910396895e-01
-2.882139182957454415e-01 -1.139421432787001559e-01
-1.663198394003018721e-01 -6.776570009656504578e-02
-6.844908316833087092e-02 4.822459006939410278e-03
2.547046914965545028e-01 1.593389274427058910e-01
-1.721538975317509490e-01 -1.268264916591562742e-02
2.695335158787771218e-02 1.938025461578155306e-01
9.602604156150981729e-02 1.824218026875890075e-02
4.182598689051356122e-02 -3.349217466239495095e-02
-1.207599919211847228e-01 -1.392995472585916231e-02
1.015441119517834501e-01 1.146179587079675100e-01
-3.611826178428505923e-02 6.949777435332221698e-02
1.314968893313725740e-01 9.727832773022797308e-02
4.738069048367343772e-02 -5.784848476370181569e-02
-2.104476222978130528e-01 -3.303996469547340609e-01
-9.597672710658320186e-03 1.839807868068944197e-01
9.469348247973620458e-02 -3.587136996597827809e-01
-4.552634437613423124e-02 2.225511779506951504e-01
-1.603814607204600007e-01 4.671710872242367668e-02
-1.173799204374530586e-01 -2.302631814268114030e-01
-2.195552031728567610e-01 1.111132208275170813e-01
2.187532294901791130e-01 -5.568403032438629802e-02
1.079989667763612687e-01 3.128210318963789427e-01
-2.850833987417348073e-02 1.283566147207433894e-01
1.618245243369111352e-01 -2.115983488144443092e-01
5.522989165052427304e-03 -1.745327323086058036e-01
-1.286374619475698644e-01 -3.824417771466506744e-02
-1.773066157690566733e-02 -2.104335803425120277e-01
4.189716842903175309e-02 -8.169761165592537289e-02
2.390298291934666863e-01 -8.895256923674697835e-02
-9.887321451050136434e-02 9.399224005803752391e-02
-3.057729851891336503e-01 -1.106544780602762568e-01
2.001406779196515107e-01 -1.036659206353676838e-01
1.050953390207460397e-01 -1.030605771315058622e-01
-1.934917102719103943e-01 -1.772717283092009044e-01
1.393505110983717654e-01 -7.271934219883402495e-02
-2.090904072674444059e-01 -2.559714125645948801e-01
1.425475227133779499e-01 5.403792120557469880e-02
-9.590548315117268519e-02 5.269037104691578349e-02
1.307873778460922065e-01 -2.454489318337987058e-01
1.730583480042550137e-01 -1.712643239418703833e-01
-1.111661748868048305e-01 -7.375916969757762010e-02
7.718075703138374544e-02 -1.194530139458299112e-01
9.343612518160976377e-02 -7.457734014680693357e-02
6.353488656267222701e-02 -3.000239677621905354e-01
-2.918582315971483820e-02 9.082550915673226477e-02
1.067547777412728022e-01 -7.410063353544009412e-02
-9.582859858332505587e-02 -2.228810215016519547e-01
7.224662523713767937e-02 -1.560670442673488811e-01
1.689574609854149929e-03 -3.531055149396515949e-03
-9.446235481094608644e-02 -3.621403372922389619e-02
-2.814201143888876988e-01 -1.424136620348183391e-01
2.226204840841630728e-01 -1.188966367326203949e-01
2.891487058037461311e-01 1.516290287719054275e-01
2.528432071165656950e-02 -6.140360022959213959e-02
3.078783562926594164e-01 -9.883808478849329116e-02
8.053597547259040701e-02 1.925054546435518987e-01
1.447735205471596120e-01 -3.063927637749530586e-01
-1.846105413572030618e-01 -6.094080280693878193e-02
-1.905649406241926302e-01 1.846676565822352456e-01
2.998911087360487948e-01 -2.532164933602878976e-01
-3.053508999242165456e-01 -4.082603774760250326e-02
3.731318461195566594e-02 -4.463990808593454318e-02
-2.510975919995226194e-03 -1.982742689189619933e-01
-1.516513882062242857e-01 -3.149090561463182558e-01
-6.211830745511230656e-02 1.102505673188434315e-01
1.695004009872396467e-01 2.099580308355017966e-01
-1.704459217633451096e-01 1.871891402377721669e-01
2.737290898129226407e-02 1.685314726416963504e-01
-6.320647259932527309e-03 1.146076191799117044e-01
2.692665054578148864e-01 -1.133665763935507026e-01
-1.424349120261503288e-01 1.850420486052810620e-01
1.235259056092477825e-01 -1.705457668469143040e-02
-5.122857335352943089e-03 -9.083575402178860336e-02
2.316497585970765938e-01 3.032384198836776852e-04
5.717061265288815586e-02 1.561440090297414318e-01
3.629874596156392186e-01 3.875422400172642834e-02
-8.634852007526862272e-02 -9.368358606213395695e-03
3.109586830084740128e-01 -7.575562314326279856e-02
-7.007888075559393082e-02 1.564258998855893312e-01
1.030419110955710926e-01 1.155295612766764068e-01
-7.856646055110294569e-02 -2.007191049231768498e-01
2.308887827342169241e-01 -3.884229204622783455e-02
-1.338987640896742437e-01 -4.537535816798479033e-02
-1.023155273319567848e-01 5.846279917693359557e-02
-7.451331876752889660e-02 -3.376201967390963787e-01
2.781846617019718138e-01 7.315339065281689646e-02
1.439476034606769206e-01 1.623758753238481456e-01
-2.655904617768286569e-01 -1.630956181865410026e-01
-2.766799925947083794e-01 -1.809953510820041384e-02
3.223987974545576840e-01 -2.476877207545021553e-01
2.226190026389918974e-01 -3.215971253425597420e-01
-9.803028406823290075e-02 -2.093141514878651133e-01
1.459448159845783133e-01 -2.428805623424597562e-02
1.042815287876140973e-01 -3.852179816773137252e-03
2.548542923534987681e-01 1.120351590648846485e-01
-1.921109431437781900e-01 -1.912901784359031243e-01
-1.552210857796194055e-01 1.224463404749440293e-01
2.026910611647697036e-01 2.238456791511229671e-01
1.358097666030939378e-02 7.306275328314160156e-02
2.075771137826553925e-01 -4.677767662067201099e-02
2.394150749693647329e-01 -6.612784247346627231e-02
-1.586308072725271245e-01 7.910326638480402739e-03
-1.180943749604638909e-01 1.580690917308548438e-01
-1.404577017061004948e-02 1.321539398672247623e-01
-4.543620697632255734e-01 8.082651068361519642e-02
8.071254360899783598e-02 2.602204105990099103e-01
1.985473165258301309e-01 8.668141142442681302e-02
-8.908324113612858808e-02 1.071990545492613328e-01
5.259227703728108771e-02 1.836683085049731559e-03
-1.221931799018985271e-01 -4.886555660940652968e-02
-6.037949918294407969e-02 -2.302975928795016891e-01
-2.914961385362861979e-01 1.735163417282075959e-01
-1.391303917904829213e-01 1.433847918742574556e-01
2.889943449641153017e-01 1.030036401925923523e-01
1.939550164385944742e-02 7.299685337340923452e-02
2.722990625692201516e-01 -2.635570222608069613e-01
1.961962691278858195e-01 1.664472960691907866e-01
-1.323734486873401062e-01 -5.781557225439005326e-02
5.516503493852089463e-02 2.507859035769151035e-01
-8.351002382414524083e-02 -1.826385392332127988e-01
-1.488822760043569116e-01 -5.113336735936076932e-02
-1.033893871617964644e-01 2.948669340547274698e-01
-2.147107130800607055e-01 1.538566060232811061e-01
-1.656884348886427522e-02 2.529163796293057171e-03
4.564034882962566403e-02 9.989218019147889926e-02
1.888662681054545031e-02 2.828730356604087781e-01
5.531787475504700013e-02 -1.585555031407070645e-02
-7.807660791154318047e-02 -2.976382946453509648e-01
8.974033047919982575e-02 4.607361981086017036e-03
-8.743909686618735189e-02 -2.175226528009688021e-01
-1.029384612925240833e-01 -2.563903622472511468e-01
1.919887839221426917e-01 -1.424914104784788804e-01
7.224236314214324550e-02 -1.158028761291410580e-01
-1.533758201086025605e-02 1.047305207341014816e-01
2.559691426176241014e-01 1.297837810619497656e-01
-8.297099499468106598e-02 -9.475490494970412181e-02
-1.418591105298780686e-01 -7.483405458102210250e-02
1.187613853475519982e-01 5.775003475238617984e-02
3.020533209371143932e-02 2.644039305449763511e-02
-2.169152358002116032e-01 2.758676184790844199e-01
3.877543047308339985e-01 -2.404689233039070950e-01
1.724752711428663779e-02 -2.124725490201499201e-01
1.191183082348186012e-01 1.969360921579939028e-01
-1.256810174450544715e-01 -1.185826627828692470e-01
-2.088060164777007510e-01 8.403457909320534436e-02
-1.743154823284969596e-02 -2.442147307119340791e-02
-6.412777654953234763e-02 -2.222164670777765916e-01
-1.287876690368257304e-01 -3.371926999590012519e-01
-8.841940698037098478e-02 -8.028549702151417666e-02
5.568974321069940919e-02 -5.858895782412457814e-02
2.802675863800501710e-01 1.463600900265802363e-01
-1.629490479460894356e-02 1.506856015947191374e-01
1.303051636421773130e-01 -2.953031736475820734e-01
-2.232688975553140664e-01 -2.752760131827741708e-01
-4.732485565886083295e-02 -1.420797590503702079e-01
2.401725117132348652e-01 3.531869930123498341e-02
-1.846220165721603190e-01 -3.659450808074700412e-02
2.032517807677221289e-02 -2.372446805735861641e-01
2.174972661742280433e-01 -1.182612482467016585e-01
1.286941100924347270e-01 -6.437786323684850653e-02
6.353252997340552710e-02 9.035021543544699552e-03
2.712127543775987859e-01 -1.727034640115579847e-02
-3.747910604294217296e-01 2.120408929969021805e-01
-7.147026849400220372e-02 9.034625160566947533e-02
4.752546283531945692e-02 1.560416939074236176e-01
-5.410517717384533132e-02 8.790641073856166055e-03
-5.494256493058505969e-02 -1.174903770588616309e-01
-1.294527887243893116e-01 2.422823942231642699e-02
9.882749504037988131e-02 -1.135895922607074865e-01
-1.599603526197708736e-01 -2.419717001006472246e-01
-1.863234418194394948e-01 1.317929314953064923e-01
-1.096913672981368257e-03 2.955382298317452486e-02
2.269880153251998545e-01 -1.086742308706757365e-01
6.961220782035283661e-02 5.269443050658328270e-02
-9.472296952132176762e-03 -2.158794659907835867e-01
-1.369185004283884066e-01 -3.744520128839497475e-01
1.759290135405704170e-01 6.462176195810269419e-02
-3.282353780729803105e-01 9.304870695688355342e-02
6.546536512598132018e-02 2.175882165144430447e-01
-1.678051453380082214e-01 -2.103464429740712627e-01
2.393595564985027679e-01 -2.510468497284260025e-01
-1.282665719558656776e-02 8.240086856263263704e-02
-1.753058076037929680e-01 -1.608197869360711296e-01
-1.857603241131708105e-01 -2.064763809744881717e-01
1.050728804183264226e-01 -2.614492731740844164e-02
-3.165967146347400951e-02 -2.873609353713565406e-01
-1.601258515560277929e-01 -1.725622078251395908e-01
3.622417507128131153e-02 -3.846211400016544268e-02
-4.562893706639226804e-02 8.814399347061074863e-02
1.560230096301639113e-01 -2.075255836921592045e-01
-3.817258914359225597e-01 -2.912807750514460614e-01
-2.956473622853377295e-02 -6.336973487718720877e-02
-1.192791297429989239e-01 -7.057872756097177680e-02
-5.145857002384406249e-03 -1.085950510744922298e-01
4.648291870865865483e-01 -1.795914724787492367e-01
-6.570909410674934392e-01 -1.689727525638625716e-01
2.152073935547177130e-01 1.540638260898133105e-01
1.760573111071473407e-01 -1.567184045676425219e-01
1.183786860919415207e-01 -1.595894116066721158e-01
-1.491079915762038265e-02 -8.320005965040183638e-02
3.066366457528508019e-02 -1.722094924189030429e-01
-7.116683738968165862e-02 -1.137062540337282074e-01
7.915468508852928353e-02 9.546194468504180797e-03
-1.363034609090606752e-01 1.678832989241531293e-01
-2.453813025954216728e-02 -1.128457342657550183e-01
-1.280614396019302825e-01 9.198743867826274234e-02
-2.300341734126374327e-01 -4.785085988989209657e-03
9.338185832722927654e-03 -6.844783585736531617e-02
-2.102710923727982295e-01 -5.361094145106229392e-02
-4.777739787502988111e-02 -1.266833969037540475e-01
9.020849940123759625e-02 -1.884641514656612282e-01
2.568097597969113896e-02 -1.034143692858231350e-01
9.345592937486513208e-02 1.391994899901056182e-01
-1.641485270243377703e-01 9.794197885577002327e-02
1.029560860522200499e-01 3.464273544717240416e-02
8.652927070037225513e-03 -2.115330680767657512e-01
1.579341238307820361e-01 2.595186726015973888e-01
1.181315473131848703e-01 -1.058912744860309729e-01
3.979688160400386698e-02 1.237855679382289346e-02
9.588737792726675924e-02 -2.179493067098578207e-01
2.707252223047286743e-01 1.332364732447867683e-01
-1.298075481958282928e-01 5.663089856523907673e-02
2.204698779768163863e-01 -2.165045386776949174e-02
-9.122538466275958990e-02 1.656351641240939587e-01
1.130307422641136095e-01 1.033249453943047014e-01
-3.457612680620817946e-01 -2.140125920822034122e-01
-1.321335179180506067e-02 -2.418357958966874457e-02
-6.043076443852578306e-02 -2.406126925034254294e-01
5.301342187647198334e-02 1.733111225939385630e-02
-1.786045197180084476e-01 -2.735763935566675187e-01
-8.475525162452820505e-01 2.587372912535101932e-01
-3.075008866911761729e-02 -3.043465348968357187e-01
-1.063925300753810615e-01 -2.209769039673638857e-01
4.191525683015774884e-01 -2.520787855876615580e-01
1.754731321515713705e-02 2.100528485305434845e-01
-1.473729831850556782e-01 -1.128766330778618009e-02
1.686546739356522273e-01 -8.764854261300138172e-02
1.909251012516907653e-01 -2.249166503468217615e-01
-1.900788546390091704e-01 1.990023698826633713e-01
9.565405721647489423e-02 -1.171459178928430239e-01
-7.442529861258451174e-02 3.616094773443399579e-01
2.878113861943086826e-01 2.270240718847103822e-02
-1.564148666307270119e-01 -1.657435963954190516e-01
-2.938886060050688309e-01 -3.084534233377397294e-01
-1.520786572814797621e-01 1.579516973080073439e-01
1.259796862659012251e-01 -2.578018183255336715e-01
1.376421102658282117e-02 1.712486589501569789e-01
4.129986668274229084e-02 1.456775497993374746e-01
-2.854367252854336234e-01 -9.406181865499474437e-02
4.669015866647205915e-01 1.620802296855030633e-01
8.044886921278336656e-02 1.114020070796672805e-02
-6.304282917758460836e-02 -1.370114395753589849e-02
3.569656163409892780e-01 -6.573009079339305061e-02
1.224510384171335176e+00 1.936512983449801065e-02
-3.903023453907721735e-02 3.646330893345729046e-02
-4.170175128248176932e-02 5.905471432988428776e-02
1.529845175197200036e-01 -1.241502382702541415e-02
3.447034382245209860e-01 2.266316922739097517e-01
1.494504368071707390e-01 -4.473633389118983859e-03
3.279641234862059607e-01 8.654989533808482571e-02
-1.846482977533583369e-01 1.764212976007135392e-01
4.510018853165591035e-01 6.784476251907047006e-02
1.711880442910371572e-02 -1.137269947875224896e-01
1.970933944014623407e-01 -8.880787351323761458e-02
1.112638744875332208e-01 1.560629930426079004e-01
-1.733081668533150432e-01 -2.327414476038594249e-01
2.010782082788031278e-01 -9.005177723241389320e-02
1.258407561308727551e-01 -6.617703952993815586e-02
-2.166177928531371200e-01 7.686898258264521222e-02
-1.226444933219379176e-02 1.228976692553027383e-01
1.640044323391911529e-01 -8.060021941334226392e-02
4.916539905484985928e-02 -1.457342590000399174e-01
9.082824245415406506e-02 -9.607890989093845202e-02
1.152690160091987270e-01 -7.645775515976216408e-02
-2.780358415439008329e-02 -1.446164551038584822e-01
2.649044735249702076e-01 1.653138872250516367e-01
3.057118215321294463e-01 -1.907875223133303488e-01
1.725410706950258194e-02 -2.051802784297991900e-01
-9.535981451164347866e-02 4.438044305989147231e-02
-3.873650995080022974e-01 4.003395519512289308e-02
-1.584655065347089220e-01 1.645563799187827747e-01
5.413941264818487864e-02 1.296938319102034810e-02
5.760429194580629630e-02 2.299927070312935140e-01
-1.164005518812049472e-01 -1.792882517184486713e-01
-1.415693937045685857e-01 2.044314210249557617e-01
2.394282226930570801e-01 -1.364645266863795114e-01
2.009456704446171971e-01 -4.436307048299679978e-02
2.315915919336677953e-01 1.478094793707923627e-01
1.030433342808761560e-01 -2.418006233591835780e-02
-2.470008461127865262e-01 -1.805695538483992335e-01
-9.379270423999354171e-04 7.379139474813905912e-03
2.832889415496828711e-01 -2.696581984237243074e-02
-2.871497129741575893e-01 -1.814753260946923991e-02
-1.679768034160928902e-01 9.315830208678732571e-02
-1.474284345581466926e-01 -9.350482001087750961e-02
-3.039656576241043795e-01 8.707912136583655094e-02
-1.337466012705584850e-01 -2.663029136158830412e-01
1.686721962724600232e-01 2.608520775611869458e-01
-3.181352672622202449e-01 -7.590030310536889646e-02
-1.480585081979699479e-02 1.161579060920103906e-01
1.709443776190774922e-01 1.363271577200649010e-01
1.270315462976867593e-01 -2.534537361902180486e-01
-6.783693861810598247e-02 -1.582896308292439658e-01
-1.841201073349867379e-01 1.042086880939551846e-01
5.874136275071629998e-02 2.110826370801648089e-01
-7.417574981893802766e-02 -2.298215995658618727e-01
-1.765150873060066794e-01 4.439217858784852422e-02
-1.514838855823959496e-01 -1.249365299319884909e-01
-5.974252716074032743e-02 7.160721705907723000e-03
-4.678450686363471722e-01 1.039709620101807001e-02
1.710296035393366054e-01 2.987955307121388793e-01
-2.301577177354124093e-01 1.776037042994499382e-01
1.872671453076170736e-02 -1.438576851695129721e-01
-9.184126608592330099e-01 6.492414670793368592e-02
2.616129514243146215e-01 -1.893565905267188473e-02
1.339433786769847812e+00 -3.205548740726010815e-01
9.455095842312517818e-02 6.898572473759843893e-02
-5.779610864495479672e-02 -5.847619124787414163e-02
-1.802281872576670940e-01 -7.008404672269112623e-02
1.236730372172863829e-01 -2.670321401766271308e-01
-1.538137209204429590e-01 2.945193231643147835e-01
-1.287145883894768028e-01 2.060577573702736809e-01
-2.775780635531759910e-01 -1.783571478007671962e-01
1.502631039352423370e-01 -2.610969033266008488e-01
1.545989011708883698e-01 -5.943598925310839692e-02
3.404203841158435356e-02 -1.496422901160905372e-01
-1.490875324813621394e-01 1.779421332109056009e-01
1.148659323707498792e-01 6.882929593700312654e-02
-2.836458028594196490e-01 -5.351936450023127290e-02
-1.377978537286172755e-01 -1.234159120881340027e-01
-2.486861486176060454e-01 1.049965924041973003e-01
2.057907728757888965e-01 3.010016935985887487e-01
-1.943068187982066874e-01 -2.800289391990684607e-01
6.239227312162779968e-03 -2.180133999365782005e-01
-2.669752716775752321e-01 -9.625184359213444230e-02
-1.125204707364170584e-03 -1.358965478855871101e-01
-3.917371375045339277e-02 -3.440480329059982800e-01
6.359460097437572013e-02 1.221348912879299947e-01
-3.430364099106810172e-01 8.675960771430987761e-02
2.916324291232493260e-01 -1.762169385642119168e-01
1.624273631391524031e-01 -2.703383679121024175e-01
-3.962672778887783576e-01 -5.258022527789703998e-02
3.405417990951761092e-02 -1.291521736062022085e-01
2.342700459562062631e-01 1.780053311152293150e-01
6.213960508826269630e-02 -1.002501850674136080e-01
1.331588586077382674e-01 -1.500267861320311175e-02
5.092968057225421251e-03 -2.072036272968759418e-01
1.817952698638736764e-01 4.115588664076001019e-02
-1.215239464732150304e-01 -3.118879369792236234e-01
-2.711006702558936207e-02 -9.083912458793035050e-02
5.634490769066446275e-02 1.607827597471322145e-01
-2.740336852571741144e-02 -2.142366145708038960e-01
1.163012399787052564e-01 1.258808042491069423e-01
1.137054953810954089e-01 3.322061182481334668e-02
-2.950167060971537469e-01 1.797315245832540459e-02
-3.174427268510394973e-02 1.444313081144789068e-01
1.195641692861878908e-01 -1.664081334818979241e-01
5.228264203438900970e-02 -1.380968032693549175e-01
3.547084011506176915e-02 -1.059604225000410939e-02
2.789422267023637381e-01 -2.664334141766750430e-01
3.827664111443312978e-01 -1.124739963151386024e-01
1.795338260750017206e-02 8.814369991872403332e-02
2.982102737082887312e-01 -2.858349865314269711e-01
1.693819131738977246e-01 -2.126307039307072377e-01
-1.366265660541502447e-01 6.214453696414871248e-02
-3.186845728504837938e-01 6.060474501351353210e-02
2.614315187790271500e-01 4.765371536149569376e-02
1.468790986733636283e-01 1.555269794625025459e-01
-2.136158281434661355e-01 -2.771120439540405989e-01
1.433932614855113197e-01 -1.771332972852696641e-01
1.038208616812631158e-01 5.341749450563333841e-03
-1.053310101635185521e-03 6.841453613227659047e-02
6.423887630684509478e-03 1.488862519809389384e-01
-1.833661362125045269e-01 1.505624552756489876e-01
1.220772414025443897e-01 -2.579567352489888776e-01
-3.477332399825856790e-02 -5.658723447290850417e-02
-4.592093661680723450e-03 -1.027440264219025984e-01
-5.584066559012500208e-02 -1.761906455077006384e-01
-1.961415750069020469e-02 -1.963997015481371011e-01
-1.515632193454894694e-01 -4.821159316313933935e-02
-4.229422689477110864e-02 1.063575139800990166e-01
-3.556659035859274787e-01 -7.828572453987930890e-02
-1.911449545348664347e-01 -2.171521331578515068e-01
-2.158387587087637338e-02 -4.293976009918168413e-02
-2.329204231963283023e-01 1.467750812982928643e-01
-2.580444873713200540e-02 8.193899746868238410e-02
-4.135569217827166077e-02 1.252779320713401090e-01
-2.170603315230042185e-01 -9.965432443249057359e-02
2.530442359651542406e-01 -2.174279956011588855e-01
1.890698288902757374e-01 -1.544470621721507619e-01
-1.977679579022145195e-01 -7.823763202202727030e-02
8.983294548825299097e-02 -1.265904652662611651e-01
2.683762688989775602e-02 1.772400286928310642e-01
1.560337784825765739e-01 -2.103072355294914875e-01
3.371886766860097279e-02 -8.998415801492019861e-02
-5.078187952378709902e-02 -2.441818885250212345e-01
-1.663225242420143246e-01 -2.863700136289813458e-01
1.140396093252535464e-01 -1.786774713082125432e-01
-9.872941224756255629e-02 -1.354661947087960061e-01
-4.952715657916550128e-03 4.226898608859154700e-04
-9.851606508740505183e-03 1.177531926280744323e-01
2.726995280569690649e-01 -2.817465225812103638e-02
2.580700767680221830e-01 1.264666821858224377e-01
2.502570573236021501e-01 -9.449725146739008930e-02
-2.206668226000814415e-01 -2.094228304239335869e-01
1.499334924755148790e-01 -1.244502687392415319e-03
2.585373026348494752e-01 -2.383394193019587777e-03
1.207015796167138083e-01 1.512098461493321111e-01
-3.061193924064424532e-02 2.234385437013808873e-01
2.069941695547440064e-01 2.533881041255959254e-01
-4.842757608413569143e-02 2.631393393864295271e-01
-1.932776958815208557e-01 -2.278572115441579449e-02
-6.109332374582168712e-02 -1.303205876282907960e-01
-2.757990788103173996e-01 1.968370065958782167e-01
-5.381623528323956074e-02 -9.329433077991022838e-02
3.162005725265096961e-02 -1.318571791545244433e-03
-1.649071151182656958e-01 -1.548823115544269990e-01
-1.587143732938119667e-01 1.373083492753102708e-01
-9.698555075780146417e-02 1.291700112692247861e-02
2.952659311266962044e-02 -2.590184858668622137e-01
1.430003645993920269e-01 -1.825714032895340844e-01
5.331640025645743852e-02 1.343240076839152808e-01
-1.742423903874451563e-01 1.449231189142093611e-02
6.715976776511876911e-02 -1.844363156114169622e-01
3.435802381978629305e-01 -2.164163971966394651e-01
2.520394577868465685e-02 -5.603636304030085169e-02
3.616684747598193639e-02 2.654544400097259005e-01
-8.902223387663489584e-02 -3.345382612942536249e-01
-1.885092461911750394e-01 6.246567501550485957e-02
1.259229730636582112e-01 1.699246072387268769e-01
1.831571710602566960e-01 -2.832201314873212250e-01
-9.623862893279711006e-03 -2.765958796010697940e-01
2.861897630111134849e-02 8.421271888582253229e-02
-2.240847836430965856e-01 -3.114224858363141557e-01
9.168511488790756850e-03 7.624023182928166276e-02
-5.656735482619034555e-03 9.342642036648092507e-03
5.555764722982986341e-03 -1.776182751653694880e-01
3.353040990325986126e-01 1.195015648761669491e-01
1.011006328415831046e-02 -1.233268364946173146e-01
3.154223040340234929e-01 1.085891440090619026e-01
-2.139528086756721237e-01 -1.192599050298539902e-02
2.553482863224962318e-02 -1.549514123321156789e-01
-3.553811829250654863e-01 1.812902454016805387e-01
-1.215919536298154247e-01 -1.524659595313787031e-01
2.144906202490813041e-01 -2.782178031158278331e-01
-3.254178797607570200e-02 -7.428346977442246146e-02
1.143681384115421557e-01 -2.057818266256563888e-01
-1.518603816907807547e-01 1.631651004898747037e-01
-1.043217171180815667e-01 1.378095696067550835e-01
1.770123865783020944e-01 3.160909984086053282e-01
2.473225395364664625e-01 6.181450035634040996e-02
-1.929263199443621846e-01 -2.451030493265231314e-01
-1.718388431002014771e-01 -1.690624028289345049e-01
1.807278069549159705e-01 -2.707108139849355721e-01
1.533877359349740677e-01 -3.257282736233778619e-01
3.530109527070290215e-02 1.303352444506539198e-01
-1.002488099523861365e-01 -5.617479643347334656e-02
-1.203136750986658066e-01 4.107039521281627414e-02
-8.107277994971748281e-02 3.589216823812260704e-01
-6.809671890005931927e-02 1.542334661356898340e-01
2.849767673495169351e-01 -1.175295236451770475e-02
1.412651688187387955e-01 -1.522543938759433335e-01
-1.436363786985509761e-01 1.457328271044383283e-01
-2.481110397405707213e-02 -2.844443664997964860e-01
1.101654445100793377e-02 1.041818409862303729e-01
7.102147155596856554e-02 -7.639305036477399280e-02
-2.138608941939806052e-01 -2.861144983518127960e-01
-2.072712445899181355e-01 3.954874728582524757e-02
1.278175418659970031e-01 -2.828514189860657502e-01
2.485332906697199085e-01 -1.572781576264113690e-01
-3.060506866492220812e-01 -1.452033764831909823e-01
1.538362681103651042e-01 -2.115373099187594641e-01
-1.328188623857885775e-01 -5.920707414195348905e-02
1.564151809095483125e-01 9.062456158731897748e-02
-2.772641755722145551e-01 1.720384464018855364e-01
2.105047397563695744e-01 2.270186649833572656e-01
-2.111466742051919809e-01 -9.824125496926562617e-02
2.553053186241257544e-01 9.653559758446221550e-02
-2.725057503317265262e-01 -6.004737991844386058e-02
1.155569987479924121e-01 2.742949965064630513e-01
-1.810511394067436386e-01 -1.924796636990850351e-01
9.751804930413296435e-02 2.175668606403191596e-02
-9.721741728455758624e-02 1.510420198723320673e-01
-1.532203371679097259e-01 -2.432699186701040572e-01
-3.470735293877022509e-01 -1.224493996246998340e-01
9.227643623326833855e-02 -1.311196557879295600e-02
1.078613598242240124e-01 1.347659413620863333e-01
-7.996813024641352685e-02 -1.212141832352519044e-01
3.078721636454411770e-01 -4.849681297358553189e-02
-1.733014245765561734e-01 -1.261066250942682876e-01
-1.112047854423379861e-01 2.224267852782859656e-01
1.659503286133111877e-01 -2.064602699571647104e-01
-1.589605359307110222e-01 -1.557781240419072177e-01
-4.383582875554140751e-02 -1.361142982939255730e-01
5.772457525259532679e-02 1.606741407412611011e-02
2.483117261118970021e-01 -1.457545056478728313e-02
-6.054337576397472720e-01 -2.458279625870893326e-01
-3.771528474428249844e-03 -8.024487142286201857e-02
1.141276331576602104e-01 2.191242909018581708e-01
-1.638235734273134070e-01 2.079777056243601319e-01
1.953998842418226689e-01 4.982778246611447616e-03
-3.885411234058161467e-01 1.088778464889474246e-01
-9.153839589195550408e-02 1.378030676903451990e-01
-1.877961039561828463e-03 1.130953625160211473e-01
-1.153768275996785858e-01 -1.966505392605789881e-01
-8.144370015752898373e-02 2.456330674910744138e-01
1.092547366649984364e-01 -7.802457730051695628e-02
4.055338368691045053e-02 -5.715400824560585430e-02
-2.142882400184456526e-01 3.002117942312745869e-01
-6.809812066016720676e-04 -8.813512472853161916e-02
-2.565730040486257635e-01 -2.244640380155501491e-01
1.332636584109938016e-01 -1.744938413061869198e-01
-1.509579253224836368e-02 4.714397659222688969e-02
-1.547572154616025097e-01 -2.670528310985293974e-01
2.099061085934306528e-02 8.143245492569621546e-02
-7.273188743414856459e-03 5.426740095145583809e-02
9.203492450257583224e-02 1.408779046257537925e-03
-2.455193156363922879e-01 -1.389243275173996095e-01
-2.364375286602104012e-02 6.884004860553478988e-02
-2.390952854517732189e-03 1.766672753593445389e-01
-1.195466303977388636e-02 -3.096677401646880656e-01
6.998741896712069865e-02 -1.664637974215071314e-01
2.373531221838858229e-01 -1.782344529453768478e-01
-6.117232871614067258e-02 -9.164389728683054737e-02
-9.436050657649661805e-03 2.303033014081376506e-02
-8.792468308149226086e-02 -6.743693346023683921e-02
8.793330306023496024e-02 5.256197137842635869e-02
1.092262515409003903e-01 1.712042312356979457e-01
-4.791995927590350646e-01 3.257713923753886853e-02
-1.088677179606333673e-02 4.865999153226831242e-02
2.683703685118208893e-01 1.660358300008523136e-01
-1.133275872312785038e-01 1.485162353604105590e-01
1.398005382612565739e-01 -2.717423852935021977e-01
-1.291648693556209093e-02 -2.685367629484982088e-01
-3.726533165756127364e-01 -3.633561128150396558e-01
-2.773051301661783562e-03 1.848564478853281234e-01
-2.865936039133570867e-02 -1.722595513458387018e-01
-7.867777707136899834e-02 -2.831006454679058648e-01
-2.207753040239876230e-01 -2.944933201130509604e-01
1.680941975121271192e-01 5.019905117020768970e-02
2.148543455342447062e-01 1.068308842517352725e-01
-3.420265303163604886e-01 1.995589564830823476e-02
-4.939129250121751524e-02 6.035812382881689669e-02
-1.867669708163050835e-01 9.470292361083984534e-02
6.621679915976921155e-03 -1.595883864780327233e-01
-1.304128327317871372e-01 -1.009907900004688719e-01
1.159409869880657779e-01 -2.442895876346120460e-02
1.186267460816749914e-01 1.218327094435513597e-01
-2.284369006160150983e-01 -2.717626746183217368e-02
-3.273843404019503578e-01 5.701242775659695616e-02
1.251003074261613536e-02 1.061487948678181970e-01
-1.945584518497820159e-01 1.753090218054403557e-02
-6.292760418100272479e-02 -2.006486994726489892e-01
-8.523763236369147345e-02 -1.825085243148205916e-01
1.723928392361896156e-01 -1.789216441635418930e-02
-2.371412462212493522e-01 -5.027714566197419993e-02
-8.526179052030247174e-02 -9.691541539827631946e-02
-2.311158900473003208e-01 2.189668439211915341e-01
-9.028646404723776608e-02 1.689741806873146512e-01
3.173854834761177107e-02 -1.274666846800932285e-01
-3.065868711534282531e-01 -2.504417137086552003e-01
8.297427518204109065e-02 1.369321915656622306e-02
9.719230368596992742e-02 1.128043381136108886e-01
7.045532361599371463e-02 -3.916834144765415221e-02
-1.585702655872706368e-01 -1.892832899191040641e-01
2.001092141897049814e-01 1.756232557443369591e-01
-2.663551055363416742e-01 -2.777387850669518765e-01
-8.529328781891579170e-02 1.190171669460994008e-01
4.322933004942248331e-02 7.861947046560954777e-02
7.625576175389940647e-02 -2.128607350890327210e-01
-2.554805109100422023e-01 -1.004259505472700209e-01
-3.302224962556985499e-01 -2.650640515428266952e-01
-1.390459009675616177e-02 -2.238136145632396434e-01
-1.079815079110739706e-01 9.947306046764071985e-02
8.760851961972719593e-02 1.126467054372539411e-01
1.669327134128958667e-01 6.345035275914633066e-02
-2.826159985387272644e-01 3.990819524752989289e-02
2.909233421358391469e-01 -2.816380321489163063e-01
-8.951271847921866975e-02 -2.043771061058030636e-01
3.336336894617281668e-01 2.184110278388544657e-01
2.078003078686473382e-01 -2.921011275525803308e-01
3.424152248916149943e-02 -5.562003415810923279e-02
1.858718263229637291e-01 1.663190434590696987e-01
1.466567711535312624e-01 1.105033555717574861e-01
-2.304105751457940221e-01 2.939000256589269222e-02
-1.232644265081889595e-01 5.545982687120211418e-02
-2.349672036569206129e-03 1.720427028542000081e-01
4.579196024782725832e-02 2.603346153160550625e-01
-3.699709933398750983e-02 -3.175814302569259784e-01
9.565514194980993812e-02 1.627637238423855146e-02
-1.954720535585619257e-01 4.269559321524880879e-02
-1.007238826503831647e-01 -2.677778405052940736e-01
5.276832642993687511e-02 1.485395935263255085e-01
1.437211620296680592e-01 -2.495629576651348935e-01
-8.832379978782264884e-02 -3.803521596846073383e-01
-2.205522466507079116e-01 2.662730813456054557e-01
-2.246540153615910751e-01 3.370967667009481250e-01
-1.534715881567028373e-01 -1.778445682856273635e-02
-1.336461090521436079e-02 -2.293752108521749378e-01
1.495698391733009947e-01 1.561713531578532432e-01
-3.088434471916465252e-01 -2.984494514643220020e-01
-8.939983724144565103e-02 -7.322589992644841506e-02
-2.430246039075036890e-01 -1.412159047964407430e-02
4.379959861549415079e-01 -1.910370240746360193e-01
-5.641972739231579034e-03 -1.353432647219357521e-01
-1.945727144658181418e-01 -1.239344683608908787e-01
1.271430788448591476e-01 -1.897411259764940350e-01
3.354908005468327375e-02 1.229287234128584871e-01
2.677556147467942127e-01 9.212447640468392207e-02
-9.427121024624735002e-02 -2.069820627602746987e-01
9.384789017934684618e-02 9.234802911107521661e-02
-2.994520293883345952e-01 1.672140554492193010e-01
-4.398379712864039504e-02 -2.160388638947530471e-01
-3.023387925452125993e-02 2.471508345686392882e-01
-3.807820581983192149e-02 2.005307258578118978e-01
-9.375961791688638969e-02 -1.488955902676729337e-01
-2.361472645796271197e-01 -1.637778975528630110e-01
-7.889240124335454574e-02 9.287631833104925683e-02
-2.251149108769843685e-02 -1.217181663413492189e-02
-8.493764172082991781e-02 8.944772619598727326e-02
-8.390508368910006010e-02 1.659727488939561624e-01
-8.111638398476296585e-02 -1.922837791902913540e-01
2.144880025506712140e-01 -2.776137174106935862e-02
-1.540485994258548874e-01 -1.140634330188187821e-02
2.740688875059126839e-01 -1.727594748001799185e-01
-1.643063161633097902e-01 1.478120742178382074e-01
-4.367840136941267271e-01 1.015049212651574218e-01
2.268051343719609536e-01 -3.442118187901166970e-01
-1.295470612934071508e-01 -5.478691604468646087e-03
-3.130146296171537612e-01 3.295632672103140925e-01
4.370223794504714265e-02 -1.989024449024862917e-01
-1.460153169548658036e-01 1.921469142258420693e-01
1.517269914430080802e-01 2.197392396652968760e-01
2.807508386540574219e-01 -1.402889648621204743e-01
6.820761274203578084e-02 4.456371079407300123e-02
-1.987025956747499184e-02 -8.977716939853205846e-02
-1.264493115763261621e-01 -4.837010326418345052e-02
2.966700551259909835e-01 -2.819740102117972991e-01
1.434253450275436437e-01 -2.460835530884401268e-01
-3.460911761895892336e-01 7.511319659601695120e-02
3.004465111666017041e-01 -2.305889136714668053e-01
4.198680045138022954e-02 -2.963414704739327638e-02
2.004019948399977935e-01 -1.746443112515103369e-01
8.838543690241956741e-02 -9.463236223261278779e-02
-4.767405590913924990e-02 9.539009729430588183e-03
1.210899094886314364e-01 -4.976844163242481744e-02
1.888154875478830208e-01 6.205771521924093037e-02
-9.274243561257183854e-02 -3.549812877916420223e-02
1.514576799939732765e-01 -1.084279522999002238e-01
-1.747968851431793910e-02 -2.972405845353417453e-01
-9.352371816197856125e-02 1.233626132670961606e-01
3.741317586430859682e-03 -3.226798578342301993e-02
-1.106859567816959738e-01 -8.354518683338948981e-02
9.733605380005549979e-02 -5.038936066369104072e-02
-2.492043732565642766e-01 -1.812463940571901466e-01
8.542222051965919771e-02 -5.189864421823222468e-02
-1.319170681527283839e-01 2.900345485429012826e-01
-6.261700523539982799e-02 -8.093127334749469770e-02
-7.400438401536078847e-02 -2.367187988277720812e-01
3.062238568660755056e-02 -5.432613123728193688e-03
-1.164339738041168526e-01 -1.338006570311869592e-01
2.473811623398428083e-01 -1.505983526100833358e-01
2.032295471519309504e-01 2.015645542795175271e-01
-2.511220748474629269e-02 -1.210088567764817657e-01
-2.485537753397832061e-01 1.132344613646459226e-02
1.613477774587186442e-01 2.798116670116680346e-02
-8.617094887294796113e-02 -6.870518765403242634e-02
7.489396636864951995e-02 -4.428113217095233645e-02
1.641115528798426093e-01 9.247478720480828418e-02
-2.152445690766482400e-01 -9.700672283907875448e-02
1.036285753772755169e-01 1.790255835665354178e-01
-1.060788547092191142e-01 1.738994681117504992e-01
-2.225812558356162485e-01 -8.900747920953111514e-02
-2.976473793737508533e-01 -1.343747706993568825e-01
-2.116848988457109906e-02 1.896666495984284107e-01
1.409816638071874906e-01 -2.548843127834659050e-01
1.596513783124258179e-01 9.474588184108061195e-02
1.099301610485605846e-01 -2.002366310480399592e-01
-1.120116333632205224e-01 -1.465170251414024960e-01
3.095290629433375407e-02 -1.619149685072542588e-01
1.849970284596509640e-01 3.673810753460851064e-01
-1.734479789135332517e-01 -1.953208481356812076e-01
1.926202436135787954e-01 -1.579168776529953355e-01
-1.148488047454407690e+00 2.035906311857425544e-01
5.345371424257851917e-02 1.495686948774025728e-02
-2.315631052471803231e-01 -3.055165421400314330e-01
-3.483805185047931796e-01 -8.140935634914393815e-02
3.965885451437624609e-01 -1.135439935787442151e-01
4.767551468212544719e-01 -1.625052735356882216e-01
-3.323776957299620083e-01 -1.897280551104826574e-01
8.227412853469870391e-02 4.813665969337647260e-02
-5.173800019397791633e-02 -2.158628578137763432e-01
2.696084252410546611e-01 -2.198476206697953239e-01
-2.288357055601230039e-01 2.698955708514949592e-01
-3.336032622181384633e-01 2.894029205190571385e-01
1.063137778937910394e-01 -2.030208534928890918e-01
-3.369341551658388417e-02 1.238934991249912299e-01
-2.719664385407070117e-01 4.238890620672713938e-02
1.275953824176039308e-01 8.702686724158260889e-02
-2.789108580962632589e-01 -2.421971446097619662e-01
8.826754334035216698e-02 -2.822176098560918445e-01
-6.204933967013415846e-02 -4.235828050347257429e-02
2.288575566033860809e-01 1.478247679076397925e-01
-2.234419270503558985e-01 1.448000853587377845e-01
-1.984170829038330863e-01 1.137267742706176421e-01
-4.361155764726522971e-02 4.792478689613517695e-02
-1.986512792349362164e-02 2.299867341530700271e-01
2.718044236818442649e-02 1.738067684119516121e-01
-2.963973644829344667e-01 -1.628843510834903918e-01
1.375975907287836641e-01 4.034791767052662431e-02
1.532653090607610791e-01 -1.254690003675058563e-01
-2.159195019092974011e-01 8.805881918343622106e-02
-7.787546510682896717e-02 9.859247779098231912e-02
-8.347648556949900309e-03 -1.521558705783266074e-01
1.529080130695214534e-01 -3.226307086126338208e-01
4.953389631647540925e-02 1.875305489599522202e-01
-4.143299042641947899e-02 1.170818150703995669e-01
-1.521070030280642082e-01 -2.496720830996073670e-01
-1.053105487223630343e-01 2.482344732782315253e-02
2.069240142902061333e-02 -1.255473135113191196e-01
1.415320790531308937e-01 -1.820532478806760612e-01
-8.513005616573644796e-02 -1.602709322313023710e-01
1.116499838174280640e-01 -1.595618286987154910e-01
-7.476829092468227633e-02 -2.414039874913762734e-02
7.258472222746424618e-02 -1.102379577086619045e-01
-2.132869955731211964e-02 -1.673507530074543614e-01
-2.969937497500071966e-01 7.194581702436361748e-02
-1.330012820180700162e-01 -1.755975132042310871e-01
-1.837472282251029904e-02 -1.655138310773716648e-01
-2.811816417194183959e-01 -8.393016509171968842e-02
2.078195515995687193e-01 1.296874512254894973e-01
-3.792509573542225676e-02 -2.383175208725568928e-01
-7.394934896370095913e-03 -1.479869245001485811e-01
-1.361932354544788115e-01 -2.437053509253440109e-01
-4.105839446476493987e-02 -2.255066813617067900e-01
4.666735925065101757e-03 -2.096539313499079515e-01
3.870774452593841453e-01 -5.669673781858523831e-02
4.434540382126660879e-02 -2.193828197520263090e-01
1.589259032178096387e-01 -1.171095976162960829e-02
-6.684438015403265654e-02 -2.720989367695335337e-02
-2.560889943183181083e-01 1.030287127343472442e-02
2.689869713609773227e-01 -9.857585346616269673e-02
2.658494308446370802e-01 -1.060606562043110712e-01
-1.039354515311522592e-01 -3.224062865516844067e-01
-1.036168029288161985e-01 -2.628307116362895712e-01
-2.372485557718998286e-02 -6.583367946091049638e-02
3.443635984172022796e-02 -1.911202022438977799e-01
6.240952097365339013e-02 -1.717303490670511468e-01
2.842359881761613027e-01 -2.391033642365009981e-01
1.119652739696088001e-01 -1.688769915031275992e-01
1.759903944088304362e-01 -3.375088491504690813e-01
3.724401545960925874e-02 1.902799451055624258e-01
4.588768236000138195e-02 -1.947187979519852258e-02
1.332959605755639487e-01 -1.951557691878305356e-01
-2.534348602910515003e-01 -1.983840010846640578e-01
2.651209541055303265e-01 4.122261314967825413e-02
-3.002807434737355882e-02 5.224969535203152771e-02
-1.738140779198063257e-01 -1.956328136321672517e-01
2.366726126799444108e-01 2.112913118087504094e-01
-3.048905273864014331e-01 1.502102287375539358e-01
-2.680554965652658939e-01 1.011708298274708456e-01
1.433294850838788825e-01 2.857153626826015036e-01
1.144071773018987270e-01 -2.170937324639567179e-01
1.392433621880916905e-01 -1.919622196129011360e-01
-3.186915044979263811e-01 -6.911388538047180674e-02
2.098172254746002441e-01 2.696293558732407725e-01
5.682965830063983759e-02 -3.340607326738324889e-02
-1.068973749312917970e-01 5.881832939282823081e-02
2.051888879991776438e-01 4.185723834563136875e-02
-3.841797957976297861e-02 -6.376084076428367720e-02
1.182300682575549433e-01 1.472451253761296319e-01
1.635303177824498910e-01 5.595370636780263446e-02
8.791295374689901687e-02 -1.313964930033259815e-01
-1.175603526462667405e-03 2.711757886882336654e-01
-3.523003587966939687e-01 -4.785593677194324713e-02
-1.395338213953818962e-01 2.227342757464136069e-01
1.772845622398424303e-01 -1.461813694260054586e-01
-2.451256049538451734e-02 -1.886509840732674415e-01
-2.324976150281427567e-01 7.101106084689562392e-02
2.333584523808213407e-01 -6.370460662310503674e-02
6.466079940382264690e-03 1.140509984656538911e-01
1.659654695853329531e-01 1.496718870948310909e-01
1.085691009421164421e-01 2.088620146925679322e-01
-1.797247441819118940e-01 2.705069951087554075e-02
1.392670102382079778e-01 -2.859731472574758571e-01
-3.722738961758154663e-01 -3.669979926269446857e-02
6.606287182086068022e-02 -1.005251362224473255e-01
-1.424674330090877072e-01 1.302802524705338159e-02
-2.055789977805636271e-01 -7.873892154338622829e-02
-6.963369147986298024e-02 -3.629797711580179942e-01
7.565641808496849363e-02 6.601454127756427315e-02
-1.344103885904761875e-01 -2.935742918073588337e-01
-1.341854039849577906e-01 -2.239410778450787454e-01
6.150176219314860797e-03 -2.681336540520525349e-02
2.428937862060475197e-02 1.792173730536485432e-01
3.694196921491863517e-01 -2.475913699850392294e-02
2.127757867397336022e-01 6.344123652268909841e-02
2.770693314856863543e-01 -2.066624648543562426e-01
1.054948626637191994e-01 3.202813151989458013e-02
4.665584052729385145e-02 1.000806260681789406e-01
1.469138580793675174e-02 -1.256919822744259271e-02
-1.404467807120471541e-02 -1.124972366031691956e-01
-3.894610252512580723e-02 -3.819979190174733422e-03
1.746145855354963583e-01 6.634594315288513955e-02
-8.208260452374079863e-01 -3.586540771948258932e-01
-3.041407257493646821e-01 -4.156097502007807115e-02
-6.366292388573595307e-02 -3.387471515798597121e-02
1.483361012102359655e-01 5.495860822547130216e-03
1.992887764967851347e-02 -2.338429188947093451e-01
2.515360006557349482e-01 -1.217210390096532119e-01
-1.700920015377315186e-01 -2.813362143689625543e-03
-3.612770828888506314e-02 -1.189556227342888906e-01
-1.470180430151991346e-01 -2.355918700964165224e-01
-1.049184835226793649e-01 2.101914001176283242e-01
3.236976470820824292e-01 -6.622943994215178820e-02
3.933386521433568372e-01 7.543005787124264228e-02
1.549170438807357109e-01 -2.909389918697978250e-01
5.167104058416729373e-01 1.643961984780542909e-02
-1.817373226554128696e-01 2.106678593922805265e-01
-3.184051536804231169e-02 9.339998586686912296e-02
-1.298109395867479421e-01 -6.995133408436991773e-02
-5.483650384223283381e-02 -5.013447822882704380e-02
1.643750135805402135e-01 -1.876285947982798130e-01
7.192220271462497483e-02 -1.954829290664855945e-01
3.069008296063814867e-01 -2.042218366005986718e-01
1.788065085316725700e-01 6.469232511723040785e-03
-6.557657058256192995e-02 1.996483083110423273e-01
1.069622901482814165e-01 -3.771391610954331619e-01
2.404064652888634468e-01 -1.689423010622147225e-01
-6.909533316227578666e-03 6.895975056113790025e-02
4.771236539746784473e-03 1.404476097349719732e-01
1.423870462337972417e-02 7.183537804472335531e-02
-1.402288238786733032e-01 1.548940258613957788e-01
2.893510570469809973e-01 5.986812160777801872e-02
-7.243693356290048513e-02 -1.231399937393094779e-01
2.575864908087678318e-01 1.260837578884868859e-01
-1.300592965753887553e-01 -9.976185146819253197e-03
2.623484861605780427e-01 -3.032141817636651582e-01
-2.398349738895325101e-01 7.670661243321372225e-03
-2.980796302889448524e-01 4.284400028471654215e-02
-2.187914503178904797e-03 1.690858667926273540e-01
1.205515878493463311e-01 2.625204845679199317e-01
-2.028061439789679010e-01 4.467512518558391932e-02
-1.314205916791821513e-02 3.366857049719455125e-02
4.519199074888335249e-02 1.756217214558715434e-02
-4.199889930519998954e-02 -1.767474844603466599e-01
-8.325708104558468547e-02 2.738927097925627357e-02
2.783468257577165761e-01 -2.980223387686581349e-01
5.632945570317707956e-02 -1.894633028543123709e-01
3.074505270760724551e-01 -4.535619493239330391e-02
1.136520303417193067e-01 1.613145891244072427e-01
-9.747141842815354798e-03 -1.153740256732857933e-01
-3.740174999547310475e-02 7.713973962927996031e-02
9.422918493326332134e-02 -8.043683568420462865e-03
1.752307836923118478e-01 -1.039385527691039091e-01
2.199661571695492035e-01 -1.832465307775311622e-02
-1.910086230786642858e-01 -1.711420756705519519e-01
-8.008787205011898280e-02 1.104067467066686681e-01
4.544752315595481512e-02 -2.287085490024304557e-01
-1.595698264687734347e-01 3.240748573276884537e-02
-7.062417616729441128e-02 -3.099059913813655975e-01
2.331569773728578987e-01 1.052699891176142738e-01
1.001831700417494045e-02 -3.578280356201164053e-02
8.506040028310496437e-02 -2.118856087429336621e-01
1.293510744052172867e-01 -2.836468225408865784e-01
-1.648301216970579977e-02 7.830058106927510753e-02
-2.203070957454660583e-01 1.132947181708867379e-01
2.180462858569095219e-01 -9.395594231318596390e-02
-1.678185521436124927e-01 1.811173573706085227e-01
1.556302734745637073e-01 -6.306937834788949038e-02
-6.154551406900158478e-02 -2.382855982363940306e-01
-4.220125805902042448e-01 -2.858757364080987129e-01
2.659068852752116685e-01 1.595303935016353647e-01
2.317921973256004409e-01 -7.866762225182764856e-02
7.024337679808033419e-02 1.472504493572060758e-01
1.708299064046325533e-01 -2.841469293005085550e-01
-6.456233144136444557e-02 1.596591274280723116e-02
1.154424539172121678e-01 -1.072913123738096636e-01
2.530810642868943083e-01 -3.033354809685466780e-01
-3.229663723387806162e-01 9.529279818968798554e-02
1.822713846546903660e-01 -1.350071566483718177e-01
1.434246256957047994e-01 5.318941775677391015e-02
-2.340560539196824830e-01 -3.427212806384703075e-02
3.291829629823128101e-01 2.326242418983424376e-01
-3.443006826933101006e-02 1.033569577345706952e-01
-2.538901198723952368e-01 1.500449332814456360e-01
8.355071417770768005e-02 6.242109250903813550e-02
-2.424602325721987930e-02 1.148453033550212721e-01
-2.849233537232555378e-03 -5.728507935997560058e-02
-1.243719928500986033e-01 -1.757930167693870782e-01
-1.089728664153762488e-01 3.449005746118934818e-02
2.418877107496215234e-02 -1.641847540150156992e-01
1.684903095943642709e-02 -2.388714292972220210e-01
2.173974853443807476e-01 1.941284506257551223e-01
5.392774266224068663e-02 -2.402546211548649280e-02
-1.208193359435300318e-01 -1.073081420874566344e-01
-1.283967771895899723e-01 -2.259520245082585199e-01
-2.019346384988562892e-01 1.273152627148083083e-01
-4.830088977557613072e-02 6.378991188496626816e-03
6.623527320146989361e-02 -2.047305569858086649e-01
1.548374295445366089e-01 1.884969585315061091e-01
-2.362615174893800962e-01 6.893243927292104500e-02
1.366720920584589549e-01 6.327859740186422832e-02
1.202949556632872952e-01 -2.789045340869217848e-01
-1.932033828620261517e-01 1.926250843590095532e-02
-9.318451550086254490e-03 -1.574398619979265265e-02
-3.989751244186920398e-02 -1.247114583895204132e-01
-1.170560006207311265e-01 -6.963232104413659418e-02
1.027983500383114757e-01 6.261280698956393775e-02
-7.745340047111851089e-02 5.327813550721260255e-02
-2.418892602106374468e-01 2.967816235917667203e-02
1.011064310968480540e-02 4.139032565400152519e-02
1.136451963955852074e-01 -1.401328772541876877e-01
3.644398291752134478e-01 1.204110609058382936e-01
2.723792230537851466e-01 -2.371659205944123827e-01
-1.073219024421145570e-02 -2.042106727223657048e-01
-3.887188672731474726e-01 -4.793256269106387774e-02
-1.778020377796438178e-01 3.697892525796029478e-02
-1.300596467917768118e-01 -2.229144037177155646e-01
1.053366884735130737e-01 -8.780539626926486818e-02
-2.745570533805419822e-01 -1.752077453837116439e-01
1.205627450652840826e-01 1.155766068696755522e-01
1.388318929443181915e-01 -2.665191070595883116e-01
1.220754462997988843e-01 -2.712050165847588665e-02
-4.965605560591462853e-01 -1.454957690132162307e-01
3.570440287969631199e-02 -2.057035839291881107e-01
1.376396440937474597e-01 2.976148949843683902e-02
-1.394133969093229453e-01 -1.343659430886216533e-01
1.177123577550977501e-03 1.431563248996496340e-01
1.497394494778505822e-02 1.576452457353489656e-01
-6.919926246420986249e-02 5.966952901798003306e-02
-5.640579729184747038e-02 -2.634015498086138551e-01
2.686139267623937066e-01 -1.834623216589327185e-02
-2.446309753410038923e-01 1.281116964576512092e-02
1.485241474959863306e-01 -3.211846073195652462e-02
1.800723623651680760e-01 -2.232670120134101766e-01
1.553567201934560049e-01 2.692355571149641080e-01
