-6.084152710537606840e-03 -5.517154923245158882e-01 9.777927605005468092e-03 4.156438637939012803e-01 4.297838419932597381e-02 -7.090865377094696109e-02 -3.385376614073802304e-01 -2.589040310287527014e-01 -2.889439584839374048e-02 -2.571776937774994387e-02 -4.257596916028243972e-01 -1.782744831415242204e-01 -3.063413228946337274e-01 2.213183102019002091e-01 -3.499283367396868738e-01 -1.042599551646805206e-01 -1.182018192415551505e-02 5.539716440964712746e-02 1.787461598616934405e-03 -8.635630711530144499e-01 -4.239154865303565445e-01 -4.943031354442900538e-01 -2.912399442993961543e-02 -3.558424952918539663e-01 -7.135484341234987760e-02 -1.502151544401974792e-01 -3.275107638140211108e-01 -2.708932777465223318e-01 -2.845734939613580594e-01 -3.775516175491883675e-01 -2.473962713218491594e-01 -3.229938075606457737e-01 -1.386129006561302029e-02 2.305793985102400356e-01 -2.960533353639967502e-01 -5.213198052680111799e-02 2.327241417218679082e-02 1.019407193123352262e-01 -1.310335514526612122e-01 -3.360660722998528582e-01 -1.971936043006204398e-01 -3.194992606787622202e-01 3.257024752702026849e-01 -2.538904293916640076e-01 -4.375966799594874779e-01 -8.663443210702626018e-02 -2.864157527210374754e-01 -9.429932159793082136e-02 -2.648362641368258441e-02 -1.426618556969109775e-01 -4.511546221619660083e-03 -8.213446453989792229e-02 -1.643118806155859923e-01 -3.613368335687486832e-01 -1.104904521586821120e-01 -3.690373155434739649e-01 4.470029971156427862e-02 -9.095779164876255374e-01 -2.833840823373476314e-02 -3.894767579595276863e-01 -1.044929453993641427e-01 -3.959145628409094231e-01 8.109641192671538344e-04 4.606164077453528405e-02 -6.713757845117469814e-02 -3.994602908201453917e-01 -2.609208210109543180e-01 1.171138191555076841e-01 -5.141310118538624380e-02 -3.398661960243195557e-01 -5.752100126084792875e-02 -6.166684116886275019e-02 -6.903095142907385295e-02 -2.457670529298757733e-01 -1.726321747121101480e-01 -4.874389128392644932e-02 -1.104605862123274607e-01 3.471322155303169926e-02 -3.123777317003167964e-01 -2.404369128097124872e-02 -2.663013935594702453e-01 2.796962812609076615e-02 -5.998683030952659673e-02 -3.667106785819403969e-01 2.330283923462016238e-02 -3.690197336440463882e-01 -2.080503593661305051e-01 -3.635195464005417376e-01 -1.465045337008780368e+00 -2.644229257181405224e-01 -1.519917747808109953e-01 -2.825681538495269374e-01 -2.799835521797518489e-01 -6.241383027332689792e-01 -6.411877087019256238e-02 -1.815100268900735059e-01 -1.957185392959695236e-01 -1.561240393152625583e-01 -4.313121088923521085e-01 -5.057087385652420108e-02
-5.108762663031646972e-02 1.073482130361254339e-01 -2.299135470071955734e-01 1.750473292905198264e+00 -1.288377951111901176e-01 -9.504952651639927974e-02 -4.209911218036047065e-02 1.451854444454786786e-01 -2.243421614417288878e-02 3.767551646078953764e-02 -1.394808227109579912e-01 -3.855298740037790273e-01 -2.905226303352998612e-02 -6.010296336722662502e-01 -6.332039551899412699e-02 -1.990389861048028619e-01 -3.396516982422775888e-01 -4.198982753648889399e-01 -3.291783729356062005e-01 1.441402106675396255e-01 -3.135335526833656350e-01 -3.937626033619373578e-02 -2.828617619890975154e-01 -1.316554809943960291e-01 3.101481557534670891e-02 -1.603753825933444122e-01 -3.113168069210245914e-01 -1.186406578267963807e+00 9.406148263161449863e-02 2.359719919329513610e-02 2.019002203651347124e-02 -1.281767086350919516e-01 -2.429028871451395510e-01 -3.570871273333868778e-01 -2.547056694378709296e-01 -2.005490069319920132e-01 -2.426416375321494012e-01 -9.956065264358469058e-01 5.449141180687128855e-02 1.408858488545510455e-02 -1.958404416453103647e-01 5.655465561230856725e-02 -3.317583635690500299e-01 -7.449768023035160946e-02 -3.238459821284982859e-02 -1.787372030771060827e-01 -3.905469085508530558e-01 -3.450717141194690751e-01 2.311277034168903247e-02 -1.084218676341740795e-01 -2.700830070113197645e-01 -1.594285136603476594e-01 -3.937018270857561286e-01 -2.279828078772085653e-01 -3.690854406644942798e-01 -4.452026141218269895e-01 -4.226882949456778893e-01 6.414008910330938340e-01 -3.542673942055949987e-01 -1.310740612064887900e-01 -1.206290712940404769e-01 -2.070400653676538194e-01 -1.559155656784859956e-01 1.070237384665657376e-01 1.799571895084703388e-02 -3.853408609938486357e-02 -3.692806787693831971e-01 -2.714540470230114022e-01 -3.688934916362983651e-01 2.825902208210984493e-02 -1.833411559673302493e-01 -3.379174056679828952e-01 1.103773777961116337e-01 -3.933234520959980052e-02 -1.216482192711810933e-01 6.023513410324339915e-03 -4.938121312245619121e-02 1.088952280333735645e-01 -4.570292012245028707e-02 -3.210676633650639822e-01 -5.019664450997514127e-01 -2.175494974304787443e-01 -3.018765474435826102e-01 -3.589678667885039254e-02 -8.154405392883380677e-02 -2.346189764719057713e-01 -1.931528377429844734e-01 -2.494228467056398002e-01 -9.999011074236649477e-02 -2.267578462597694411e-01 -3.679963121096717082e-01 -2.716952274221292041e-01 -2.566109665650610772e-02 -9.870968754027392711e-02 -3.389749028394797858e-01 -3.526011128107451875e-01 -2.642643084007744725e-01 -1.955878008443881766e-01 -1.307837203771967105e-01 6.192011447613941094e-02
-3.436654700415576746e-01 -8.083460947517397965e-01 -1.029421839155609253e-01 2.426162830397478931e+00 -2.748933196128289236e-02 -4.585067512662729383e-01 -1.592548496713026007e-01 -3.633055660430524747e-01 2.361530573913349362e-01 -3.516512286254899200e-01 -3.726333531086226114e-01 -7.540160149099887910e-02 -5.491470414039493209e-01 -7.575549493616946517e-01 2.029270463718881312e-01 -9.914704877919217063e-02 -4.094638447950584292e-01 -1.038280083980004098e-01 -1.344101833701143514e-02 -4.036398867535452295e-01 7.418240694373430533e-02 -3.416934631280870160e-01 -1.297290947250869519e-01 -3.773151097522439712e-01 -1.246484186522713034e-01 -3.787357056066257832e-01 3.145863481027880160e-02 -3.479404825783340427e-01 -4.487174305495233995e-01 -3.039629901407555068e-01 -2.256476470164827941e-01 -1.327644056835055320e-01 -1.665711837066452816e-01 -1.976837269272331832e-01 -1.684558512418161125e-01 -8.948215811632410921e-02 -2.116296990401519695e-01 -1.278401456314939511e+00 -2.286063257775001190e-01 -2.869639868988339004e-01 -1.721000259720127379e-01 -2.419768847949655688e-01 -1.381046334445265034e-01 -4.337401450716628637e-01 -2.722891278837875073e-01 -2.488027826042223944e-01 -1.847371924556716338e-01 -1.063059984437956518e-01 -2.200628193824976375e-01 -1.298652627232955471e-02 -1.160934120456607738e-01 -4.623729064503951380e-01 -3.488293297825703632e-02 -2.487452407425813361e-01 -7.930009413682463648e-02 -3.965798897639153386e-01 -3.952623236465391265e-01 4.172204541637922204e-01 -2.219495774777718589e-01 -2.281364610559535600e-01 -5.174536341108512683e-02 -9.641654120910533865e-02 -6.625219710264765305e-02 -2.678267472173458952e-01 -3.397132466090703184e-01 -3.698384326814972423e-01 -4.832243662525310263e-02 9.034294813866004803e-02 -9.826642491879931107e-01 1.371593976613685005e-02 -1.519018423910963866e-01 -5.886977091134137918e-01 -4.917740627766643141e-02 -6.928777584079831575e-02 -2.829962494361162872e-01 2.139552598042150922e-01 -3.092753495925851248e-01 -3.069604386360638704e-01 -6.640298352170363738e-02 -2.818189269738975433e-01 1.706876951911063534e-01 -2.450457707387111717e-01 -2.899066800114309950e-01 -2.120467342567088354e-01 -3.139510779935247298e-01 -2.626659081556586561e-01 -3.168715817155073333e-01 -2.317846329893603896e-01 -1.787352168347617898e-01 -1.715284785700157133e-01 -2.765049423411685692e-01 1.883948105647938187e-01 -3.044074897298024163e-01 -5.219690583012402962e-01 -8.419294735975649258e-02 -2.756137056487691916e-01 -3.620484312780946068e-01 -1.397602472064296830e-01 -1.065898339597401157e-01 -4.251361195826514061e-01
-1.076399970259889205e-01 -1.339595443444040190e-01 -1.405163987178283391e-01 -1.414649437703249801e-01 -3.404780963669331584e-01 -5.078000879656236616e-02 -9.948964005541999223e-02 -3.445251510735690414e-02 -9.355639971571232116e-02 -1.532547249425908475e-01 2.611293593250588185e-02 -3.653924229824132008e-02 -2.638653978708738745e-01 -1.219386210218841998e-01 -1.288634389948124515e-01 -4.002558373681366910e-01 -2.823900109160496497e-01 -1.043349878107169976e-01 -3.379278078122751050e-01 -2.668558331011842144e-01 -1.561565988929216053e-01 -2.130735861792481534e-01 -2.542656980754634533e-01 -1.216445777388099891e-01 -1.654797290149866151e-01 -5.082675788659902182e-03 4.586888075891402961e-02 -7.840069318191223990e-01 -1.347284362577320371e-01 -2.217207508409158034e-01 -3.541337653881596048e-02 -1.716623715503453329e-01 -2.771474516203643098e-03 -1.431022858609884429e-01 -7.329905278063050811e-02 -2.428975326632249743e-01 3.414891399739317102e-02 1.221216758944181136e+00 -1.528847652198729590e-01 -4.097870392516172466e-01 -6.152186205208713676e-02 2.262053222150961496e-02 -2.725786507792709590e-01 -2.907396479380516818e-01 -3.395269054338146408e-01 -3.548671668574112092e-01 -5.853460828153534967e-01 -3.283278689802446998e-02 3.377128810644265677e-02 1.555063235766759311e-01 -1.416118502750702279e-01 -6.870572020891652087e-02 6.531735584073010414e-02 -1.666920952326371996e-01 8.706226188955746084e-03 -1.822382764454995030e-01 -1.404923084315069792e-01 -7.754590041502040787e-01 -2.753212836889430970e-01 -3.523018263729669197e-01 -7.671555772302504628e-02 1.518333354864752627e-01 -5.400091118976354035e-03 -4.024721898393481267e-01 -3.467241966727906965e-01 -1.244192269950441659e-01 -1.142859876400151575e-01 -2.231911390346414184e-02 -4.351498705414806878e-01 -3.575938788255588752e-01 -3.875292926631354606e-02 6.264910008809938813e-02 -1.448906688903907336e-01 -3.523803251696526750e-01 2.868185419682903192e-02 -3.158534306495976163e-02 -2.358537397555671156e-01 -3.477912003175144262e-01 -2.435020527334293972e-01 -3.457957979288239225e-01 1.260877659743549206e-01 7.094906340029090430e-02 -2.991591695639195247e-01 -4.113584973202363826e-01 -1.295176360352855160e-01 -2.800715275268766957e-01 -1.335622681447784510e-01 -2.667921795684937702e-01 -2.368009641681287469e+00 -8.850529235319243293e-02 4.721561798139474464e-02 -2.313269526526060549e-01 -6.040530486226221296e-02 -2.375470138311392421e-01 -3.503023895967227741e-02 -1.888519437555380709e-01 -2.680033092514678139e-01 -2.439996537506826102e-01 -2.018869302712877345e-01 -1.958866773517106974e-01
2.088676232083336859e-01 -5.382944805745627503e-01 -2.846183852871901898e-01 -7.454652240409457287e-01 -1.575563847884818847e-01 -2.190950752138589100e-02 -7.643803619088662682e-02 -2.105353383773826692e-01 -3.503928433537021325e-01 1.373821824190249452e-01 -1.365773018293312546e-01 3.638042674686523307e-04 4.066985410269721019e-02 -2.711488650085308594e-01 -3.757242547101891095e-02 -3.442613656059514970e-01 -2.684004728811388296e-01 -3.822052713982067029e-01 -4.073110524258639203e-02 5.972496639761459836e-01 -1.112649771593724746e-01 -3.718740607363796857e-01 -2.356840934001433185e-01 -2.694580033232306104e-01 -2.571259077277530669e-01 -1.063494983065348121e-01 -1.585749847736934448e-01 1.298422175709762039e+00 -3.544434369433565601e-01 -9.029368926835504294e-02 -1.304909987150427442e-01 -3.175792730218550686e-01 -2.037122769282689316e-01 -4.616077575890774054e-01 3.530297919818515401e-02 -1.376801344281488315e-01 -2.880192419044041441e-01 -2.642780112097736778e-01 -9.010263658448673663e-02 -1.892367902686528103e-01 -2.608873707288029281e-02 -8.410720266752033658e-02 -5.323088701842471071e-01 -3.997926122139319055e-02 1.573562246138921720e-04 -1.644534097862944411e-01 1.262029421320314815e-01 -2.866762972419572564e-01 -3.365091626204782527e-01 1.386332659607996676e-01 -7.016288635556454378e-02 -3.361507840476837261e-01 -2.440125617410134617e-01 1.330175534486785190e-03 3.247741382745765373e-03 -1.269588188318089839e-01 -1.137414281905618080e-01 -1.583502649248185595e-02 -3.046151235635091159e-01 -1.417006951684760818e-01 -2.733151946887941719e-01 5.786422850908032323e-02 -2.091833735620560186e-01 -1.014218497884232240e-01 -2.005896293937517449e-02 5.178989982996606151e-02 -2.420920560304900271e-01 -3.198045150169123718e-01 -6.355389808332498891e-01 4.727554952927908588e-03 -2.409339686396772817e-01 1.178729503803039730e-01 -2.453902989389636635e-01 -1.544294393260057241e-01 -7.538341391028327565e-02 -3.149053008130558440e-01 -4.031872144140787317e-01 -1.204188445061832487e-02 -2.301278483255008167e-01 1.315856977035665398e-01 -3.515814444488518653e-01 -2.449226850192255667e-01 -2.428463927458198723e-01 2.848734267175718690e-02 -5.607578302275263021e-02 9.733638006216532856e-02 -7.283815685809628612e-03 -2.781727296977090647e-01 -5.644928067355922119e-01 -2.507100215886928218e-01 1.220604327480442619e-01 -5.731513820326648162e-02 -2.009634248363074138e-01 -4.982182596417442655e-01 -2.598185026624580951e-01 -3.023670043691090506e-02 -7.984451497090584715e-02 -1.155697018802719495e-01 -9.596593040281101161e-02 -6.916045731468312141e-02
-5.788919497204023795e-02 6.354251766040871496e-01 -4.673680205644236141e-01 3.270379303323505682e-01 2.635166564645628415e-03 5.951641734684515878e-02 1.519102822442035088e-02 2.699795501438876366e-01 -1.502204826715342334e-01 1.117524553863550041e-01 4.139924847608862646e-02 -4.276004529300846402e-01 2.002237050775738381e-01 1.618477273866324728e-01 -3.121853765659982072e-01 -1.034231430881785568e-01 -1.293332014828186827e-01 -1.396215761906747510e-01 7.998909906808961481e-03 -6.835064922330709170e-01 -3.855084896874824696e-01 9.418834705395968954e-02 6.388547825549148462e-02 -1.223201560850282615e-01 -5.410685272556028241e-02 -7.576902846017044557e-02 -3.484132215342999328e-01 -7.146763464484223727e-01 -2.070225309290497917e-01 -7.998546260175032341e-02 -2.009505173205733131e-01 -2.175153965436988912e-01 -6.664089877695582309e-02 6.703612785046145130e-04 -9.052124818002428575e-02 -9.696777870376852015e-02 -8.486777550561834527e-02 -4.906831211310077601e-01 -3.868510540179810886e-01 6.746162932445550452e-03 -2.514955964279725897e-01 -1.108582091346631791e-02 6.251420103731983313e-02 -8.019711908255773569e-02 3.374979523008587307e-02 2.283196231085443950e-01 -4.582660691934761776e-01 -2.235572640748379192e-01 -2.205745304588693501e-01 -2.000911710620666972e-01 -1.791529958722411775e-01 -9.473967247962965244e-02 -6.445272248527013359e-02 -1.654009165375296964e-01 -2.394487599863669158e-01 1.986960785784314121e-02 -1.277659920108018266e-01 -7.460145007952386775e-01 -6.596822156112300273e-02 -8.702414335291452918e-03 -3.172829338241429653e-01 -3.703094107589853801e-01 1.525260061476576938e-02 1.337360095476421151e-01 -6.305376568596930686e-02 -2.462295310371346857e-01 6.250501289437506835e-04 -6.502042005501602884e-02 4.174377421181066916e-01 5.592648729810364289e-02 -3.697003684566871340e-02 3.366957677345960159e-02 -2.830589249583950751e-01 -2.894391637622861779e-01 -2.574133055970104778e-01 -2.386149798821290691e-01 -4.999444833833855961e-01 -4.038802964349232777e-02 -4.057304913576284533e-01 -7.558101580140580422e-02 -1.885903835495257030e-01 -2.291764203329914318e-02 -1.985194441131057919e-01 -1.023060834349639875e-01 6.313392356134775452e-02 -7.060009285738212681e-02 -3.181904345894421282e-01 -1.685950968776595005e-02 8.630617521603926035e-01 -5.119839387072668835e-01 -2.530223990875009668e-02 -2.403584941640706241e-01 -6.191724547072357393e-02 4.006769452843997326e-01 -2.743066280881959473e-01 -3.092865917912131501e-01 -2.544559319502418537e-01 -2.819703836284015441e-01 -7.113466091304086747e-02 8.857426820608993792e-03
-2.986825909388775013e-01 -2.545794818019552763e-01 -3.342466934774571685e-01 2.243464116867240898e-01 5.434028495830410185e-03 -7.843983929036815739e-02 -3.254197499306487606e-01 -9.198379099543088633e-02 -1.262524293624697480e-01 -2.641917404313727236e-01 -1.894036581814497189e-01 -2.405444816684636500e-01 -3.936487731997679318e-01 2.846667171727434997e-01 -1.192580101378952068e-01 -2.254778241900410873e-01 2.520847939661067794e-01 -1.042083760505355533e-01 -1.906829182539695189e-01 3.520255344306433276e-01 -5.178068280237640986e-02 -1.788482947171329551e-01 1.187722442909294462e-01 -2.806495639412035503e-01 -1.128739970186040664e-01 -2.367822907707081426e-01 3.464370217865588453e-03 -5.722160116665875318e-01 -3.588881319472389531e-01 -1.773282875561078831e-01 -2.377165093036611443e-01 1.321572294233421263e-01 2.175335332820304071e-02 1.107015769870952904e-01 -3.800517472430723354e-01 1.279499513673800493e-01 7.097851497287632760e-02 -7.222495997427232084e-02 1.398957572770455626e-01 -3.452432030937743757e-02 -2.566501018037408571e-02 -5.517524341639507002e-02 4.635463227833028221e-01 1.054098005246859385e-02 1.126563700630161813e-01 -2.137395614302284308e-02 -1.031041713917823510e-01 1.118210537083332706e-02 -2.445651685504795017e-02 -9.127005929296343190e-02 4.360198315161884636e-02 -2.756906885284948205e-01 -2.621648929244338455e-01 -2.919819005844851434e-01 2.168823703268467698e-02 1.122934404249331664e-01 9.355295265988587683e-02 -1.678464632433775551e-04 -8.933157972527450141e-02 -2.054172021738858989e-01 -2.816101749504805185e-01 -3.874510611154648454e-01 -1.135722897078383364e-01 -2.775302352573877918e-01 -1.286180081176249157e-01 -7.615958944551676213e-02 -4.137107683432303395e-01 3.085806400385067080e-02 -7.461262473332922474e-01 -4.535344983190706114e-02 -1.990029921670584123e-01 -4.112662984587925341e-01 6.229398269582598485e-02 -9.746374092429579972e-02 1.241922111723186145e-01 2.804761720571686823e-01 -6.087592346159360901e-02 -3.285231539200885176e-01 -9.664212110438011316e-02 -2.475490215533835414e-01 -9.992597048000860516e-02 -3.467891258983168412e-01 -1.460531556073867698e-01 1.809636086246265430e-01 -1.846525691792954282e-01 8.313671218560929332e-02 -1.271860565537855092e-01 -5.598675188277655451e-02 -1.389423437116546478e-01 -3.944086978221558737e-01 -2.331748753161201615e-01 -1.886832646143480618e-01 -8.028483774391690850e-03 -3.775968968789040758e-01 2.023964847325127880e-01 -3.005733334379671051e-01 -1.652336011395854065e-01 -3.020794153271796900e-01 -2.945641093057676727e-02 -1.261431761697763276e-01
-2.363533853081438985e-01 -1.190854638161699397e-01 1.319398620387429166e-01 1.033372354148823558e+00 1.080575874413152032e-01 2.021108410954497447e-02 -1.632472269769565110e-01 -3.275383559496468644e-01 1.677915010293396653e-02 -2.462698395425420295e-01 -1.278309342909895174e-01 -2.342284301281555292e-01 -2.557886914810091339e-01 -2.587572933033438147e-02 -7.348454305570095713e-02 -6.803014356989683931e-02 6.570609299130933389e-02 -1.847298329746303869e-01 1.034712819073077134e-01 -8.775394079230199040e-02 1.696226060548289283e-01 -1.208812079925478816e-01 -2.543334675932572564e-01 -3.235315874305055295e-01 1.445501350344263747e-01 -1.012042636448080568e-01 -1.677626643073574023e-02 -3.426413381920970225e-02 -2.402258095578942154e-01 -6.942542824014208414e-02 -1.154244540324374652e-01 -8.082210802410455530e-02 -1.726480859989514283e-01 2.311053530190649852e-01 -2.806748090328692324e-01 -1.580709206842496883e-02 -1.217433354493844266e-01 7.159823632246081759e-02 -1.612084348148981328e-01 -6.063213944189535173e-03 1.234413614018100153e-01 2.289377529025295524e-02 2.101702764072079233e-01 9.310601485196584592e-02 1.490106437124703587e-01 -3.348634854618958573e-02 5.296543753827534506e-02 2.148247432663465128e-02 4.888607407036087843e-02 -1.794526956241725146e-01 -2.181438010009222328e-01 -2.164879324927135307e-01 -1.505309958896496880e-01 3.242516052624399431e-02 -2.699177714953679419e-02 -2.274797139777124944e-01 -1.671429541294894424e-03 1.904877738901563089e-01 2.409015773481254230e-01 -2.089100814027995690e-01 -2.646581198326597439e-01 9.614479039296092155e-02 -1.819275655890154331e-01 -1.955520242126224384e-01 -2.082895808609465660e-01 -2.505190720347476030e-01 -1.401628461436715267e-01 -2.281095298104393876e-01 -6.577171354246079682e-01 -1.292940326116110150e-01 -7.546246829352115659e-02 -1.617280525806510383e-01 2.466180961534824301e-01 9.341208191276650918e-02 1.668336556538528304e-01 9.124980011967372129e-02 -2.310213167539068302e-01 1.269780556956077167e-01 -2.130413038535300951e-01 1.472646757175414753e-02 9.106213126632332899e-02 1.139644308213998147e-01 -2.936939444239869412e-01 1.362054723757997327e-02 -2.931624832512886303e-01 7.142068406541873804e-02 -9.290795023573084066e-02 -2.464109127802565913e-01 -1.043986285731114849e+00 -4.049628671924971335e-01 -7.100159969637410279e-03 1.564469338331356263e-01 -5.802840210554329609e-02 -1.307635393123149081e-01 -1.386794085731236081e-01 -1.094309857104009409e-01 -2.891735541374322316e-01 8.143565593218633769e-02 1.189569798888119589e-01 -1.532171545747134656e-01
-3.140999746475762744e-01 -3.672365663365762534e-01 -2.427688784607302808e-01 -7.756127764452574840e-03 -2.006948279145424549e-02 -4.030209862805758103e-01 -3.065191233425134110e-01 -3.895100451059728686e-01 -2.750801903380553082e-01 -2.554468971127016666e-02 6.124444409872746575e-02 5.929574693621964508e-03 2.997607171732170200e-02 2.282285142734744310e-01 -3.397771240881615196e-01 3.663410747834432157e-02 2.770062894095295589e-02 -3.465293543971258994e-01 -2.641854983285272795e-01 -7.246649627740316957e-01 -2.813836141885542319e-01 -4.270634410560312788e-01 -6.977402415071828901e-02 -1.155999496074279070e-01 6.150651909723419547e-02 -2.511658976049834999e-02 -2.968077417076647184e-01 -8.644313429768943347e-02 1.230962977444669260e-01 -1.779018584818728155e-01 -3.110930051533215002e-01 -1.641465061560579974e-01 1.381524487671993186e-02 1.199512954720631380e-01 8.418174981361439824e-02 3.486030357303308153e-02 3.200356127011341235e-03 5.631793455307655405e-01 -2.069464520587580292e-01 -1.862959494761043389e-01 -2.996242924289215792e-01 7.528802378628957070e-02 2.838812347749856135e-01 -1.617414439473001120e-01 -1.189926247228211692e-01 -1.971757588357234137e-02 1.187805686219619433e-01 -3.178578327234565098e-02 6.683228290955479933e-02 -2.561456637874304221e-01 -2.715193917889132669e-01 7.944494776562430194e-02 -3.078029025277391750e-01 -3.562099541850772405e-02 -3.388594494834754611e-01 -3.636079101317465923e-02 -2.927731346140207136e-01 -9.825196436693967028e-01 -3.359496548043753306e-01 -2.401008717080743010e-02 -1.139889274064520841e-01 -3.452411438885077399e-01 -2.925033646388026654e-01 -1.001251212924970380e-01 -8.131443175421614045e-02 -3.232983449406472976e-01 3.002687022314629028e-02 -2.124639439110415640e-01 -4.847096806400541524e-01 -1.677077809918136458e-02 -3.233557402406547765e-02 9.356195622623018904e-02 -1.901901989896794820e-01 -3.743934304656945100e-01 6.624278434961257400e-02 -2.118054507844466805e-01 4.387179006569873890e-02 -4.297161381861006046e-02 -2.344500166737485680e-01 -1.964024021527998320e-01 -2.260879522031813138e-01 -1.329284993513747959e-01 5.965252633349780315e-02 -4.844175732070451490e-01 -1.768576790456166392e-01 -1.282344949745854445e-01 -2.460586749677801388e-01 6.724044316728185200e-02 -1.594395051011998410e+00 -1.015605802671958324e-01 -4.127691264628197132e-01 -3.273845626382763108e-01 -2.070790463556917427e-01 -4.137240651992821205e-01 7.828020749258557398e-02 -4.215875712126863906e-02 1.615926311896939693e-02 -1.459763813055769133e-01 -4.039139354529241305e-02 7.724063844209723417e-02
-3.809645402028035699e-01 1.360802469821489891e-01 -2.892818740817078571e-01 1.803507661248808347e+00 -8.119881654235448776e-02 -2.319717958624074317e-01 -3.471060814862885202e-01 5.508577140744151321e-04 -2.755576354155561680e-01 -1.478583783139134633e-01 -1.087207063353609754e-01 -9.706098676418456472e-02 2.753737414715686227e-01 -5.312430809394357301e-01 -1.064454391147752754e-01 -2.942904454757984123e-01 -4.953000736794618830e-01 -2.888764373683688769e-02 -1.270544190488128444e-01 7.044044402807200234e-01 -1.778990476522719633e-01 -4.322947187553492082e-02 -2.215806003906113375e-01 -1.835778330440977213e-01 -7.121292214936565668e-02 -2.822417601278340848e-01 -3.221320231286410318e-01 -1.303387423142788215e+00 -3.038163397524978326e-01 3.863843970585219278e-02 -3.545023531351642609e-01 4.308484637949376583e-02 -5.034570096234769476e-02 -4.445743519917804143e-01 -3.550890582109869631e-01 9.185495901514961758e-02 -1.572423578376007103e-01 -9.065215069261935987e-01 -8.065491337406245631e-02 9.141851368459273652e-02 -3.055101712424586613e-01 -3.155529682879607001e-01 -4.905905999962746900e-01 -1.817888697770982942e-01 -2.564938948242158068e-01 1.079804246490105035e-01 -3.615010024268779931e-01 1.501210176850666933e-01 -2.337856773040311031e-01 2.089312105759232735e-02 -2.812165767532210925e-01 -1.384976165115623659e-01 -3.596814976077325476e-01 -3.428636003983693836e-01 -2.341001268712051830e-01 -1.299402870955933820e-01 -2.538974421206868226e-01 5.140605879126816102e-01 -5.648272531322203610e-02 -7.125650710887486416e-02 -3.015482516913036148e-01 4.481891159061655860e-02 -4.145023188036907058e-01 -1.538911658136440375e-01 -2.520411424816276780e-01 -2.138422002269778008e-02 -5.577559922261125791e-02 -2.944748844262439214e-01 -5.301627098202194022e-01 -2.188627859552153346e-02 -4.114259148897218832e-02 -3.944271404057888425e-02 -3.210353767402910341e-01 -2.754196926694352232e-02 -4.860429190259087096e-02 -2.250048913457801947e-01 -1.792661646879621096e-01 5.362739314998733742e-02 -2.200968772710268639e-01 -1.294550920504100588e-01 -3.263788363035480811e-01 -3.636480757545056397e-01 -2.128206166612551242e-01 3.757317933442349406e-02 -2.493326877866133273e-01 5.673050714384286763e-02 1.344290895798469498e-01 5.577749355096229406e-02 -2.943198623360080979e-01 -2.133787065847449552e-02 -3.301173762454805427e-01 1.071219378210629472e-02 3.739204442828947955e-02 4.364918586765822311e-02 -1.407358975704138537e-01 -1.950749222748015543e-01 -1.566527225971798554e-01 -2.255456212146166040e-01 -2.999815855373328954e-01 7.962984578643383937e-02
-2.585506443732568660e-01 -1.727131612205119182e-01 -2.435115385961070522e-01 6.025605370178586107e-01 -2.948941668454258536e-01 -6.498521873376891800e-02 -3.319462921178600312e-01 -1.162065802634784789e-01 1.809640599273519002e-01 -2.622065063122793194e-01 -3.576529771051140116e-02 -3.326739809931385516e-01 1.735143316600628802e-02 -4.352932312508637214e-01 -2.686051737045688226e-01 -2.956543907683968353e-01 -2.184704845849101684e-01 -1.474408914583176244e-01 -1.900443418742788493e-01 -2.339206487169700477e-01 -5.047901783925615171e-02 -2.972893739769098542e-01 5.121108119616993304e-02 6.205557452232706578e-02 -1.506224093575632694e-01 -6.681808534006139499e-02 -2.235937817161322838e-01 -4.324506139091847251e-02 -1.759284535285687845e-01 -5.167811014550256765e-02 -3.292613705030193461e-01 -2.213057188660599861e-01 -3.249459536687778760e-01 -1.505777041110814840e-01 -3.269197268180957239e-01 1.751987337138481704e-01 -1.369558644828207383e-01 -1.802893579370953292e-01 -4.425746474389504609e-02 -2.129119061232522814e-01 -2.551085033027999938e-01 -1.164444536441210098e-01 -1.448039435276549658e-01 -5.398689692314952160e-02 -1.176942076502091455e-01 -1.825170269926434941e-01 5.982344129228842067e-02 -1.149787707293051381e-01 6.182969809730465803e-03 -3.115953426744701993e-01 -1.770138115675698731e-01 -5.019169743259616762e-02 -1.477574325668303684e-02 -1.652811420889098715e-01 -7.585103481618100940e-02 -4.649746962995357502e-02 -4.629063504380930838e-01 -9.401225940196812625e-02 -3.160958401891166350e-03 1.968289914834003493e-02 -1.518441418121075082e-01 -4.574012746426296683e-02 2.446011170136255797e-01 -1.388107583271268874e-01 -5.155930861346807309e-02 1.558474863246393956e-02 -1.724994519369344725e-01 -2.206121467479562476e-02 -1.570723303693361828e-01 -4.019564285408413484e-01 -2.248488391509562700e-01 -9.510949774212190677e-02 -9.182850234935796552e-02 7.024546296095457443e-02 -2.374620877155036169e-01 -7.765691974547747622e-02 -3.424032307034915457e-01 1.071572067478280960e-01 -1.118814668570011772e-01 -4.040984861053797395e-01 -2.817509576742269761e-01 -1.825512116634027127e-01 -9.761884352305144619e-02 2.025338769464982980e-01 -2.178248884189461221e-01 -4.219543290672598396e-02 2.115101742311396860e-02 1.380981838994696231e-01 5.740277301258118331e-02 -1.497678504502424346e-01 -3.191538163559630714e-01 -1.842252368449025512e-01 -1.854312217570543708e-01 -1.860017451367491914e-02 -2.975889342093202550e-01 -2.011976063021250205e-01 -2.614120252461388794e-01 -3.394565877185315439e-01 -3.288553760945552296e-01 -3.033651089528769870e-02
7.975551884442670658e-02 -4.577314322835705079e-02 -2.932582218710551025e-01 -6.583409613158063001e-02 -2.907324269077249390e-01 -2.707986614356018285e-01 -9.892453652426591582e-02 -3.074008903031847859e-02 -3.964464643868440552e-01 -2.192054532349408946e-01 -4.325263335082431965e-02 -1.720477550409345302e-01 3.193374408121025382e-02 -3.174342378222684835e-01 -2.103986381269763728e-01 -7.978117829759802382e-02 7.524704350187250146e-02 -8.572335812444147052e-02 -7.109207123525813909e-02 -8.968586844198396524e-02 -2.587475223374928190e-01 -1.543783862310970922e-01 -2.568398072271233512e-01 -1.108730021962790607e-01 -2.527251347080035696e-02 -3.096342678851288777e-01 -4.339814325779647181e-02 -2.677317276931686849e-02 -4.575230129759583764e-01 3.234782863539032230e-03 -4.697703690387282638e-01 -1.466683591985737389e-01 -1.426682219806836849e-01 -9.320900170337986790e-02 1.234252153398872204e-01 -3.190475236022413119e-01 -3.215777769268483577e-01 -7.163152087149154967e-02 -2.502914009401383533e-01 -6.783193803888211415e-02 -1.177384580819339083e-01 -3.300395292655221580e-01 -5.280453495372875589e-03 -2.081573266427569069e-01 -1.998322964610999841e-01 3.119900256610421904e-02 -2.361779306006732415e-01 7.266044759609721626e-02 -3.204298004537757816e-01 -2.232736360526292041e-01 -5.030169792219284924e-02 8.203211419055818354e-02 -2.062025619325921072e-02 -2.183093278418520022e-02 -3.541675940576245463e-01 -1.389217088924109278e-01 -1.317799469123014100e-01 -2.476700855365586706e-01 -1.560263252063958661e-01 -9.721935747903270864e-02 -2.011076168820166987e-01 -2.356301040179460404e-01 -3.238160501305899497e-01 -2.424315480176003901e-01 6.849578819722824952e-02 -1.376142364288120146e-01 -5.827595823370421146e-02 -2.997723148397324899e-01 -2.249327188906195818e-01 -2.735632379215295340e-01 -1.637510992405120658e-01 -1.025197830436895274e-01 -2.618649386116220223e-01 -1.823200463035444252e-01 -2.449964524656540743e-01 -4.632630242199181625e-01 -1.849335095195143164e-01 8.424177594010255621e-03 5.844120006405062462e-02 6.023323340820806171e-02 -4.963705263466247630e-02 -9.754996033387031140e-02 -7.315773955542152762e-02 -3.581785985805487349e-01 -2.540327592979667592e-01 -2.855101349092971641e-01 -2.613161042122380540e-01 -2.521561685935198166e-02 -7.443574502423132566e-01 -2.466154932454402149e-01 -3.348320989891375721e-01 -3.009369084164260078e-01 1.060693270894201845e-01 1.716883469887557634e-01 -1.082886616806762875e-01 -1.181717463034596127e-01 7.392295362461148711e-02 -1.683907785062504492e-01 3.569914185386483668e-02 3.277636747071558266e-03
7.307737035503537523e-03 6.701173009009994130e-01 -3.902003656165061729e-01 1.150030556843713914e+00 2.604971209639354024e-01 -7.160188379893266120e-02 7.615396976523104711e-02 -9.447482255726845357e-02 3.229414231026314641e-01 -3.575850069248134311e-01 -1.977059816314009622e-01 -1.550046092779574780e-01 -8.986045878218251737e-02 -3.173247706531183432e-02 1.887888368779508386e-01 -2.239765390709802517e-01 5.484581318411267670e-02 -1.737452266469723464e-02 1.760483505894231138e-01 -7.470951423581230211e-01 2.517590199340367652e-01 3.087394228493359760e-01 1.283075009155142630e-02 2.684198282159099350e-02 -3.321742531402553378e-01 -1.578448860416808430e-01 -6.474057218896325794e-02 -1.226372068002172133e+00 -2.256607154831425377e-01 -1.688733250727376123e-01 -2.248248266251237637e-01 4.140177712948503452e-02 -2.343076570839984496e-01 3.050080244167719390e-01 -2.430852542737825250e-01 -2.422970507422798347e-01 1.543367258672388997e-01 5.636302493306958317e-01 -1.437315848289056897e-01 6.381095935937160929e-03 2.454029275231343621e-01 -1.148098232590863271e-01 4.184100049754072015e-01 -2.968698641382552239e-01 -3.241473517625065998e-02 -5.087931440839791458e-02 -5.569703560697014666e-01 -3.231486994156185233e-01 1.466954949262596897e-01 3.595185277109990557e-02 -4.007997165995433875e-01 -1.141691537052863942e-01 -1.161052162068247073e-01 -2.110985142981784413e-01 -2.411662599082680936e-01 2.134488759836561389e-02 -8.962931578991552295e-02 -4.532733751807317968e-01 -1.794384569262299223e-01 1.261009506973196082e-01 -2.595287221805613054e-02 6.598015524688100042e-02 6.000199766467079199e-01 4.643018776546562246e-04 -1.160828484569559338e-01 -7.646910992950674280e-02 -1.305036898466674714e-02 1.237652108427815811e-01 -5.914733452226277749e-02 -9.954845809605472606e-02 -2.789265455800079008e-01 -5.805752341219026780e-02 3.435630966979750373e-02 1.685934687864137083e-01 -2.995794545148476318e-01 1.124389782066180371e-01 -1.493583129019241673e-01 -4.323891380144305185e-01 -1.361850579343862888e-01 2.911984588428445653e-01 9.732536003494079990e-02 1.256626767760571188e-02 -5.344574352378811399e-01 -2.784857648139830721e-01 -2.547346304060734701e-01 -3.598601495243438642e-01 -2.721794556134107812e-02 -2.639094823487902475e-01 -1.246740075939427733e-01 -2.613223915340986275e-02 -8.467579477098208240e-02 1.863226596543920144e-01 -1.162039286743132560e-01 9.929856818858152218e-03 4.549049461706139441e-01 -1.210303538939482837e-01 -2.084114988765096987e-02 -1.848593152816175589e-01 -2.025684885669004065e-01 -3.812166152028091948e-01
6.301337490308504818e-02 -9.544898493775478832e-01 -2.054735790474222501e-01 5.018027718427260364e-01 1.837739326707286680e-01 -3.198762935801814367e-01 -1.406755399373224753e-02 -6.286953152338519146e-01 3.152269222294354356e-01 -2.193533112462153767e-01 -5.448636455928451694e-01 -1.788977874086506437e-01 -5.444313104112162849e-01 -2.540569986861701546e-01 1.173067846864190994e-01 -1.384541342539239717e-01 -1.466302046746443544e-01 -3.331395573855232967e-02 -1.325750523293461880e-01 5.115422511050997656e-01 4.451563250040874858e-02 -4.758890083028122775e-01 -1.886943148120487912e-01 8.418663641418673224e-03 -3.045100846094109248e-01 -2.855415306623513769e-02 -2.817536920968201075e-01 1.025667186423169230e+00 -1.958356183468159262e-01 -3.270857348205359338e-01 -1.151409131109966816e-01 -1.148311232167039189e-02 -1.537082828007916291e-01 1.662632379432265328e-01 -4.663542177668211774e-01 -1.132038923058247687e-01 -2.462032022027516864e-01 -3.646035304553914558e-01 1.321336956409230497e-02 -1.614375934669510515e-01 2.044505663967646214e-01 -2.325766684511145488e-01 6.750539785830790562e-02 -1.346080853303716907e-01 -1.456782153696923043e-01 -4.982965448056040358e-01 1.217157741897776924e-01 -3.008851591702699224e-01 -6.409474139490386330e-03 1.066501429984182264e-01 -1.829019330697995438e-01 -2.620088770580403237e-01 -3.240709484436656018e-02 7.211428267367249456e-02 7.975980794726410250e-02 -8.612275630939195126e-02 2.216377860334735328e-01 1.046549392241082677e+00 4.269071290267890256e-02 8.280754802678617910e-02 -1.187803176301227698e-01 2.197446097252393760e-01 4.303542983882437944e-01 -1.787535194462833155e-01 -3.295773421693339866e-01 2.080212331368719025e-01 -3.123396748543275647e-01 -1.948316367067076116e-01 -1.232036762881492553e+00 -1.950074373245620774e-01 -2.956522564434993505e-01 -4.302299474595910334e-01 9.759154268716599412e-02 1.941000691388694854e-01 -1.497543667626713981e-01 2.923630732378494357e-01 -6.421359172246954294e-01 -4.012726487294827615e-01 1.930541460054223946e-01 1.174680537915931966e-01 1.568282198048332743e-01 -1.303516805132844958e-01 -2.332566002039282715e-01 -1.650482343821946807e-01 -3.014021895561985187e-01 -2.947689547646645670e-04 -1.417098557009320858e-01 -1.579284513836375636e-01 -1.393413939230620624e+00 -4.571748445953562889e-01 7.159714435153953505e-02 1.322857443286516721e-01 -5.855933856643025237e-01 -5.197290518066519649e-01 3.225666697044012321e-01 -3.168712110632463386e-01 -1.670702508659129282e-01 6.078988634167061672e-02 2.398551559306717328e-03 -2.077783756361005485e-01
-2.335976904087359585e-01 -2.342333761524550972e-01 1.191313705703460901e-01 -6.479825976077507876e-02 3.094565020894783289e-02 8.436912983451608228e-02 -5.005761825693675476e-02 -2.999318731822059880e-01 -6.347674172339499987e-02 -4.797782469888685342e-02 3.917609321902684738e-02 1.808195882623108430e-01 -3.811336768738877723e-01 1.705847279945091888e-01 5.261264289092858204e-02 -2.739055785665514206e-02 -2.245279365178012299e-01 5.644312099218939949e-02 -9.390160835771899084e-02 2.942107215239571708e-02 -1.970241077843359057e-01 1.237757884601277114e-01 1.581638015572068776e-02 -1.003082597520552482e-01 1.056659824875374604e-01 1.039549583084486417e-01 -2.597351669846433009e-02 -1.257137437203754426e-01 -2.553168237815235386e-01 2.207718436090937673e-03 1.266462182428435834e-01 6.500036595867228484e-02 -2.195810002343225598e-01 -4.001923819568566770e-02 -8.181209067694791837e-02 -3.002850736564137146e-01 -1.071452637663411894e-01 -7.571828655281168108e-02 -1.153980169709761805e-02 -6.868380311794156090e-02 -1.222298074128412015e-01 -2.514882163562069950e-01 -2.262099936616721041e-01 -8.001686093211329842e-02 -1.673702739083658964e-01 -1.234317447242437998e-01 8.491233823484345411e-02 -2.060672396728217837e-01 -6.406496388716149959e-02 -2.090529125825342782e-01 1.288562673685323956e-01 6.116239155945659561e-02 1.175921775113777379e-01 -2.485071551695813841e-02 -3.084253249402934549e-01 -1.842994412391473491e-01 8.411758159046478500e-02 1.536930776497087980e-01 -1.578570307149070318e-01 -1.720624289761886472e-01 7.736644917002759303e-02 4.688593993740745175e-02 2.421521254617362701e-02 9.701790207288425727e-02 2.861585140187531198e-02 6.703167219628108908e-02 -3.286799195836628829e-02 -3.110325178011706382e-01 -2.810027327410358766e-01 -2.579432052597714353e-01 -1.491159441869430446e-01 -2.964745933373443276e-01 -2.569230452456890412e-01 -2.052481712090778176e-01 -1.999882377975626402e-01 3.759566400035816748e-03 -2.206948133979975135e-01 -2.548186450806188413e-02 1.231898856910324663e-01 -1.160381669508784852e-01 -3.196112026582584864e-01 -2.565282221322675027e-01 -3.154617420000486172e-01 -2.466303337355555680e-01 1.475186917163499312e-01 -2.485617059339829404e-01 -2.065693072225465998e-01 -1.669585210753080085e-02 1.158156136497071331e-01 1.389710411693441915e-02 1.269644353728399122e-01 -2.733558123227856629e-01 -1.325304438664196838e-01 6.218635972934372785e-02 -4.782265460589853190e-02 -2.473980873126211122e-01 1.559242023112572262e-01 -1.708653364014812298e-03 -3.202047427934131413e-02 -2.561329031589406058e-01
-3.310558081312565959e-02 -6.937088039611577495e-02 9.403899211638737377e-02 4.634434527037825657e-02 -1.511598947606641319e-01 -1.068835547515432638e-01 -1.094133283713542709e-01 1.691929223439600227e-01 -1.861835252444354327e-01 2.482835366510212083e-01 4.069826882401654522e-02 -2.183792024767848006e-01 8.477227416453318731e-02 6.272543496266524618e-03 -9.585085554484500114e-02 1.564377919839404774e-01 -3.271426371017311513e-02 1.338301204361971586e-01 -2.448537688717830341e-01 -2.113473430603973469e-01 1.029397720018436352e-01 -1.428420666554243434e-01 -6.781558236164030029e-02 6.676090847017461527e-02 -1.613846738735723596e-01 4.999972092957537251e-02 3.130266090831070568e-03 6.711348797888648521e-02 7.269565522836073101e-02 4.401831736977276921e-02 6.078448697891500330e-02 -1.569099183702148126e-01 -9.903220609087369508e-02 -7.619836254696675526e-02 -5.689823570398908070e-02 -4.225770363114198652e-02 -2.073992265559928272e-01 -3.849457523386999314e-01 8.336058437855770054e-02 -6.139130282311092146e-02 -6.903681160585270482e-02 3.931943169820103362e-02 -1.284679592256329217e-01 -4.226955913808531917e-02 -1.807192044300791056e-01 -1.748576831681428467e-01 1.631591760772095612e-01 -2.169457593975113174e-01 -1.979131437385401870e-01 -8.857110345465558920e-02 -9.881954639090788362e-02 3.918728358467347614e-03 2.643696787816367244e-02 -4.818340512287514615e-02 -3.301347600984807368e-02 1.914349520794588477e-01 -3.091787426747636403e-01 -2.836604177586274367e-01 7.464176091684668335e-02 -9.760123570802731185e-02 -5.730888774062128932e-02 -2.348204200234481620e-01 -5.628320622651411531e-02 -1.419103042733431685e-01 -2.143658429625262818e-01 1.851316483077066616e-02 1.130113859764684814e-01 1.872908953028966927e-01 -3.024562703716143774e-01 -1.978413295271156669e-01 -1.910944273650372061e-01 -2.480794936875175827e-01 -5.688587324614586410e-02 -8.360296964036131873e-03 2.112157451593040525e-01 -1.703738988282446354e-01 -2.148667449516485917e-01 1.988822076659114979e-02 -9.437573994251154119e-02 -2.829537204859332578e-01 8.415646568019047313e-02 6.082010728284958923e-02 -3.533407247504968263e-01 -9.536204742181247918e-02 1.917527104804713778e-01 -5.565912387972772081e-03 -8.772544095242026940e-02 -1.030974808050729580e-01 -7.709180411721550108e-02 -2.500015541410989250e-01 -1.966054111099262980e-01 -6.701137284998583132e-02 -1.334732003831601288e-01 -1.863890617351234291e-01 9.861398754018531332e-02 7.425451673214693293e-02 7.954506001906173907e-02 -7.126872548822087844e-03 -7.559483833016278354e-02 5.791462197197203704e-02
