1.983634239014206768e+00 -9.201274813864067370e-02 4.877186892448181488e-01 2.072631303677630488e+00
2.260778161768489392e-01 -1.024739205563797384e+00 1.841261352855129374e+00 3.803063171547968468e-01
9.101577090868396835e-01 1.479880275490750852e-01 2.638768783690091269e+00 -1.738494631856606354e-01
2.616788257830948011e-02 -7.296879901534819579e-01 -2.800190305490827258e-01 2.762698753744802005e+00
5.075454396305245641e-01 1.269872380656693389e+00 -1.155175522001265609e+00 2.398982976828903935e-01
-1.178001966872693540e+00 -3.669910748336936979e-01 6.986300472728791400e-01 -1.286812193146470218e+00
9.593742685397242953e-01 -5.973622942696547033e-01 7.810766045218157927e-02 4.767773608844662614e-01
-2.692571955988807067e-02 -4.835519669637385332e-01 1.253977203592238965e+00 8.099907996226023421e-01
1.930021824966826394e+00 2.194191525470711168e-01 1.428410582816027896e-01 2.252693096909492709e+00
1.996623818316051457e-01 -1.149361274306502922e+00 2.255358475596688006e+00 1.755939416959838018e-01
-9.757964572413785342e-02 6.516404019518054480e-02 1.014979750963895588e+00 -1.946763481563536513e-01
-1.621478143552577411e-01 -8.769669820466588495e-02 -1.184158732699185368e-01 2.989642325487751884e-01
-1.031100750274798417e+00 -1.560694358752554356e+00 1.329083316155686534e+00 3.995261265228883252e-01
9.779369327373274023e-01 5.810493062845168977e-01 1.464977289297849650e-01 9.893062444102204145e-01
1.500165069651301225e-02 -7.484978808073143586e-02 -1.538307107907728455e-01 -1.861868894787791218e-01
-1.840101946621161555e-01 9.402551704497932872e-02 -9.686861585998253130e-03 -3.088174587781570279e-01
