-3.315891052445091969e+00 -8.373015793472526891e-01 4.476520234925210340e-01 4.170513796651412086e+00
1.400294203137224747e+00 -8.413315361434444695e-01 3.980760136269396732e+00 -1.843110779463823956e+00
-9.637842920208186115e-01 1.116946597782518952e-01 -1.267951379914634691e+00 1.616766651844097957e+00
-9.376756046966722158e-01 -3.379930476583406840e+00 2.552311086892177894e+00 -2.542519937120930162e+00
1.576308568016337786e+00 -1.281235020483004527e+00 5.309602966875508478e-01 -3.971410794618996931e-01
-1.946970544725047381e+00 1.359312401739401155e+00 -1.610988474507423662e+00 1.415166036674682770e+00
4.069508868630175580e-01 -7.007660557730449602e-01 2.010087040175145390e+00 1.767160349995037461e+00
5.869714896431913465e-01 -1.493835178189361512e+00 -1.499331246519005900e-01 -2.126771433924267374e+00
-2.901840154574269803e+00 -7.180809224115329847e-01 1.717451939621904011e-01 3.995392215138044989e+00
1.367904091997045768e+00 -7.764382565260425917e-01 4.086200502037566018e+00 -1.261740988564786115e+00
6.464816093868416269e-01 -7.006423328475398782e-02 4.900210579676517186e-02 6.515481642456010247e-01
2.223248034206332935e-01 -1.439773154461079896e+00 -1.356050144789044676e-01 5.019283980520577310e-03
-1.263585443326958657e+00 -3.045766060790484897e-02 9.215139614357916731e-01 -1.548444933182280714e+00
2.681891226662615590e+00 -1.745402748057511610e+00 -2.694632328572202362e-01 -2.743695104690543896e-01
-1.809713020718716481e-01 -4.475632149210109767e-01 -1.278158876953669199e-01 5.145137728105515507e-01
6.111939388786026550e-02 -6.301929621900611567e-01 -4.329921336102789953e-01 -1.272081620283998793e-01
