5.215908156925302741e+00 -1.318248948213343597e-01 -7.719961096982961291e-01 -2.217286421800761242e-01
8.162658611210399373e-01 3.646305241897031646e+00 3.139423115727749902e+00 -1.555584661400072788e+00
3.004777746019607676e+00 2.128125778158846196e-02 1.024103152133760547e-01 -3.362351577438376538e+00
-2.228821819916252167e+00 1.592797152660322180e+00 1.358344110236538171e-01 6.051911034145063262e-01
-9.269538719227760071e-01 -1.373524788380001249e+00 -1.465294139578940502e+00 7.205162622103378212e-01
-4.007707712914999054e-01 6.373992377871863235e-01 1.100456418662013380e+00 -1.363135477300658760e+00
3.053988144380553216e+00 2.535609154665486642e+00 1.292348945643279290e+00 1.642043619027703377e-02
-2.394684801554192999e-01 5.934149150273464457e-01 2.083005905278380310e-01 -7.305769104418163851e-01
4.985566109394082623e+00 4.742645538583712406e-01 -8.279720974011504087e-01 -1.968942369943570414e-01
3.999235423399732925e-01 3.230184649669491925e+00 3.241380040859738187e+00 -1.890957040829291058e+00
-1.508328692727506082e-01 -4.950257892032219331e-01 -3.421836043349620049e-02 -1.794026151167368521e+00
-2.746141402009718013e-01 -3.252220149018358875e-02 3.466946197139830210e-01 -6.815681254910567477e-02
-1.987966367582171268e-01 2.381181011889363930e+00 1.574982088019437398e+00 -1.803669852519428130e+00
9.281284445228272784e-01 -1.115173514080100681e+00 -1.469445881004890486e+00 2.131439023370401142e-01
-2.927943197873838013e-02 -3.398511960138405619e-01 -3.127903906466241724e-01 3.408270017819570730e-01
-1.292289717601513011e-01 -4.968852308258586703e-01 2.837224831621874832e-02 9.863655059629654331e-02
