2.014765453287434005e-01 -3.533982576542073484e-01 -4.412673764457066272e-01 -4.033095019788857649e-01 -1.422017648169527249e+00 6.440142472267590401e-02 -2.556693831215186008e-01 -1.923856582662834658e+00 2.619411198286889508e-01 3.661571203065139835e-01
-4.572785242254480687e-01 -1.653005552140776047e+00 -1.101027079989702895e-01 3.373070401683220254e-01 -2.106692181248729159e-02 2.472173708504097345e+00 -1.256656435892793133e-01 -5.751723952287557395e-01 1.186663190553828434e-01 -1.710588469219937569e+00
-8.720590368278230420e-01 -1.318130705925938950e-01 -1.668067063195696198e-01 7.072803776696715006e-02 -7.327633431667525121e-01 3.249828233189558269e+00 -2.818007370476882101e-01 -9.372228401320623070e-02 7.297688138719862216e-01 -5.353409596681265106e-03
-1.481487625513985829e-01 -1.273339238996744394e+00 -2.193027767322318355e-01 1.117625266450079057e-02 6.093036194401226791e-01 -2.072947903432168504e-01 -9.162026952432432425e-02 -3.227392480066608726e+00 3.236241575040020302e-01 -1.052904426666605886e+00
-6.210589478654257034e-01 8.025514054309782486e-01 -1.244182550034607510e-01 1.371315396141614962e-01 -5.836269655797430289e-01 -1.002313033818853949e+00 -3.373265588524035352e-01 -3.782701762326854955e-01 6.457245054726187261e-01 7.402416480320953562e-01
-1.548374495975529952e-01 -4.287691557046780511e-01 -1.698000093437042335e-02 -7.053997834768891417e-01 5.088199203685149774e-01 8.099354990014624445e-01 -1.491809494515086154e-01 8.908322759984574901e-01 -3.200315223562237299e-01 -5.726116771326569266e-01
3.288750732067425853e-01 -1.420530576905727926e+00 -9.407193487326205306e-01 -9.921812297984215767e-02 -1.293514651632448720e+00 5.076915028090056570e-01 -1.454181068385923190e-02 -3.036513973636034702e-01 9.544404093615281581e-02 -6.728248362366084923e-01
1.937761248858936858e-01 -5.440426298770605351e-01 -4.900050081677031488e-01 -1.562229093226095433e-01 -4.333793297749560236e-01 7.956149033983378471e-01 2.688118945624768871e-02 -1.151360674871493073e+00 1.848951471840902805e-01 -1.280566915565563161e-03
-1.001077322486953886e-01 -6.704130519156899226e-02 -3.227694997714483094e-01 -4.411758734883620137e-01 -1.272354851864476721e+00 -1.151820834284859527e-02 -6.458600786033930063e-02 -2.374540103820615755e+00 3.360290248700866789e-01 1.365640086562099065e-01
-1.470876362623113054e-01 -1.754054247812177669e+00 -3.659969016617212884e-02 2.642040530632582263e-01 2.652680365430585829e-01 2.336104291789474985e+00 -1.009522272539628285e-01 -4.686604263186005537e-01 7.738345784537610517e-02 -1.312204492573241232e+00
-6.193834999185509060e-01 2.368778584044707314e-01 -6.833895436276649082e-02 1.193927529321980457e-01 2.446577923061903637e-01 6.060265903928572229e-01 -3.062991442441458795e-02 5.921862569652567437e-02 4.042927153742282842e-01 3.800514088768693760e-02
-1.467412935901349635e-01 8.318985277659525501e-02 -2.427323537797075326e-01 -3.089007896447735768e-01 1.500929455342665253e-01 -2.224604378228799972e-01 -3.070949802799070039e-01 -8.721742129044733893e-01 1.799616017869991591e-01 1.326482100083181959e-01
-2.974457403345457940e-01 -1.453963611758854135e+00 -6.484774186708538446e-01 -4.652087304242692456e-01 6.047904043899060555e-01 7.316984726748967383e-01 -1.622627137720894508e-01 -1.394824323420895962e-01 -3.804036583164309704e-01 -9.191476405526322058e-01
1.716932742653730914e-01 5.869272335805713059e-01 -7.894572447704080176e-01 1.274719950696792947e-01 -1.418695228292738530e+00 4.446664318807055372e-01 1.689370676442470114e-03 -1.396874424531842962e+00 6.604274199298342252e-01 9.345564763164335709e-01
-4.840027509075162798e-02 -2.618128218400903040e-01 -4.881225343642917047e-01 -1.568512370109856335e-01 -1.618227482286986318e-01 -1.242302530427263491e-01 -1.743566819700913262e-01 -5.488423980675027902e-02 2.719145565722697611e-01 2.440425042097640052e-01
-2.083986400078278456e-01 2.221687462075566943e-01 -2.023524806258694964e-01 -5.367616799253804166e-02 1.703783792656508034e-01 -2.396325337924352927e-01 -1.902991572296085510e-01 1.297887339912269788e-01 2.755136655789300892e-01 1.985860852804414156e-01
