-7.316698966571050233e-02 -1.058694253681648378e+00 -8.599499935735067935e-02 -1.774746420265220781e+00 1.559681289061078946e-01 -9.711824704017400778e-02 -1.587204773407579483e-01 -3.474370447142896556e-01 3.560351336125897603e-01 -1.287339094076669077e-01 -1.145891103027803920e-01 -1.474899728764573481e-01 -3.403887482120287467e-01 4.552255702622026723e-01 5.553552318280453870e-02 1.174889365655001038e-02 1.542066957274253192e-01 4.543969945211475542e-02 1.012011869012613419e-01 6.233646376485761920e-01 1.564441070677496659e-01 -5.989173477427343073e-01 1.906028530718689162e-01 -7.035519612838053716e-02 -3.664227761123872718e-02 -1.437291739577131397e-02 -1.845842790393213001e-02 -1.594495221028777721e+00 -2.574184647922352354e-01 -1.661821879774056654e-01 -1.253640937048167980e-01 -1.012344700013683707e-01 2.818533563827486238e-02 3.796977423662574735e-01 -1.653703706249609329e-01 1.297860937082028487e-01 1.076510410593840700e-01 1.061390472922349781e+00 -3.116214397878029618e-02 -2.200751293185528590e-01 3.551492428036923110e-02 -4.560588456930197293e-02 5.364523195546249124e-01 -9.398137092204324194e-02 -7.159388249374376567e-02 -3.366318962678920002e-02 -2.198511999569581488e-01 1.194704972671937170e-02 9.585022173644300314e-02 5.597557287061976153e-03 -6.144403603546651910e-02 -7.049274752927854951e-03 9.266640133773676458e-02 -1.953984588944685657e-02 7.375117335702939883e-03 4.904131098893374507e-02 7.083152747005505567e-02 6.415291534848939214e-01 2.620146286984463904e-02 1.742711720586212834e-02 -4.961180344519339896e-02 6.284626031259368806e-02 3.697836463080528269e-01 -4.415889551104993510e-02 -1.340515158944385610e-01 -4.634557771951527960e-02 4.433576334135429231e-02 2.328192872212386522e-01 -1.311357456138049660e+00 -1.086903296124678286e-01 -4.701924471000638872e-02 -1.555827540153076616e-01 5.719700089095298978e-02 1.233528567673131821e-01 6.260854556822674499e-03 2.133033481092264094e-01 -2.937138193001463393e-01 -8.861014193885674572e-02 -1.149944296894896481e-02 -5.176652720814160780e-02 2.031369811721790986e-01 1.216053979155624770e-01 -2.221748935017952842e-01 5.689221126968008885e-02 -3.897178458452762312e-02 -5.249474608414392979e-02 -4.601474648847591470e-02 -1.977782176128287106e-02 2.135157957995146738e+00 -1.171834676878276971e-01 -4.787905235175132779e-02 1.843383841510528864e-01 -2.664308311949433739e-01 -5.506873407977139756e-01 2.259050988856092512e-01 -1.107024876040894334e-01 -8.560439753048904032e-02 -6.041259868393803606e-02 -2.534947499698478324e-02 -9.659558893075109731e-02
-2.305091730644943659e-01 7.077340130201544843e-01 -2.525867088899863555e-01 -4.791860231555188920e-01 -1.991813263629202690e-01 9.132973671763666701e-02 -4.869494723850479462e-02 4.426420018145774127e-01 -2.739689951092744158e-01 1.854804892252558401e-01 2.738675973577813783e-01 -1.660196581524013837e-01 4.351014475061144582e-01 -4.369949365920408058e-01 -3.333533800096584176e-01 -1.817658706286144621e-01 -2.149418481908638157e-01 -5.287292631888804856e-02 -1.627582465038122650e-01 -3.621889248542034534e-01 -1.228693021973661786e-01 9.138966712236958057e-02 -5.105249034752787525e-03 -6.732148281775997278e-02 2.567617346942561718e-01 2.093510546427816005e-02 -1.589028153160153833e-01 1.152442015245258133e+00 -1.652316271707881812e-01 2.482941165623896718e-01 -2.845508664898518392e-01 -3.966356490124026135e-02 -1.009879404262175803e-02 -1.648609778303040951e-01 -7.029225988907322753e-02 2.125341237091120383e-01 -2.159766789942427490e-01 -2.738871150865083703e-01 -2.888502300306948403e-03 7.141482401331245011e-02 -3.013025890754975067e-01 1.900907154870720150e-01 -1.103583831311226449e-01 -3.898295624240421392e-02 1.685407061477905699e-01 2.978468935491518921e-01 4.279622116314503177e-01 1.218727240211700258e-01 -1.595427055871210392e-02 -3.227380518042016200e-01 1.581886457464638795e-02 2.492826486751046136e-02 -1.494338785983229390e-01 -7.846969526690394936e-02 -4.740763573347563098e-02 7.167628102249930244e-02 -3.118445801574881715e-01 -4.396116551206576406e-01 3.593296147186231942e-02 -6.477093583195828175e-02 -4.483701044509761507e-02 -2.975622464685054314e-01 -5.024894950075168287e-01 9.848559309862398026e-02 1.847129986651285805e-01 -2.563285398935060688e-01 7.070502531489734378e-03 -5.586692212646599681e-02 -1.224635096978361898e-01 -2.083968169746393609e-02 1.336314345583934117e-02 3.840172215847047904e-02 -8.636922330380008075e-03 -1.064333908682423557e-01 1.362022265052747483e-01 -1.283762843649531582e-01 -4.833951643168352685e-01 4.157725018432846809e-01 -2.632808664423201828e-01 -3.049191606679541588e-01 -2.686012953574944961e-01 -9.189946534606882600e-02 -1.399449539090653893e-01 9.018540857206522321e-02 1.200950204855134699e-03 1.558309312400617541e-01 -1.409985451889936847e-01 2.430602819092090305e-01 -2.027610372805308814e-01 -3.515653646069168414e-01 -2.903263461099966358e-01 -2.080201096370470071e-01 2.476183358521075739e-01 4.978639171748105996e-01 -3.674746580181378897e-01 -1.672138067447944687e-01 -1.344685977090658846e-01 -2.451349035910996843e-01 -7.680827048483365727e-02 3.049150141924660828e-01
