-1.832420760190436315e-01 8.136630089396010290e-02 4.005026942397001133e-02 4.460439635809075598e-02 1.864701351908087112e-01
-4.263978221720863757e-03 1.254446811171375797e-01 -1.744970715372472503e-01 3.488513669018447616e-02 -6.715364833091093388e-02
7.624773397599415858e-02 2.248922378839885994e-01 4.190171563421125622e-01 4.035441579616010355e-01 2.956393493778297077e-01
-1.358333930547064861e-01 -1.468486473795296565e-01 3.381522623771562180e-02 6.452198564354781618e-02 -3.299213129559162017e-01
3.564908045808636017e-02 1.560795307094375306e-01 1.137987053005383720e-01 1.128595718627437017e-02 -2.622344931319235961e-01
2.957764274948217892e-02 4.366757426409518805e-01 5.489568320133046964e-01 2.831737909162341249e-01 9.370702516803049165e-02
7.852703232775760933e-02 1.371333155899192024e-01 1.121555942095121688e-01 1.503144091646653469e-01 5.797474058014825959e-02
-1.561214015316263470e-01 -1.280099608470050554e-01 2.474986319672556057e-01 2.376066960604376610e-01 3.390290288419202658e-01
-2.177779533877264584e-01 -1.001582563954805244e-01 1.582308450056991445e-01 5.276799635122021020e-02 -2.455053852201389830e-01
-2.012914618996420463e-02 1.090441569056469912e-01 1.161654250244852776e-01 2.620100284610106800e-01 -7.884600266417986225e-02
-2.124410972649075913e-01 2.532599916413378338e-01 1.329127789525753056e-01 -2.094668527167411476e-01 -1.605587521620437941e-01
-2.589198798389016898e-01 2.204672069595108586e-01 2.226819657510563932e-01 -5.201220311315257055e-02 -1.293242114287490030e-01
