1.487125511613292206e+00 4.819863065615068165e-01 5.382451326218037346e-01 -6.033633719428900255e-01 -8.297433485842768963e-01
-1.529795550794527337e+00 7.817025179863583417e-02 -5.314795628679951089e-02 3.203722280776692521e+00 1.024050985122035157e-01
1.425300160742119626e+00 -2.396667670723530708e-01 3.626422807345002775e-01 -2.117940031011821933e+00 4.576640637738011441e-01
-3.439858206661134399e-01 -3.417595695267648392e-01 2.018897892678410758e-03 3.853839383512138728e-01 1.756125596657704124e-01
-2.646541474058476395e-01 -3.826766588925692991e-01 8.239641082217089019e-02 3.666722287552861004e-01 2.020047243169185158e-01
-6.915032487292126495e-01 1.127598808428548482e-01 4.425932983162231826e-01 2.367569536122270168e+00 -1.137316759299761504e+00
1.548990672734034346e+00 5.291517772405066600e-01 2.935622320685821185e-01 -7.225806595334447469e-01 -6.447642501591556163e-01
-1.571566423249780131e+00 1.497007293850272439e-02 -1.715255896835176097e-01 3.009094058020389539e+00 -1.127340279994992409e-02
-1.403173618139711643e+00 -1.732116318957047374e-01 5.077519963110443957e-02 2.110645477885191301e+00 -1.430922930839192975e-01
2.182124570429069821e-01 -1.577566676166463067e-01 4.955410909808113940e-01 -3.673859012252761458e-01 1.106769944775323339e-01
1.833953906452105986e-01 -1.435960575398744776e-01 3.412167489865333692e-01 -3.535578859308456945e-01 2.494371956915894528e-01
8.041815134340307702e-01 -5.795382168300914350e-01 -1.478331158671688239e-01 -2.421507913977725135e+00 -2.975148871822220348e-02
