7.669765722451340473e-01 5.080193574364797460e-01 5.631854758428108676e-01 8.573404470378520603e-01
3.385212850809269369e-01 4.617115730793217021e-01 9.729395708535242271e-01 9.259757466560626371e-01
6.498831965290743362e-01 3.319204129280571847e-01 1.571098046166852780e-01 3.136106197279055485e-01
-1.562240376604901240e-02 -3.848320143210444133e-01 2.856998601873162458e-01 4.297438342873515227e-01
3.658025838109586481e-01 1.275234818819163951e-01 -2.664223976854914744e-01 -2.264192452285873625e-03
-1.417743091925406929e-01 -5.278125547062967327e-01 3.867155953790191170e-01 2.523226085616432912e-01
5.315896357947059725e-01 8.848353766736302695e-02 1.466883009078923661e-01 2.105650677191751030e-01
-2.905155479910944555e-02 1.315005277155211275e-03 2.942154971404525865e-01 5.785194124661454662e-01
5.153354650734522924e-01 8.439278920006630658e-02 -1.257585884382729779e-01 -3.700501671836270434e-02
-4.023856717550484130e-01 -5.210827067472497687e-01 1.451928972882285673e-01 1.993059527943994436e-01
-7.597722853387836595e-02 -1.587426634273437498e-01 -7.940824290286568887e-02 -1.454582385706395808e-01
7.957525392760091132e-02 -4.141566256433982796e-01 3.116981799656018404e-01 3.081673619950152654e-01
